tree
version=v4
num_class=1
num_tree_per_iteration=1
label_index=0
max_feature_idx=43
objective=regression
feature_names=acuity gender triage_hr triage_sbp triage_o2sat arrival_hour arrival_dow arrival_is_night prefix_duration_min last_duration_min avg_duration_min std_duration_min freq_ED_ARRIVAL freq_ED_END freq_MEDICATION_DISPENSED freq_MEDICATION_RECONCILIATION freq_TRIAGE freq_VITAL_SIGN_REASSESSMENT last1_ed_arrival last1_triage last1_vital_sign_reassessment last1_medication_reconciliation last1_medication_dispensed last1_ed_end last1_none last2_ed_arrival last2_triage last2_vital_sign_reassessment last2_medication_reconciliation last2_medication_dispensed last2_ed_end last2_none last3_ed_arrival last3_triage last3_vital_sign_reassessment last3_medication_reconciliation last3_medication_dispensed last3_ed_end last3_none transport_AMBULANCE transport_HELICOPTER transport_OTHER transport_UNKNOWN transport_WALK_IN
feature_infos=[0:5] [0:1] [0:570] [0:415] [0:1005] [0:23] [0:6] [0:1] [-56:4129] [0:925] [0:329.36363636363637] [0:545.01865411500671] [0:1] none [0:50] [0:24] [0:1] [0:104] [0:1] [0:1] [0:1] [0:1] [0:1] none none [0:1] [0:1] [0:1] [0:1] [0:1] none [0:1] [0:1] [0:1] [0:1] [0:1] [0:1] none [0:1] [0:1] [0:1] [0:1] [0:1] [0:1]
tree_sizes=6128 6218 6239 6255 6250 6219 6226 6273 6220 6239 6279 6216 6249 6196 6206 6229 6226 6207 6207 6141 6209 6236 6204 6137 6130 6216 6114 6205 6146 6094 6035 6093 6190 6117 5998 6019 5899 6133 5973 5948 6250 5912 6153 5923 5948 6076 5987 6227 6058 5903 5911 6232 5918 5951 6091 5946 6111 6018 6084 6030 5955 6067 5982 6059 5814 5892 6021 6076 5845 5886 6004 6073 5933 5860 6120 5794 5738 5893 6178 5844 5848 5939 5920 5846 6070 5786 5949 5921 6030 5928 6032 5811 5898 5769 5691 6050 5999 6031 6054 5790 5733 6157 5865 5818 6082 5697 5668 5725 6083 6082 5624 6053 5766 5589 5642 6136 5622 5753 6072 5650 5891 5830 5637 5779 5584 6153 5781 5740 6022 5916 5597 5906 5668 5802 5735 5582 5712 5687 5899 5793 5965 5804 5746 5698 5751 5669 5703 5673 5776 5813 5902 5629 5690 5850 5777 5673 5609 5768 5897 6013 5692 5745 5567 5684 5696 6022 5754 5529 5848 5704 5593 5536 5884 5577 5626 5864 5540 5749 5593 5927 5672 5531 5941 5654 5663 5681 5738 5672 5527 5779 5631 5680 5645 5622 5837 5905 5729 5722 5519 5724 5823 5567 5677 5587 5945 5766 5578 5692 5694 5662 6044 5642 5685 5635 5855 5948 5630 5930 5812 5591 6087 5626 5676 5998 5571 5635 5658 6073 5542 5617 5709 5635 5568 5530 5648 5642 5678 5552 5596 5899 5557 5581 5752 5890 5689 5630 5560 5643 5585 5691 5904 5678 5578 5707 5788 5637 5540 5667 5754 5541 5488 5637 5596 5766 5676 5556 5671 5577 5606 5612 5998 5792 5672 5549 5588 5591 5575 5768 6032 5922 5652 5608 5860 5773 5582 5527 5903 5783 5626 5713 5613 5578 5910 5631 5912 5643 5735 5558 5669 5807 5672 5607 5531 5568 5724 5766 5935 5537 5564 5548 6003 5561 5805 5680 5569 5839 5580 5651 5668 5661 5568 5588 5744 5566 5627 5937 5594 5832 5612 5546 5577 5638 5672 5618 5588 5959 5573 5668 5695 5577 5600 5561 5903 5862 5692 5593 5602 5585 5486 5935 5576 5636 5604 5684 5793 5664 5524 5634 5521 5764 5511 5568 5620 5790 5889 5539 5520 5918 5635 5619 5639 5541 5546 5674 5594 5589 5596 5479 5554 5527 5893 5563 5985 5598 5706 5568 5622 5846 5639 5500 5474 5788 5745 5896 5653 5595 5773 5584 5722 5551 5842 5623 5624 5578 5649 5695 5567 5541 5666 5662 5553 5681 5566 5569 5511 5621 5586 5694 5570 5473 6121 5814 5541 5525 5585 5565 5545 5636 5594 5556 5549 5557 5575 5549 5573 5582 5663 5516 5674 5566 5531 5656 5485 5574 5554 5677 5691 5577 5599 5880 5756 5658 5606 5470 5649 5627 5594 5611 5547 5681 5642 5503 5644 5624 5573 5498 5487 5521 5547 5606 5501 5809 5520 5650 5611 5586 5586 5702 5564 5584 5584 5515 5780 5497 5548 5479 5574 5502 5635 5603 5794 5666 5679 5745 5934 5600 5607 5598 5624 5564

Tree=0
num_leaves=63
num_cat=0
split_feature=9 8 0 0 42 10 10 39 39 0 39 0 0 42 8 14 0 0 20 8 42 17 0 17 14 0 0 39 17 5 39 17 0 5 9 21 26 20 19 9 17 9 17 9 0 39 11 0 43 8 0 9 8 8 2 17 5 5 8 8 8 5
split_gain=4.07628e+09 2.1756e+09 1.62018e+09 1.50465e+09 1.3165e+09 1.3438e+09 1.03355e+09 6.75151e+08 6.11964e+08 5.84261e+08 5.76473e+08 5.11352e+08 4.29581e+08 4.25578e+08 4.1189e+08 4.76306e+08 3.77467e+08 3.35949e+08 3.04401e+08 2.72119e+08 1.839e+08 1.69611e+08 1.7307e+08 1.67121e+08 1.54838e+08 1.54623e+08 1.5193e+08 1.51903e+08 1.4233e+08 1.3316e+08 1.30011e+08 1.22121e+08 1.16665e+08 1.1251e+08 1.09252e+08 1.03316e+08 9.99743e+07 9.43972e+07 9.11378e+07 9.06992e+07 8.59424e+07 8.15668e+07 8.02279e+07 7.86297e+07 7.72671e+07 8.7892e+07 8.25566e+07 7.38096e+07 7.51924e+07 7.30454e+07 6.19047e+07 6.0227e+07 7.25663e+07 5.98098e+07 5.58879e+07 5.24465e+07 5.20535e+07 5.09666e+07 1.00793e+08 7.87812e+07 5.71947e+07 5.87331e+07
threshold=3.5000000000000004 478.50000000000006 3.5000000000000004 3.5000000000000004 1.0000000180025095e-35 1.0000000180025095e-35 2.2583333333333337 1.0000000180025095e-35 1.0000000180025095e-35 2.5000000000000004 1.0000000180025095e-35 2.5000000000000004 2.5000000000000004 1.0000000180025095e-35 492.50000000000006 1.0000000180025095e-35 1.5000000000000002 1.5000000000000002 1.0000000180025095e-35 1539.5000000000002 1.0000000180025095e-35 7.5000000000000009 2.5000000000000004 1.0000000180025095e-35 1.0000000180025095e-35 1.5000000000000002 1.5000000000000002 1.0000000180025095e-35 1.0000000180025095e-35 15.500000000000002 1.0000000180025095e-35 9.5000000000000018 1.5000000000000002 13.500000000000002 193.50000000000003 1.0000000180025095e-35 1.0000000180025095e-35 1.0000000180025095e-35 1.0000000180025095e-35 242.50000000000003 4.5000000000000009 5.5000000000000009 5.5000000000000009 6.5000000000000009 2.5000000000000004 1.0000000180025095e-35 45.639786143172401 1.5000000000000002 1.0000000180025095e-35 1290.5000000000002 2.5000000000000004 50.500000000000007 317.50000000000006 380.50000000000006 126.50000000000001 4.5000000000000009 10.500000000000002 5.5000000000000009 964.50000000000011 1034.5000000000002 574.50000000000011 11.500000000000002
decision_type=2 2 2 2 2 2 2 2 2 2 2 2 2 2 2 2 2 2 2 2 2 2 2 2 2 2 2 2 2 2 2 2 2 2 2 2 2 2 2 2 2 2 2 2 2 2 2 2 2 2 2 2 2 2 2 2 2 2 2 2 2 2
left_child=2 3 4 6 5 7 10 9 11 25 12 13 20 26 15 28 -9 -10 41 21 36 22 40 -13 -19 -1 -8 -4 -7 57 54 33 -17 -21 42 -30 -2 43 -18 -28 -3 -12 53 -14 46 -46 55 -37 -49 -31 -50 -25 -53 -26 -5 -34 -11 58 -24 60 -59 -62
right_child=1 19 27 30 -6 14 8 16 17 56 18 23 37 -15 -16 32 38 24 -20 31 -22 -23 29 51 34 -27 39 -29 35 49 -32 -33 44 -35 -36 47 -38 -39 -40 -41 -42 -43 -44 -45 45 -47 -48 48 50 -51 -52 52 -54 -55 -56 -57 -58 59 -60 -61 61 -63
leaf_value=354.80745582954694 354.44334120933519 360.95717209395673 345.26568327488212 340.99480434812762 345.62699815630498 353.75844007077052 348.86008348261669 354.6641247755262 348.67480798691258 354.33088187242822 361.08787561763012 345.86682451041816 358.53370173115582 344.04921614869926 360.21941309039892 348.87602182976809 361.58457033464106 354.03433619960026 359.37828999133899 361.02813353449665 346.70692396394344 353.5347284567469 351.40373798741899 349.65099016085838 351.70432025917751 361.82393966038774 352.35427008418014 355.25618668757136 354.04870263697069 352.73150661176214 349.30796454338844 358.81167881385886 353.70763413881184 372.98397106682228 356.78351674497043 352.42755696899133 358.70871700747654 351.84269744913399 364.20292676419518 359.17563151231366 357.29443876428309 353.62610412845135 348.97336111488465 348.5142844863712 349.92544476506822 353.99615206933692 357.24757484369849 359.65199090354326 359.029709732519 368.47021185988882 354.621486319864 347.43557498019766 350.56825102049021 354.7162077509584 398.02906934657972 348.99175577786053 356.34103256932013 356.40695510599284 371.87550035732545 353.66303841695515 364.74882179886282 358.68154172117602
leaf_weight=8843 28249 28943 34268 38701 25087 41999 33218 17155 62115 44419 3953 63916 2036 18549 32095 22881 94526 130292 58866 3726 5231 45855 6185 103457 179263 70057 167583 4280 20880 33118 5447 8952 36976 4170 10842 5600 26743 55644 51254 5019 35856 49825 24973 51198 35144 21295 15034 46715 13987 754 18495 100183 22669 18152 43 7014 117130 9792 666 7658 6894 9465
leaf_count=8843 28249 28943 34268 38701 25087 41999 33218 17155 62115 44419 3953 63916 2036 18549 32095 22881 94526 130292 58866 3726 5231 45855 6185 103457 179263 70057 167583 4280 20880 33118 5447 8952 36976 4170 10842 5600 26743 55644 51254 5019 35856 49825 24973 51198 35144 21295 15034 46715 13987 754 18495 100183 22669 18152 43 7014 117130 9792 666 7658 6894 9465
internal_value=353.463 351.908 356.371 351.139 356.887 357.278 351.466 359.195 350.67 357.511 354.123 349.51 352.277 351.303 354.849 354.246 361.68 352.073 356.894 356.726 355.665 356.172 357.041 348.125 352.654 361.038 351.957 346.375 356.221 355.397 342.075 362.81 352.138 367.342 351.882 357.199 356.518 350.403 362.505 352.553 358.93 354.175 351.643 348.897 352.784 351.461 354.049 357.975 358.367 353.082 356.52 348.762 348.014 351.981 341.058 352.956 355.788 357.326 353.394 358.123 359.429 361.238
internal_weight=2.25334e+06 1.4682e+06 785134 1.26617e+06 746586 721499 1.22198e+06 403384 940231 240449 281745 514594 169101 224369 318115 286020 162935 425637 112644 202034 60223 185186 139331 290225 363522 78900 205820 38548 147676 74532 44191 16848 138344 7896 233230 105677 54992 108878 145780 172602 64799 53778 222388 53234 115463 56439 59024 84797 79197 33872 32482 226309 122852 197415 38744 43990 161549 40660 6851 33809 26151 16359
internal_count=2253335 1468201 785134 1266167 746586 721499 1221976 403384 940231 240449 281745 514594 169101 224369 318115 286020 162935 425637 112644 202034 60223 185186 139331 290225 363522 78900 205820 38548 147676 74532 44191 16848 138344 7896 233230 105677 54992 108878 145780 172602 64799 53778 222388 53234 115463 56439 59024 84797 79197 33872 32482 226309 122852 197415 38744 43990 161549 40660 6851 33809 26151 16359
is_linear=0
shrinkage=1


Tree=1
num_leaves=63
num_cat=0
split_feature=9 8 0 0 42 10 10 39 39 0 39 0 0 42 8 14 0 0 20 8 43 17 0 17 0 14 0 39 17 5 39 17 0 9 5 21 26 20 9 19 17 9 17 9 0 39 11 8 0 43 8 5 0 8 0 17 9 3 7 8 5 2
split_gain=3.67885e+09 1.96385e+09 1.46222e+09 1.35834e+09 1.18814e+09 1.21278e+09 9.26615e+08 6.09323e+08 5.53041e+08 5.27296e+08 5.20267e+08 4.63017e+08 3.87697e+08 3.85216e+08 3.71937e+08 4.24637e+08 3.40664e+08 3.04175e+08 2.74722e+08 2.41667e+08 1.66753e+08 1.5443e+08 1.53092e+08 1.52405e+08 1.39547e+08 1.38183e+08 1.37922e+08 1.37092e+08 1.28636e+08 1.22893e+08 1.18507e+08 1.10214e+08 1.05819e+08 1.03733e+08 1.0154e+08 9.36468e+07 8.5393e+07 8.51935e+07 8.50062e+07 8.22519e+07 7.99393e+07 7.38054e+07 7.22265e+07 7.09633e+07 7.03129e+07 7.93431e+07 7.89948e+07 6.68323e+07 6.67218e+07 6.78497e+07 6.13184e+07 1.33568e+08 6.02434e+07 5.75649e+07 5.5846e+07 5.46656e+07 5.40423e+07 5.21188e+07 5.16453e+07 1.07192e+08 8.28916e+07 5.04309e+07
threshold=3.5000000000000004 485.50000000000006 3.5000000000000004 3.5000000000000004 1.0000000180025095e-35 1.0000000180025095e-35 2.2583333333333337 1.0000000180025095e-35 1.0000000180025095e-35 2.5000000000000004 1.0000000180025095e-35 2.5000000000000004 2.5000000000000004 1.0000000180025095e-35 506.50000000000006 1.0000000180025095e-35 1.5000000000000002 1.5000000000000002 1.0000000180025095e-35 1539.5000000000002 1.0000000180025095e-35 7.5000000000000009 2.5000000000000004 1.0000000180025095e-35 1.5000000000000002 1.0000000180025095e-35 1.5000000000000002 1.0000000180025095e-35 1.0000000180025095e-35 15.500000000000002 1.0000000180025095e-35 9.5000000000000018 1.5000000000000002 202.50000000000003 13.500000000000002 1.0000000180025095e-35 1.0000000180025095e-35 1.0000000180025095e-35 292.50000000000006 1.0000000180025095e-35 3.5000000000000004 6.5000000000000009 5.5000000000000009 6.5000000000000009 2.5000000000000004 1.0000000180025095e-35 46.836091257659739 1389.5000000000002 1.5000000000000002 1.0000000180025095e-35 1249.5000000000002 16.500000000000004 1.5000000000000002 380.50000000000006 2.5000000000000004 1.5000000000000002 45.500000000000007 132.50000000000003 1.0000000180025095e-35 922.50000000000011 15.500000000000002 126.50000000000001
decision_type=2 2 2 2 2 2 2 2 2 2 2 2 2 2 2 2 2 2 2 2 2 2 2 2 2 2 2 2 2 2 2 2 2 2 2 2 2 2 2 2 2 2 2 2 2 2 2 2 2 2 2 2 2 2 2 2 2 2 2 2 2 2
left_child=2 3 4 6 5 7 10 9 11 24 12 13 20 26 15 28 -9 -10 41 21 -2 22 40 -13 -1 -19 -8 -4 -7 -24 61 34 -17 42 -21 -30 -22 43 57 -18 -3 52 53 -14 46 -46 -34 -31 -37 -50 58 -52 -12 -27 -51 56 -25 -28 60 -60 -42 -5
right_child=1 19 27 30 -6 14 8 16 17 -11 18 23 37 -15 -16 32 39 25 -20 31 36 -23 29 55 -26 33 38 -29 35 47 -32 -33 44 -35 -36 48 -38 -39 -40 -41 50 -43 -44 -45 45 -47 -48 -49 49 54 51 -53 -54 -55 -56 -57 -58 -59 59 -61 -62 -63
leaf_value=1.2775488902416481 -5.5802630641813558 8.4482249771538189 -7.7871351429640132 -11.840187445918028 -7.4438857500529467 0.28193470960114764 -4.3668426275195786 1.1413843138315192 -4.5409727598150758 2.2093772802549871 -2.3123679642307726 -7.2143257438884794 4.8174824666279443 -8.9377445703569371 6.5250136813873043 -4.3272034476313932 7.7158075416020315 0.54471137153287652 5.6198411376074207 7.1871926702780957 1.0512029050787524 0.094284299103836164 3.7767404531409285 -4.0292861994151812 7.9432083594539593 -1.6594222945503334 -1.9545234183266957 1.7038431704068715 0.55566980206368732 -0.58524280110925841 -3.9134377619466449 5.0815606221986123 -0.45038237653069824 3.6040556477198358 18.54523790013867 -0.98335498354803519 5.033116890033221 -1.5389717554739095 8.343611353542844 10.203246101209745 6.9052036349699568 0.096652265213230018 -4.209255738286898 -4.7009637941404483 -3.3227753360047418 0.52531146606786194 3.7816280001641931 21.256974173400366 5.8837358931198205 5.292917175600004 4.1350089294485164 25.135670409855337 10.119898043733969 1.2151697929857548 1.1071094795324026 -3.7176321302397639 -6.2839526737840936 -0.19860637039903228 -1.9450678969948534 14.740248537584064 2.1227862853232962 42.338081501805505
leaf_weight=8843 6336 15004 34268 38721 25087 42004 33279 17155 62239 161549 1360 63925 2036 18564 30942 22951 94526 130528 58866 3726 27584 45397 39589 48279 70057 180389 76606 4280 20913 32743 5462 8952 44864 9605 4170 5600 26303 55644 2477 51254 18691 48981 25469 51198 35433 21538 14620 354 46749 13993 2464 1093 3437 19277 18508 120002 59125 94256 7334 1108 17585 43
leaf_count=8843 6336 15004 34268 38721 25087 42004 33279 17155 62239 161549 1360 63925 2036 18564 30942 22951 94526 130528 58866 3726 27584 45397 39589 48279 70057 180389 76606 4280 20913 32743 5462 8952 44864 9605 4170 5600 26303 55644 2477 51254 18691 48981 25469 51198 35433 21538 14620 354 46749 13993 2464 1093 3437 19277 18508 120002 59125 94256 7334 1108 17585 43
internal_value=3.81237e-09 -1.47738 2.7627 -2.19981 3.253 3.62494 -1.8892 5.44538 -2.64022 3.84571 0.627194 -3.74123 -1.12643 -2.03846 1.31654 0.755347 7.80607 -1.30999 3.25973 3.15142 2.09265 2.61929 3.46236 -5.05737 7.19613 -0.759457 -1.41858 -6.73335 2.62284 1.89692 -10.8085 8.87959 -1.22415 -1.48464 13.1856 3.55254 2.99483 -2.90698 -0.852554 8.59035 5.26052 0.676325 -1.70174 -4.33692 -0.6126 -1.868 0.589763 -0.351622 4.29117 4.66389 4.26977 10.5881 6.59522 -1.38189 2.90927 -4.45103 -5.27046 -0.985872 3.76719 0.244855 4.5869 -11.7801
internal_weight=2.25334e+06 1.4682e+06 785134 1.26999e+06 746586 721499 1.22576e+06 403384 944020 240449 281745 516513 169101 225182 318115 287173 162935 427507 112644 198210 60223 181362 135965 291331 78900 365268 206618 38548 147767 72686 44226 16848 139406 234740 7896 105763 53887 108878 173339 145780 63279 53778 225135 53234 116455 56971 59484 33097 84850 79250 48275 3557 4797 199666 32501 227406 107404 170862 44718 8442 36276 38764
internal_count=2253335 1468201 785134 1269991 746586 721499 1225765 403384 944020 240449 281745 516513 169101 225182 318115 287173 162935 427507 112644 198210 60223 181362 135965 291331 78900 365268 206618 38548 147767 72686 44226 16848 139406 234740 7896 105763 53887 108878 173339 145780 63279 53778 225135 53234 116455 56971 59484 33097 84850 79250 48275 3557 4797 199666 32501 227406 107404 170862 44718 8442 36276 38764
is_linear=0
shrinkage=0.05


Tree=2
num_leaves=63
num_cat=0
split_feature=9 8 0 0 42 10 10 39 39 0 39 0 0 42 8 14 0 0 20 8 42 9 14 17 0 7 8 39 0 17 17 39 0 17 5 8 8 8 21 5 26 20 17 19 9 9 0 9 0 39 11 0 43 9 9 0 0 17 8 0 17 5
split_gain=3.32016e+09 1.78266e+09 1.31965e+09 1.22641e+09 1.0723e+09 1.09454e+09 8.78435e+08 5.49914e+08 4.83662e+08 4.75884e+08 4.69541e+08 4.08114e+08 3.49897e+08 3.39205e+08 3.36308e+08 3.88189e+08 3.07449e+08 2.65823e+08 2.47936e+08 2.41181e+08 1.51344e+08 1.41271e+08 1.39461e+08 1.27505e+08 1.25941e+08 1.25857e+08 2.31342e+08 1.23726e+08 1.19764e+08 1.1592e+08 1.01117e+08 1.00887e+08 9.50418e+07 8.77714e+07 9.72685e+07 1.06579e+08 9.42389e+07 1.57143e+08 8.4139e+07 8.29076e+07 8.16174e+07 7.68872e+07 7.60368e+07 7.42323e+07 6.7628e+07 6.66094e+07 6.47095e+07 6.43387e+07 6.29695e+07 7.16258e+07 6.73369e+07 6.01133e+07 6.12479e+07 6.00405e+07 5.65385e+07 5.43696e+07 5.04243e+07 5.01326e+07 4.98331e+07 4.84082e+07 4.81308e+07 4.69783e+07
threshold=3.5000000000000004 440.50000000000006 3.5000000000000004 3.5000000000000004 1.0000000180025095e-35 1.0000000180025095e-35 2.2583333333333337 1.0000000180025095e-35 1.0000000180025095e-35 2.5000000000000004 1.0000000180025095e-35 2.5000000000000004 2.5000000000000004 1.0000000180025095e-35 492.50000000000006 1.0000000180025095e-35 1.5000000000000002 1.5000000000000002 1.0000000180025095e-35 1539.5000000000002 1.0000000180025095e-35 216.50000000000003 1.0000000180025095e-35 1.0000000180025095e-35 1.5000000000000002 1.0000000180025095e-35 1117.5000000000002 1.0000000180025095e-35 1.5000000000000002 1.0000000180025095e-35 8.5000000000000018 1.0000000180025095e-35 1.5000000000000002 8.5000000000000018 15.500000000000002 1335.5000000000002 521.50000000000011 1034.5000000000002 1.0000000180025095e-35 13.500000000000002 1.0000000180025095e-35 1.0000000180025095e-35 4.5000000000000009 1.0000000180025095e-35 292.50000000000006 6.5000000000000009 2.5000000000000004 7.5000000000000009 2.5000000000000004 1.0000000180025095e-35 45.639786143172401 1.5000000000000002 1.0000000180025095e-35 228.50000000000003 53.500000000000007 1.5000000000000002 2.5000000000000004 5.5000000000000009 1539.5000000000002 2.5000000000000004 3.5000000000000004 10.500000000000002
decision_type=2 2 2 2 2 2 2 2 2 2 2 2 2 2 2 2 2 2 2 2 2 2 2 2 2 2 2 2 2 2 2 2 2 2 2 2 2 2 2 2 2 2 2 2 2 2 2 2 2 2 2 2 2 2 2 2 2 2 2 2 2 2
left_child=2 3 4 6 5 7 10 9 11 24 12 13 20 28 15 29 -9 -10 45 21 40 25 -19 -13 -1 33 -27 -4 -8 59 39 -5 -17 34 36 46 -3 -38 -31 -21 -2 47 53 -18 57 55 -36 -14 50 -50 60 -40 -53 -24 -25 -12 -54 -30 -16 -7 -34 -11
right_child=1 19 27 31 -6 14 8 16 17 61 18 23 41 -15 58 32 43 22 -20 30 -22 -23 42 54 -26 26 -28 -29 44 38 -32 -33 48 -35 35 -37 37 -39 51 -41 -42 -43 -44 -45 -46 -47 -48 -49 49 -51 -52 52 56 -55 -56 -57 -58 -59 -60 -61 -62 -63
leaf_value=1.2136713953255465 0.88688534326382928 1.2158649598965785 -7.3977781992400002 -11.242409768374376 -7.0716913845241738 2.1511954884507865 -4.1865528437307349 1.0843150776157582 -4.3705695014578234 0.71433481209837379 -2.1967496101919783 -6.8598410785313781 4.1466699941650687 -8.5082386578356264 5.4507462564718772 -4.1409532572295493 7.3300171191208294 0.50777790576452675 5.3388490846222707 7.4970080161654113 -6.1389432863420819 5.9210920562266711 -1.3071709858179201 -3.4787562970373416 7.546048051748695 -1.9361526140117933 16.304444872385016 1.6186508282529033 -0.78456638950292223 0.52894986608790029 5.5652622014146438 -3.9230449183296905 0.48926574142777773 -0.23535775455539854 2.8938150174623538 15.980134127608366 7.2104314331414585 0.95542452476817774 -0.93418733316579283 19.29174403941914 4.7408221597396674 -1.4620228060316189 -3.6609088780863921 9.6930838952466445 7.7407703653283537 0.09181942550054345 -0.48881956414246991 -4.4855742669454344 -3.1942228122230389 0.48054462063503911 3.4170240048260809 5.5856703540871067 5.0240440441342082 4.0496994272438931 -5.0858892534767897 9.6139034240466756 1.0455222700119913 -4.5151161468380154 12.046953292635063 -1.2623255242003155 -3.343368483458192 2.6239777485250189
leaf_weight=8843 28249 18771 34268 38593 25087 18815 32794 17155 61295 44419 1360 63825 2254 18444 28917 22881 94526 128792 58866 2850 5231 22922 182578 104459 70057 32654 1836 4280 156100 20880 10876 5362 33105 26469 26886 1232 34442 14173 5600 3122 26743 55644 36038 51254 2243 48981 29819 50980 35144 21295 15034 46715 13987 5385 114939 3437 18495 9557 3178 23184 10885 117130
leaf_count=8843 28249 18771 34268 38593 25087 18815 32794 17155 61295 44419 1360 63825 2254 18444 28917 22881 94526 128792 58866 2850 5231 22922 182578 104459 70057 32654 1836 4280 156100 20880 10876 5362 33105 26469 26886 1232 34442 14173 5600 3122 26743 55644 36038 51254 2243 48981 29819 50980 35144 21295 15034 46715 13987 5385 114939 3437 18495 9557 3178 23184 10885 117130
internal_value=1.49655e-08 -1.40351 2.62457 -2.14675 3.09035 3.44369 -1.84584 5.17311 -2.59648 3.65343 0.595834 -3.63934 -1.07011 -2.01918 1.25072 0.70613 7.41577 -1.33131 3.09674 2.68057 1.98802 2.2171 -0.803267 -4.89291 6.83632 1.76132 -0.965154 -6.39668 -1.42283 2.489 8.43561 -10.3495 -1.197 2.38083 2.93338 1.43112 4.225 5.38687 3.37212 13.663 2.76108 -2.76163 -1.55707 8.16083 -0.883021 0.642508 1.11502 -4.12007 -0.613603 -1.8077 0.528194 4.07221 4.42621 -1.1537 -4.32071 6.26546 2.7587 -0.999787 6.10389 0.266887 -0.459091 2.09891
internal_weight=2.25334e+06 1.4682e+06 785134 1.24215e+06 746586 721499 1.19819e+06 403384 916449 240449 281745 502361 169101 219138 318115 286020 162935 414088 112644 226052 60223 209204 352793 283223 78900 186282 34490 38548 200694 147676 16848 43955 138344 151792 125323 57937 67386 48615 105677 5972 54992 108878 224001 145780 167900 53778 56705 53234 115463 56439 59024 84797 79197 187963 219398 4797 32482 165657 32095 41999 43990 161549
internal_count=2253335 1468201 785134 1242149 746586 721499 1198194 403384 916449 240449 281745 502361 169101 219138 318115 286020 162935 414088 112644 226052 60223 209204 352793 283223 78900 186282 34490 38548 200694 147676 16848 43955 138344 151792 125323 57937 67386 48615 105677 5972 54992 108878 224001 145780 167900 53778 56705 53234 115463 56439 59024 84797 79197 187963 219398 4797 32482 165657 32095 41999 43990 161549
is_linear=0
shrinkage=0.05


Tree=3
num_leaves=63
num_cat=0
split_feature=9 8 0 0 42 10 14 0 39 39 0 8 14 0 0 10 8 42 17 9 9 26 17 0 43 0 0 7 8 39 17 9 17 39 0 5 11 5 8 8 9 21 10 17 19 42 15 0 17 8 5 0 39 17 9 11 0 43 8 9 9 16
split_gain=2.99644e+09 1.61028e+09 1.19098e+09 1.10853e+09 9.67748e+08 9.87818e+08 8.04491e+08 6.70516e+08 5.05373e+08 4.96298e+08 4.29486e+08 3.03518e+08 3.5034e+08 2.77473e+08 2.34586e+08 2.53327e+08 2.20573e+08 2.04041e+08 1.78346e+08 1.44199e+08 1.34199e+08 1.33703e+08 1.22732e+08 1.28003e+08 1.67862e+08 1.18244e+08 1.13662e+08 1.12453e+08 1.95178e+08 1.11662e+08 1.04618e+08 9.79485e+07 9.17126e+07 9.00329e+07 8.57752e+07 8.43195e+07 8.26783e+07 1.01908e+08 9.69386e+07 1.87201e+08 7.66083e+07 7.59354e+07 6.94909e+07 7.83674e+07 6.69947e+07 6.44412e+07 6.38986e+07 6.22801e+07 5.85849e+07 7.29172e+07 5.74112e+07 5.68299e+07 6.46422e+07 6.23564e+07 5.67486e+07 5.61135e+07 5.42523e+07 5.52763e+07 5.40918e+07 5.26189e+07 4.85199e+07 4.67229e+07
threshold=3.5000000000000004 434.50000000000006 3.5000000000000004 3.5000000000000004 1.0000000180025095e-35 1.0000000180025095e-35 1.0000000180025095e-35 2.5000000000000004 1.0000000180025095e-35 1.0000000180025095e-35 2.5000000000000004 492.50000000000006 1.0000000180025095e-35 1.5000000000000002 1.5000000000000002 2.2583333333333337 1539.5000000000002 1.0000000180025095e-35 1.0000000180025095e-35 222.50000000000003 198.50000000000003 1.0000000180025095e-35 6.5000000000000009 2.5000000000000004 1.0000000180025095e-35 1.5000000000000002 1.5000000000000002 1.0000000180025095e-35 1088.5000000000002 1.0000000180025095e-35 1.0000000180025095e-35 62.500000000000007 9.5000000000000018 1.0000000180025095e-35 1.5000000000000002 13.500000000000002 36.004443261407133 14.500000000000002 1117.5000000000002 574.50000000000011 6.5000000000000009 1.0000000180025095e-35 1.8090909090909093 1.0000000180025095e-35 1.0000000180025095e-35 1.0000000180025095e-35 2.5000000000000004 2.5000000000000004 1.0000000180025095e-35 8.5000000000000018 11.500000000000002 2.5000000000000004 1.0000000180025095e-35 5.5000000000000009 310.50000000000006 53.101789043364271 1.5000000000000002 1.0000000180025095e-35 80.500000000000014 113.50000000000001 7.5000000000000009 1.0000000180025095e-35
decision_type=2 2 2 2 2 2 2 2 2 2 2 2 2 2 2 2 2 2 2 2 2 2 2 2 2 2 2 2 2 2 2 2 2 2 2 2 2 2 2 2 2 2 2 2 2 2 2 2 2 2 2 2 2 2 2 2 2 2 2 2 2 2
left_child=2 3 4 6 5 9 7 14 31 10 26 12 30 -11 -2 21 20 18 47 22 27 40 23 25 -25 -20 -1 36 -29 -4 -7 -9 35 -5 -14 -18 -3 38 39 59 -16 -32 43 60 -15 -23 -39 -8 -33 -50 -41 53 -53 -36 -17 58 -43 -58 -27 -38 -10 -12
right_child=1 16 29 33 -6 11 17 8 42 13 61 -13 34 44 15 54 32 -19 19 -21 -22 45 -24 24 -26 55 -28 28 -30 -31 41 48 -34 -35 51 -37 37 46 -40 50 -42 56 -44 -45 -46 -47 -48 -49 49 -51 -52 52 -54 -55 -56 -57 57 -59 -60 -61 -62 -63
leaf_value=1.1529877537357416 -2.0661498338374669 -2.6681500318320408 -7.0278893331756738 -10.692642633274835 -6.7181069935355211 0.25354278893737203 -3.2712210523793028 -2.2642051623508457 9.7257602339245874 1.030099196335498 1.3878202611924406 5.7986983471108076 -3.9339056304609126 6.9635163523962866 8.8604260632721843 0.43722532511290446 6.4756906668145291 -8.3043439601955651 -3.7733518834972628 2.5038804836777717 5.2624741709780984 5.8384635243512193 -5.544241004068998 -1.4608492704418008 -4.4091183768948534 0.22218048144174316 7.1687455012222916 -1.9368506440449118 14.044345235210921 1.5377185154671424 0.50250241286761599 -5.9940063685694005 4.5492197146504347 -3.7676777102114509 0.99565442126872661 16.825875505623486 0.56792365408347834 0.49110090187961541 0.24461819493769765 10.126985227560493 1.2685463834236304 -0.88747787195017536 -0.36402874337464858 4.1612807097041875 9.2084297319335597 -5.2378331066145885 4.1456464458952258 -6.050567021021652 -1.9644722631842386 -5.0935392275556834 5.5621569066950514 -3.0345117236774408 0.45651736587736952 -4.8460683091326748 9.0558548718387009 0.68789334779898792 5.3063868388407593 2.6207692591320297 -2.0109233580218091 6.6221164446271503 -0.53803942066879529 3.1868272257139525
leaf_weight=8843 43254 8343 34268 38565 25087 41999 32530 94070 1221 17155 107118 32095 22881 94526 3610 136696 3726 17887 52132 13873 28539 52254 34415 75312 134501 35133 70057 32461 2030 4280 20880 39708 8952 5344 54034 4170 19669 61173 14283 12975 41782 5600 54308 25151 51254 1347 14868 52988 35248 39463 14682 35144 21295 4990 1937 36134 46715 32482 118864 4390 20213 54431
leaf_count=8843 43254 8343 34268 38565 25087 41999 32530 94070 1221 17155 107118 32095 22881 94526 3610 136696 3726 17887 52132 13873 28539 52254 34415 75312 134501 35133 70057 32461 2030 4280 20880 39708 8952 5344 54034 4170 19669 61173 14283 12975 41782 5600 54308 25151 51254 1347 14868 52988 35248 39463 14682 35144 21295 4990 1937 36134 46715 32482 118864 4390 20213 54431
internal_value=-2.42564e-10 -1.33333 2.49334 -2.04748 2.93584 3.27151 -1.76056 -0.447951 -2.05365 4.91446 3.47075 1.18818 0.670823 7.04498 1.32069 1.93718 2.5061 -3.04381 -2.8832 -2.52255 2.07129 3.86912 -2.66589 -2.44677 -3.35084 -1.6638 6.49451 1.57866 -0.996262 -6.07685 2.36455 -3.45943 8.01383 -9.84983 -1.13715 11.9418 2.16923 2.45337 3.89092 4.89796 1.87232 3.20352 0.851302 2.26811 7.75279 5.56011 1.20566 -4.99334 -4.44209 -3.61727 7.7037 -0.582923 -1.71731 0.501784 0.557646 -1.08538 3.8686 4.2049 -1.50146 1.67262 0.0466438 1.99396
internal_weight=2.25334e+06 1.4682e+06 785134 1.23794e+06 746586 721499 1.19403e+06 590262 309382 403384 240449 318115 286020 162935 280880 237626 230261 603769 585882 500364 213413 98993 486491 452076 209813 242263 78900 184874 34491 38548 147676 208489 16848 43909 138344 7896 150383 142040 65999 51716 45392 105677 100893 46585 145780 53601 76041 85518 114419 74711 27657 115463 56439 59024 138633 190131 84797 79197 153997 24059 21434 161549
internal_count=2253335 1468201 785134 1237940 746586 721499 1194031 590262 309382 403384 240449 318115 286020 162935 280880 237626 230261 603769 585882 500364 213413 98993 486491 452076 209813 242263 78900 184874 34491 38548 147676 208489 16848 43909 138344 7896 150383 142040 65999 51716 45392 105677 100893 46585 145780 53601 76041 85518 114419 74711 27657 115463 56439 59024 138633 190131 84797 79197 153997 24059 21434 161549
is_linear=0
shrinkage=0.05


Tree=4
num_leaves=63
num_cat=0
split_feature=9 8 0 0 42 10 10 39 39 0 39 0 43 0 8 14 0 0 20 8 5 43 17 0 14 17 0 17 39 17 5 39 0 22 9 21 0 17 20 26 19 5 8 43 9 8 9 9 9 9 0 17 39 0 43 26 20 0 14 3 10 0
split_gain=2.70429e+09 1.45327e+09 1.07486e+09 1.00045e+09 8.73393e+08 8.91586e+08 7.29444e+08 4.46312e+08 4.02418e+08 3.86685e+08 3.85797e+08 3.30228e+08 2.80183e+08 2.78117e+08 2.77623e+08 3.44531e+08 2.54048e+08 2.20215e+08 2.04207e+08 2.00474e+08 1.30742e+08 1.27043e+08 1.21398e+08 1.53763e+08 1.15402e+08 1.07975e+08 1.03412e+08 1.03135e+08 1.00775e+08 9.37149e+07 9.03425e+07 8.12547e+07 8.00032e+07 7.22798e+07 7.17091e+07 7.0247e+07 6.81909e+07 6.59958e+07 6.35771e+07 6.16194e+07 6.06346e+07 6.05487e+07 7.11522e+07 5.84592e+07 5.67374e+07 5.55222e+07 5.52294e+07 5.47192e+07 5.12394e+07 4.95621e+07 4.8808e+07 5.56783e+07 5.14314e+07 4.86233e+07 4.94698e+07 4.59412e+07 4.77502e+07 4.5806e+07 4.52833e+07 4.4733e+07 4.4513e+07 4.39739e+07
threshold=3.5000000000000004 434.50000000000006 3.5000000000000004 3.5000000000000004 1.0000000180025095e-35 0.36666666666666675 2.2583333333333337 1.0000000180025095e-35 1.0000000180025095e-35 2.5000000000000004 1.0000000180025095e-35 2.5000000000000004 1.0000000180025095e-35 2.5000000000000004 424.50000000000006 1.0000000180025095e-35 1.5000000000000002 1.5000000000000002 1.0000000180025095e-35 1454.5000000000002 13.500000000000002 1.0000000180025095e-35 7.5000000000000009 2.5000000000000004 1.0000000180025095e-35 1.0000000180025095e-35 1.5000000000000002 8.5000000000000018 1.0000000180025095e-35 1.0000000180025095e-35 17.500000000000004 1.0000000180025095e-35 1.5000000000000002 1.0000000180025095e-35 216.50000000000003 1.0000000180025095e-35 1.5000000000000002 4.5000000000000009 1.0000000180025095e-35 1.0000000180025095e-35 1.0000000180025095e-35 6.5000000000000009 922.50000000000011 1.0000000180025095e-35 6.5000000000000009 1213.5000000000002 296.50000000000006 5.5000000000000009 53.500000000000007 228.50000000000003 2.5000000000000004 4.5000000000000009 1.0000000180025095e-35 1.5000000000000002 1.0000000180025095e-35 1.0000000180025095e-35 1.0000000180025095e-35 2.5000000000000004 1.5000000000000002 132.50000000000003 24.506097560975615 2.5000000000000004
decision_type=2 2 2 2 2 2 2 2 2 2 2 2 2 2 2 2 2 2 2 2 2 2 2 2 2 2 2 2 2 2 2 2 2 2 2 2 2 2 2 2 2 2 2 2 2 2 2 2 2 2 2 2 2 2 2 2 2 2 2 2 2 2
left_child=2 3 4 6 5 7 10 9 11 26 13 12 -8 21 15 29 -9 58 47 22 -21 -2 23 34 55 -13 -1 -22 -4 61 43 -5 -14 -16 41 -31 -17 49 44 -23 -18 42 -3 -25 -15 -32 59 -12 -27 -26 51 -38 -52 -37 -55 56 -19 -56 -10 -34 -24 -7
right_child=1 19 28 31 -6 14 8 16 17 -11 18 25 32 38 33 36 40 24 -20 20 27 39 60 30 37 48 -28 -29 -30 35 45 -33 46 -35 -36 53 50 -39 -40 -41 -42 -43 -44 -45 -46 -47 -48 -49 -50 -51 52 -53 -54 54 57 -57 -58 -59 -60 -61 -62 -63
leaf_value=1.0875289399132304 -4.9296287030230248 -1.8149801563236274 -6.6764950957609548 -10.158010899527488 -6.3822015467792834 2.0428461084868896 -7.1546575993199681 0.96745563363885201 -2.5276329635112766 1.8950715548867707 6.2532616784006869 -6.2517239788128283 -3.5995505155215599 4.4833768662325086 1.6369787493945713 -3.7948114784269893 6.6128220268120304 2.2457996580418733 4.8530050687479163 3.0456490600610371 17.480806024467871 0.90404940005414791 -4.8482426511616294 4.0793824002127446 -1.1734798464071166 -3.1099327967124744 6.8062653275810083 7.1501877375826455 1.4608325059656229 0.37443975485708886 -1.5945685877424833 -3.5792935882396666 -1.8366730059729091 6.4134787184674069 8.1352860512940381 -0.82995135699884048 0.84008436845316337 -3.3877378347841152 -1.2851158503795681 4.286561880723581 8.7474307572201937 4.1809119482182027 15.830962781432374 0.91532671351212991 -4.0276882786053605 13.365475195467944 7.3092894414988594 0.14165801182431878 -4.6440320494245677 3.7262705551527713 -3.0502865672539912 -3.99968988691736 0.16429318518125852 5.0392789768973936 4.6548873842159084 -1.7282135374618139 0.07403053689648191 0.8544190974324688 -5.2546253069525761 -0.17194291100986886 0.20745318105224581 -1.2118987848618685
leaf_weight=8909 6336 7408 34268 38565 25087 18790 22358 17381 28736 161683 3953 63806 30499 2036 11028 22434 94794 40208 58866 9842 3925 27584 4856 24878 181678 103923 70157 6284 4280 19944 26635 5344 72914 28105 10123 5595 49465 35433 55644 26303 51256 57630 619 35330 51198 635 2067 49825 114289 5312 33427 6754 19821 46445 13932 20017 68307 18399 32374 90365 42096 23180
leaf_count=8909 6336 7408 34268 38565 25087 18790 22358 17381 28736 161683 3953 63806 30499 2036 11028 22434 94794 40208 58866 9842 3925 27584 4856 24878 181678 103923 70157 6284 4280 19944 26635 5344 72914 28105 10123 5595 49465 35433 55644 26303 51256 57630 619 35330 51198 635 2067 49825 114289 5312 33427 6754 19821 46445 13932 20017 68307 18399 32374 90365 42096 23180
internal_value=-2.17966e-09 -1.26667 2.36867 -1.94511 2.78904 3.10793 -1.67253 4.66531 -2.35932 3.29637 0.551266 -3.31243 -1.85192 -0.958822 1.12425 0.569553 6.6819 -1.2023 2.81821 2.38079 7.15771 1.76764 1.92514 2.56952 -0.71997 -4.44246 6.16189 11.1219 -5.773 2.24042 1.14133 -9.35734 -1.24655 5.06742 4.21818 3.04315 -1.28352 -1.4092 -2.46689 2.5551 7.36196 3.61424 -0.454218 2.22272 -3.70217 -1.24621 -0.812529 0.590897 -3.91342 -1.03429 -0.768858 0.258647 -1.85369 3.67399 3.99388 0.47274 0.878735 2.49211 -3.9723 -0.915346 -0.315431 0.245253
internal_weight=2.25334e+06 1.4682e+06 785134 1.23794e+06 746586 721499 1.19403e+06 404180 912286 240749 281745 500221 218203 169101 317319 278186 163431 412065 112644 230261 20051 60223 210210 163258 350955 282018 79066 10209 38548 146285 87478 43909 195845 39133 75780 104315 131901 222423 108878 53887 146050 65657 8027 60208 53234 27270 165346 53778 218212 186990 109467 56219 53248 84371 78776 128532 108515 32331 61110 163279 46952 41970
internal_count=2253335 1468201 785134 1237940 746586 721499 1194031 404180 912286 240749 281745 500221 218203 169101 317319 278186 163431 412065 112644 230261 20051 60223 210210 163258 350955 282018 79066 10209 38548 146285 87478 43909 195845 39133 75780 104315 131901 222423 108878 53887 146050 65657 8027 60208 53234 27270 165346 53778 218212 186990 109467 56219 53248 84371 78776 128532 108515 32331 61110 163279 46952 41970
is_linear=0
shrinkage=0.05


Tree=5
num_leaves=63
num_cat=0
split_feature=9 8 0 0 42 10 8 39 39 0 0 0 43 8 14 39 0 0 0 8 17 0 17 20 14 0 39 5 17 11 39 17 17 0 9 22 9 17 0 9 21 5 20 17 19 42 9 0 2 0 43 8 9 5 5 8 8 8 8 11 9 0
split_gain=2.44062e+09 1.31493e+09 9.70064e+08 8.99785e+08 7.88237e+08 8.04676e+08 6.25282e+08 4.04261e+08 3.86837e+08 3.57846e+08 3.49864e+08 3.07973e+08 2.68502e+08 2.49907e+08 3.13739e+08 2.46287e+08 2.25969e+08 2.06209e+08 1.84712e+08 1.60853e+08 1.17612e+08 1.20102e+08 1.1444e+08 1.07916e+08 9.27332e+07 9.25719e+07 9.09497e+07 9.01164e+07 8.51715e+07 8.08542e+07 7.9051e+07 7.82462e+07 7.46156e+07 7.39744e+07 6.67894e+07 6.52325e+07 6.3982e+07 6.28774e+07 6.21184e+07 6.04094e+07 6.03556e+07 5.91884e+07 5.62986e+07 5.5291e+07 5.45623e+07 5.44416e+07 5.21097e+07 5.01412e+07 4.53602e+07 4.38825e+07 4.46465e+07 4.33484e+07 4.28082e+07 4.25985e+07 4.24276e+07 8.32805e+07 6.4666e+07 4.53622e+07 4.21695e+07 4.36728e+07 4.18025e+07 4.134e+07
threshold=3.5000000000000004 485.50000000000006 3.5000000000000004 3.5000000000000004 1.0000000180025095e-35 1.0000000180025095e-35 5.5000000000000009 1.0000000180025095e-35 1.0000000180025095e-35 2.5000000000000004 2.5000000000000004 2.5000000000000004 1.0000000180025095e-35 424.50000000000006 1.0000000180025095e-35 1.0000000180025095e-35 1.5000000000000002 1.5000000000000002 1.5000000000000002 1539.5000000000002 7.5000000000000009 2.5000000000000004 1.5000000000000002 1.0000000180025095e-35 1.0000000180025095e-35 1.5000000000000002 1.0000000180025095e-35 14.500000000000002 1.0000000180025095e-35 50.229805227805109 1.0000000180025095e-35 8.5000000000000018 4.5000000000000009 1.5000000000000002 6.5000000000000009 1.0000000180025095e-35 45.500000000000007 1.0000000180025095e-35 1.0000000180025095e-35 242.50000000000003 1.0000000180025095e-35 13.500000000000002 1.0000000180025095e-35 5.5000000000000009 1.0000000180025095e-35 1.0000000180025095e-35 7.5000000000000009 2.5000000000000004 126.50000000000001 1.5000000000000002 1.0000000180025095e-35 58.500000000000007 157.50000000000003 11.500000000000002 5.5000000000000009 964.50000000000011 1034.5000000000002 574.50000000000011 90.500000000000014 23.56844136894129 7.5000000000000009 2.5000000000000004
decision_type=2 2 2 2 2 2 2 2 2 2 2 2 2 2 2 2 2 2 2 2 2 2 2 2 2 2 2 2 2 2 2 2 2 2 2 2 2 2 2 2 2 2 2 2 2 2 2 2 2 2 2 2 2 2 2 2 2 2 2 2 2 2
left_child=2 3 4 6 5 7 9 10 11 18 25 12 -8 14 28 42 -9 51 -2 20 21 32 36 34 -19 -1 -4 54 -7 58 48 41 -3 -14 -20 -15 -13 60 -16 -35 -30 -21 46 -40 -18 -25 -11 52 -5 -42 -51 -10 -31 -12 55 -23 57 -56 -26 -60 -17 -52
right_child=1 19 26 30 -6 13 8 16 17 15 53 22 33 35 38 37 44 24 23 31 -22 27 -24 45 29 -27 -28 -29 40 47 -32 -33 -34 39 -36 -37 -38 -39 43 -41 49 -43 -44 -45 -46 -47 -48 -49 -50 50 61 -53 -54 -55 56 -57 -58 -59 59 -61 -62 -63
leaf_value=1.0409619060681801 -1.5910531490880395 6.4049889095871881 -6.3426701757298956 -9.6515157704493522 -6.0630915221688584 0.23290995428159347 -6.7426723956055206 0.93022158900710683 -1.9018637952663273 3.9914146121211744 0.70070812198516164 -3.9252358501661209 -3.3210425014756404 1.5551297587805772 -7.2167437087922552 9.0155058206545711 6.2846994711494251 0.47856391313011537 8.2639719482110578 6.6460908076253382 -0.053403235563086938 -2.1111683601204727 -2.9566692603971099 5.2899927484348837 -0.45862775079656171 6.4699950451617259 1.3877909214725006 -0.17972781090746395 0.47243911377373388 1.1804305354510216 -3.1695284634653969 4.732603129931702 2.9483296008618347 -0.85816372235008154 1.1328881500580301 6.092804839186897 -5.8594591988444353 3.7106075129357503 -0.74912444393815447 4.7052225778520507 -0.78845369794786357 16.611822490054998 -1.225859323011534 -4.9378052735265081 8.3106365483928553 -4.7635891383710591 -3.839141280013842 -0.87943339427920986 41.730864680090619 4.7873151972691943 4.4221431480339346 -4.621887455792276 6.9160839626546853 2.399455059413385 2.5025363003200147 16.527705257701445 -0.092058351250527304 7.2961675985889052 -3.7234331420385818 -1.6389249917841882 -0.51860400105988536 0.81169813083761866
leaf_weight=8843 21466 28013 34268 38721 25087 41974 23555 17155 22670 2218 57054 79317 31786 11028 4184 1219 94526 131533 3570 2850 45397 5984 120101 52527 47182 70057 4280 38064 20616 23416 5462 10876 35266 167282 40914 28105 92751 25098 119402 5026 5595 3122 55380 8435 51254 1382 50442 35299 43 46445 13932 41392 3778 104495 7774 666 6683 13515 34623 91617 20221 18399
leaf_count=8843 21466 28013 34268 38721 25087 41974 23555 17155 22670 2218 57054 79317 31786 11028 4184 1219 94526 131533 3570 2850 45397 5984 120101 52527 47182 70057 4280 38064 20616 23416 5462 10876 35266 167282 40914 28105 92751 25098 119402 5026 5595 3122 55380 8435 51254 1382 50442 35299 43 46445 13932 41392 3778 104495 7774 666 6683 13515 34623 91617 20221 18399
internal_value=1.91475e-08 -1.20333 2.25024 -1.79448 2.64959 2.95254 -1.54168 4.43538 -2.14822 0.560883 3.1324 -3.06684 -1.6881 1.07223 0.547358 -1.02898 6.35823 -1.0416 2.61127 2.58428 2.15015 2.88588 -4.14112 3.52807 -0.585212 5.86152 -5.48435 1.49933 2.13659 -1.17831 -8.80102 7.25755 4.47856 -1.10473 1.70518 4.81405 -4.96785 2.01195 -1.22172 -0.695887 2.89768 11.8559 -2.33885 -1.0255 6.99699 5.03226 -3.50932 0.36367 -9.59452 3.49029 3.79418 -3.65934 1.97727 1.79951 3.34531 -0.244478 4.19874 5.5457 -1.73397 -2.21063 0.0234706 2.3675
internal_weight=2.25334e+06 1.4682e+06 785134 1.26999e+06 746586 721499 1.22576e+06 403384 951328 274437 240449 519818 227649 318115 278982 154578 162935 431510 119859 198210 181362 135965 292169 98393 367448 78900 38548 72686 146961 235915 44226 16848 63279 204094 44484 39133 172068 46538 132021 172308 104987 5972 108040 127837 145780 53909 52660 62493 38764 84371 78776 64062 27194 161549 34622 6650 27972 21289 173422 126240 21440 32331
internal_count=2253335 1468201 785134 1269991 746586 721499 1225765 403384 951328 274437 240449 519818 227649 318115 278982 154578 162935 431510 119859 198210 181362 135965 292169 98393 367448 78900 38548 72686 146961 235915 44226 16848 63279 204094 44484 39133 172068 46538 132021 172308 104987 5972 108040 127837 145780 53909 52660 62493 38764 84371 78776 64062 27194 161549 34622 6650 27972 21289 173422 126240 21440 32331
is_linear=0
shrinkage=0.05


Tree=6
num_leaves=63
num_cat=0
split_feature=9 8 0 0 42 10 14 0 39 39 0 8 14 0 0 10 8 42 17 9 17 0 43 5 26 9 8 5 8 5 9 11 0 5 39 43 0 8 0 5 0 39 0 9 15 8 10 26 19 17 8 42 0 11 39 9 0 20 20 17 15 8
split_gain=2.20266e+09 1.19237e+09 8.75483e+08 8.1499e+08 7.11384e+08 7.26507e+08 6.2795e+08 5.12766e+08 3.63618e+08 3.55938e+08 3.14977e+08 2.28009e+08 2.5351e+08 2.0687e+08 1.80063e+08 1.83461e+08 1.68602e+08 1.53975e+08 1.43225e+08 1.15152e+08 1.13274e+08 1.24847e+08 1.22465e+08 1.13016e+08 9.80364e+07 9.47074e+07 9.06988e+07 8.8162e+07 9.90324e+07 1.12335e+08 8.62065e+07 8.58519e+07 8.42337e+07 8.41676e+07 8.20821e+07 7.9914e+07 9.8012e+07 7.63306e+07 7.21468e+07 6.61676e+07 6.55694e+07 6.46151e+07 6.30315e+07 6.01653e+07 5.80829e+07 5.54002e+07 5.35112e+07 5.72956e+07 4.93506e+07 4.79853e+07 4.98627e+07 4.788e+07 4.78528e+07 6.0403e+07 5.28084e+07 4.69254e+07 4.49604e+07 4.43288e+07 4.41091e+07 6.34766e+07 5.19596e+07 4.31328e+07
threshold=3.5000000000000004 424.50000000000006 3.5000000000000004 3.5000000000000004 1.0000000180025095e-35 0.36666666666666675 1.0000000180025095e-35 2.5000000000000004 1.0000000180025095e-35 1.0000000180025095e-35 2.5000000000000004 506.50000000000006 1.0000000180025095e-35 1.5000000000000002 1.5000000000000002 2.2583333333333337 1454.5000000000002 1.0000000180025095e-35 1.0000000180025095e-35 119.50000000000001 5.5000000000000009 2.5000000000000004 1.0000000180025095e-35 13.500000000000002 1.0000000180025095e-35 210.50000000000003 2145.5000000000005 14.500000000000002 1034.5000000000002 5.5000000000000009 68.500000000000014 50.229805227805109 1.5000000000000002 6.5000000000000009 1.0000000180025095e-35 1.0000000180025095e-35 2.5000000000000004 1176.5000000000002 1.5000000000000002 18.500000000000004 1.5000000000000002 1.0000000180025095e-35 1.5000000000000002 6.5000000000000009 1.5000000000000002 697.50000000000011 2.5798319327731098 1.0000000180025095e-35 1.0000000180025095e-35 1.0000000180025095e-35 8.5000000000000018 1.0000000180025095e-35 2.5000000000000004 51.852477898929344 1.0000000180025095e-35 310.50000000000006 2.5000000000000004 1.0000000180025095e-35 1.0000000180025095e-35 1.0000000180025095e-35 1.0000000180025095e-35 1539.5000000000002
decision_type=2 2 2 2 2 2 2 2 2 2 2 2 2 2 2 2 2 2 2 2 2 2 2 2 2 2 2 2 2 2 2 2 2 2 2 2 2 2 2 2 2 2 2 2 2 2 2 2 2 2 2 2 2 2 2 2 2 2 2 2 2 2
left_child=2 3 4 6 5 8 7 14 10 30 32 12 35 -10 -2 24 19 18 56 31 21 25 -23 -18 43 38 -25 28 29 45 -9 -3 -1 -30 -4 42 -37 -29 -20 -39 -14 -5 -7 -16 -33 -21 47 -11 -15 -32 -51 -26 53 -42 -54 58 -8 -40 59 -17 -60 -13
right_child=1 16 34 41 -6 11 17 9 13 46 -12 61 40 48 15 55 23 -19 20 27 -22 22 -24 26 51 -27 -28 37 33 -31 49 44 -34 -35 -36 36 -38 39 57 -41 52 -43 -44 -45 -46 -47 -48 -49 -50 50 -52 -53 54 -55 -56 -57 -58 -59 60 -61 -62 -63
leaf_value=0.98159912754142309 -1.783120929784074 -1.2479586338765472 -6.0255368236111542 -9.1776229491553725 -5.7599372292955335 -1.4724631101972507 -2.949853301459608 -1.9003314326839089 0.87432925743339962 0.04714174099678542 1.7103974185581678 4.4601557894044852 -3.4039976234886158 5.9687754480529334 7.8515137149548355 -1.0729914817764408 2.6641302506565623 -7.2384337207726634 -3.0551868329227467 -2.5394253313422972 -4.4642403091531886 -1.2079177803281027 -3.7195447748531096 14.233798581946031 5.0563757500604511 4.5500455080016122 4.7035118826593481 1.058927830455187 15.60994051179938 8.5894584698567709 -5.3908542343865049 0.79750169808851434 6.142884066851626 -1.256647875281214 1.3184012972734973 2.9202213774194257 -0.97836985155931588 4.2846953237118219 -0.16263523481086659 21.873689666395901 -0.27711029572768558 -3.2980323312161737 3.4921913902794324 1.1235362327876306 3.2178461795891624 8.7959851171052019 -0.40925182678303423 3.5405616936456115 7.8945441499697555 -1.7668339382289848 -4.4355072780775719 -4.4911321027371711 -2.6969165420845238 3.7128185054605751 0.44253973261186652 8.3351194883433148 -5.3122426758096442 -1.7486764388863385 1.2320015128237103 2.7431245330614429 -1.2911922464296641 10.609514583705863
leaf_weight=8909 43231 35151 34268 38517 25087 6993 32510 100980 17381 22116 161683 27764 22849 94794 3610 15616 9842 17846 47546 4026 49542 75450 136045 5859 52254 7076 4350 33635 823 19458 37079 76605 70157 7304 4280 28587 36971 1551 99688 816 47623 5318 74540 41782 36645 1472 53531 25010 51256 33356 36830 1347 35433 11845 21536 1908 52933 78942 34406 36061 50134 3178
leaf_count=8909 43231 35151 34268 38517 25087 6993 32510 100980 17381 22116 161683 27764 22849 94794 3610 15616 9842 17846 47546 4026 49542 75450 136045 5859 52254 7076 4350 33635 823 19458 37079 76605 70157 7304 4280 28587 36971 1551 99688 816 47623 5318 74540 41782 36645 1472 53531 25010 51256 33356 36830 1347 35433 11845 21536 1908 52933 78942 34406 36061 50134 3178
internal_value=-2.21886e-08 -1.14317 2.13772 -1.76917 2.51711 2.80491 -1.52189 -0.363686 4.21074 -1.76882 2.97511 1.01426 0.573699 6.03095 1.18456 1.72563 2.10013 -2.66396 -2.52314 1.69565 -2.19639 -1.94377 -2.82353 6.48728 3.36846 -1.14607 10.173 3.38189 5.24517 6.80628 -2.94882 0.910665 5.56132 0.451387 -5.21014 2.02133 0.721637 1.66967 -1.32427 10.3483 -0.955055 -8.46432 3.06638 1.65861 1.58067 0.495446 0.672426 1.90112 6.64462 -3.93588 -3.16722 4.81645 -0.474487 0.517615 -1.51011 0.548221 -4.41338 -0.863555 0.439149 1.58995 -0.264306 5.09175
internal_weight=2.25334e+06 1.4682e+06 785134 1.23066e+06 746586 721499 1.18683e+06 589251 404180 308902 240749 317319 286377 163431 280349 237118 237537 597578 579732 217486 494289 444747 211495 20051 98993 233252 10209 69085 33083 24956 208245 148401 79066 8127 38548 147091 65558 36002 226176 2367 139286 43835 81533 45392 113250 5498 100657 47126 146050 107265 70186 53601 116437 59468 56969 138125 85443 178630 136217 51677 84540 30942
internal_count=2253335 1468201 785134 1230664 746586 721499 1186829 589251 404180 308902 240749 317319 286377 163431 280349 237118 237537 597578 579732 217486 494289 444747 211495 20051 98993 233252 10209 69085 33083 24956 208245 148401 79066 8127 38548 147091 65558 36002 226176 2367 139286 43835 81533 45392 113250 5498 100657 47126 146050 107265 70186 53601 116437 59468 56969 138125 85443 178630 136217 51677 84540 30942
is_linear=0
shrinkage=0.05


Tree=7
num_leaves=63
num_cat=0
split_feature=9 8 0 0 42 10 14 0 39 39 0 8 14 0 0 10 8 42 17 9 17 0 3 26 9 17 0 17 39 17 39 17 39 5 22 21 17 9 39 10 26 17 0 19 5 43 0 42 9 16 17 8 0 0 9 20 17 15 11 0 9 0
split_gain=1.9879e+09 1.07692e+09 7.90123e+08 7.35683e+08 6.42024e+08 6.55673e+08 5.56595e+08 4.62925e+08 3.28166e+08 3.21126e+08 2.84267e+08 2.07069e+08 2.54375e+08 1.867e+08 1.62205e+08 1.65665e+08 1.49042e+08 1.40934e+08 1.33125e+08 1.13651e+08 1.03532e+08 1.18467e+08 1.02153e+08 8.84778e+07 7.75892e+07 7.75874e+07 7.60209e+07 7.52786e+07 7.40791e+07 7.17286e+07 7.13763e+07 6.61396e+07 5.95908e+07 5.90304e+07 5.78458e+07 5.68332e+07 5.49428e+07 5.42992e+07 5.2418e+07 4.83462e+07 5.17093e+07 4.82167e+07 4.61168e+07 4.45389e+07 4.43928e+07 4.41507e+07 5.78659e+07 4.32117e+07 4.29593e+07 4.2246e+07 4.17442e+07 4.66228e+07 4.11928e+07 4.06465e+07 4.0459e+07 3.88964e+07 5.51797e+07 4.54038e+07 3.88341e+07 3.72698e+07 3.72481e+07 3.71045e+07
threshold=3.5000000000000004 434.50000000000006 3.5000000000000004 3.5000000000000004 1.0000000180025095e-35 0.36666666666666675 1.0000000180025095e-35 2.5000000000000004 1.0000000180025095e-35 1.0000000180025095e-35 2.5000000000000004 424.50000000000006 1.0000000180025095e-35 1.5000000000000002 1.5000000000000002 2.2583333333333337 1539.5000000000002 1.0000000180025095e-35 1.0000000180025095e-35 228.50000000000003 8.5000000000000018 2.5000000000000004 135.50000000000003 1.0000000180025095e-35 63.500000000000007 4.5000000000000009 1.5000000000000002 1.0000000180025095e-35 1.0000000180025095e-35 10.500000000000002 1.0000000180025095e-35 6.5000000000000009 1.0000000180025095e-35 12.500000000000002 1.0000000180025095e-35 1.0000000180025095e-35 5.5000000000000009 6.5000000000000009 1.0000000180025095e-35 2.5798319327731098 1.0000000180025095e-35 1.0000000180025095e-35 2.5000000000000004 1.0000000180025095e-35 17.500000000000004 1.0000000180025095e-35 2.5000000000000004 1.0000000180025095e-35 394.50000000000006 1.0000000180025095e-35 1.0000000180025095e-35 8.5000000000000018 1.0000000180025095e-35 2.5000000000000004 161.50000000000003 1.0000000180025095e-35 1.0000000180025095e-35 1.0000000180025095e-35 58.991894782983771 1.5000000000000002 6.5000000000000009 2.5000000000000004
decision_type=2 2 2 2 2 2 2 2 2 2 2 2 2 2 2 2 2 2 2 2 2 2 2 2 2 2 2 2 2 2 2 2 2 2 2 2 2 2 2 2 2 2 2 2 2 2 2 2 2 2 2 2 2 2 2 2 2 2 2 2 2 2
left_child=2 3 4 6 5 8 7 14 10 24 26 12 27 52 -2 23 20 18 53 22 21 25 31 37 -9 54 -1 61 -4 33 44 38 -5 -18 -13 -29 41 -16 42 40 60 -14 -20 -15 -23 58 -47 -25 55 -12 -26 -52 -10 -8 -3 56 -17 -57 -24 -37 -11 -7
right_child=1 16 28 32 -6 11 17 9 13 39 49 34 36 43 15 48 29 -19 19 -21 -22 30 45 47 50 -27 -28 35 -30 -31 -32 -33 -34 -35 -36 59 -38 -39 -40 -41 -42 -43 -44 -45 -46 46 -48 -49 -50 -51 51 -53 -54 -55 -56 57 -58 -59 -60 -61 -62 -63
leaf_value=0.93251918538478573 -1.6911979270037329 4.2887154407504759 -5.7242598024119467 -8.7118920930474317 -5.471940116853923 1.7832472618839774 -2.8020521085649412 -1.7475310354819762 -3.5032975054508251 8.7742894807821603 1.0480361135711456 1.3001422360287436 -2.8241303477111153 5.6703369753281994 7.4589380829427858 -0.93628052034276887 4.6754831981835681 -6.8756622954416642 -2.2104849448136719 2.6381094835644019 -0.77843861227418443 0.67985672142644316 -0.98462885828740709 4.8035568371939066 -5.0017611847271324 2.22836082214693 5.8357397825260611 0.23921774167716828 1.2524813436950062 2.815221204167039 2.5492948043024453 -5.3780622598178534 -3.0780282400905374 12.647658468875399 5.5731843730094655 -0.73613592814783946 -4.8903002822346862 1.0673594560038877 -1.8600217957533252 -0.38772002563733532 3.3635335452464385 -0.34021555749621291 -4.1499123416211949 7.4998170575595502 -2.5028656618024687 -0.78159917379823007 -3.0063420183408289 -4.2665754564620872 12.695145228170325 2.757290072424265 -1.6578287907228983 -4.1720036968594894 2.1977314985456116 -5.0473793132888432 8.077073028191009 1.1954186963106146 2.6056240435571167 -1.1472874003132156 1.863063205411718 3.4871296105132639 -0.4375498178208721 -1.2064893646844896
leaf_weight=8909 43254 26812 34268 38565 25087 18790 32530 95247 4168 1158 107118 11028 24366 94794 3610 15758 3912 17887 54101 12557 35274 37780 82822 52254 39257 48403 70157 19944 4280 7223 40152 23160 5344 5713 28105 5595 8949 41782 124747 53767 25010 98586 70717 51256 15431 52810 65455 1347 721 54565 34942 39043 13213 52988 9561 34815 36390 50949 13995 78776 20958 23180
leaf_count=8909 43254 26812 34268 38565 25087 18790 32530 95247 4168 1158 107118 11028 24366 94794 3610 15758 3912 17887 54101 12557 35274 37780 82822 52254 39257 48403 70157 19944 4280 7223 40152 23160 5344 5713 28105 5595 8949 41782 124747 53767 25010 98586 70717 51256 15431 52810 65455 1347 721 54565 34942 39043 13213 52988 9561 34815 36390 50949 13995 78776 20958 23180
internal_value=-2.98557e-08 -1.08601 2.03084 -1.67003 2.39126 2.66467 -1.43629 -0.344487 4.0002 -1.67867 2.82635 0.963544 0.484491 5.7294 1.12508 1.63772 2.05383 -2.50367 -2.37019 -2.05861 1.69642 2.18647 -2.17951 3.20004 -2.79927 3.5396 5.28325 1.92019 -4.94963 6.58125 0.957794 -2.82206 -8.02622 9.40744 4.36901 2.63964 -1.10777 1.57568 -2.58486 0.636971 1.80606 -0.832465 -3.30929 6.31239 -0.243121 -1.36474 -2.01291 4.57562 0.522122 1.62488 -3.68388 -2.9846 0.830613 -4.19328 5.28452 0.458482 1.53534 -0.19629 -0.572992 3.20707 0.0447847 0.132018
internal_weight=2.25334e+06 1.4682e+06 785134 1.23794e+06 746586 721499 1.19403e+06 590262 404180 309382 240749 317319 278186 163431 280880 237626 230261 603769 585882 500364 213413 178139 487807 98993 208489 84776 79066 146285 38548 16848 93363 272725 43909 9625 39133 104315 131901 45392 249565 100893 47126 122952 124818 146050 53211 215082 118265 53601 138633 161683 113242 73985 17381 85518 36373 137912 52148 85764 96817 84371 22116 41970
internal_count=2253335 1468201 785134 1237940 746586 721499 1194031 590262 404180 309382 240749 317319 278186 163431 280880 237626 230261 603769 585882 500364 213413 178139 487807 98993 208489 84776 79066 146285 38548 16848 93363 272725 43909 9625 39133 104315 131901 45392 249565 100893 47126 122952 124818 146050 53211 215082 118265 53601 138633 161683 113242 73985 17381 85518 36373 137912 52148 85764 96817 84371 22116 41970
is_linear=0
shrinkage=0.05


Tree=8
num_leaves=63
num_cat=0
split_feature=9 8 0 0 42 11 10 39 39 39 0 0 42 8 14 0 0 0 20 8 17 0 17 42 11 8 5 0 26 0 39 0 17 11 8 0 9 17 5 9 8 5 17 8 9 0 43 0 20 9 0 11 39 20 0 39 4 19 3 9 8 17
split_gain=1.79408e+09 9.80155e+08 7.13086e+08 6.60238e+08 5.79426e+08 5.92093e+08 4.74002e+08 2.92357e+08 2.91682e+08 2.65639e+08 2.57641e+08 2.2849e+08 2.01809e+08 1.88085e+08 2.04773e+08 1.77771e+08 1.71351e+08 1.671e+08 1.409e+08 1.18658e+08 9.70516e+07 1.1389e+08 9.65612e+07 9.24404e+07 8.05618e+07 7.55776e+07 7.35269e+07 7.34851e+07 7.34027e+07 6.74177e+07 6.68564e+07 6.56691e+07 6.47351e+07 6.24017e+07 6.05679e+07 5.9858e+07 5.35839e+07 5.34895e+07 5.3275e+07 4.92626e+07 4.8406e+07 1.05933e+08 5.93457e+07 4.80536e+07 4.71368e+07 4.5514e+07 5.48599e+07 6.45085e+07 4.36716e+07 4.43314e+07 4.32325e+07 5.40073e+07 4.71641e+07 4.22015e+07 4.08921e+07 4.08188e+07 4.07556e+07 4.00864e+07 3.91779e+07 3.89004e+07 3.86927e+07 3.98621e+07
threshold=3.5000000000000004 485.50000000000006 3.5000000000000004 3.5000000000000004 1.0000000180025095e-35 1.7368487689586478 2.2583333333333337 1.0000000180025095e-35 1.0000000180025095e-35 1.0000000180025095e-35 2.5000000000000004 2.5000000000000004 1.0000000180025095e-35 506.50000000000006 1.0000000180025095e-35 1.5000000000000002 2.5000000000000004 1.5000000000000002 1.0000000180025095e-35 1539.5000000000002 6.5000000000000009 2.5000000000000004 1.5000000000000002 1.0000000180025095e-35 62.398983299973793 98.500000000000014 16.500000000000004 1.5000000000000002 1.0000000180025095e-35 2.5000000000000004 1.0000000180025095e-35 1.5000000000000002 10.500000000000002 23.56844136894129 275.50000000000006 1.5000000000000002 45.500000000000007 1.0000000180025095e-35 12.500000000000002 242.50000000000003 1249.5000000000002 16.500000000000004 3.5000000000000004 1213.5000000000002 161.50000000000003 1.5000000000000002 1.0000000180025095e-35 2.5000000000000004 1.0000000180025095e-35 6.5000000000000009 2.5000000000000004 41.601833659086125 1.0000000180025095e-35 1.0000000180025095e-35 1.0000000180025095e-35 1.0000000180025095e-35 97.90000000000002 1.0000000180025095e-35 132.50000000000003 6.5000000000000009 1539.5000000000002 7.5000000000000009
decision_type=2 2 2 2 2 2 2 2 2 2 2 2 2 2 2 2 2 2 2 2 2 2 2 2 2 2 2 2 2 2 2 2 2 2 2 2 2 2 2 2 2 2 2 2 2 2 2 2 2 2 2 2 2 2 2 2 2 2 2 2 2 2
left_child=2 3 4 6 5 7 9 10 11 16 31 12 27 14 28 54 23 -10 59 20 21 40 36 53 25 37 55 -8 45 -26 -4 -1 38 -27 -5 -16 -13 -19 -21 58 42 -42 -3 -28 -35 -7 -47 -48 49 -18 51 -37 -52 -2 -9 -23 -12 -17 -29 -11 61 -15
right_child=1 19 30 34 -6 13 8 15 17 18 56 22 -14 60 35 57 48 24 -20 32 -22 26 -24 -25 29 33 43 39 -30 -31 -32 -33 -34 44 -36 50 -38 -39 -40 -41 41 -43 -44 -45 -46 46 47 -49 -50 -51 52 -53 -54 -55 -56 -57 -58 -59 -60 -61 -62 -63
leaf_value=1.0328106859251573 0.58701891613669588 6.7249117817019162 -5.4380468269237614 -7.9749194715988514 -5.1983431408488805 -1.234162237840734 -3.1694689034301837 -3.4611721182242885 -3.2913801114598038 4.8022816202106462 3.3096308104443999 -3.3934104859453118 -6.459801099365194 5.0251820494475856 -3.247840104829542 5.390338787700756 4.2491670935531838 -1.958286975655021 4.0455379053736413 4.4417090358265918 0.27020679634820055 1.3225920814034888 -2.4991548158574037 -4.9902425786816096 2.8691822801617857 -3.3724166830774913 -1.1457083429830646 -1.5967686477288028 -0.71809780957476999 -0.30361022292435486 1.1898571648016991 5.538336256614226 2.6744601322565691 -1.3134080341607404 0.39994731927732485 -0.46998644372192677 -5.1671739452128271 0.71202481035214493 12.015275578208055 4.2527133317609138 4.1036204681649897 25.015944933889632 2.9643530269929697 12.443723323530781 1.7555424278694827 3.5140924689486273 3.4152079850022377 -0.26865893353189241 -0.98307834774760949 -3.2740682572342275 -2.5224068875534051 2.8086974992631344 0.4448522366730594 3.3572717419690408 2.0855010221621963 4.580212084190161 1.1863835142724088 7.1248261172508229 -0.062707596954090991 0.084359201175108978 9.8371537557271509 0.46709660188165958
leaf_weight=9139 27629 14826 34268 41950 25087 8454 33279 4406 62239 4797 27160 79061 18564 21598 22244 95150 2036 23624 58866 3912 62487 23663 120002 5231 29353 35075 24866 75450 24005 38973 4280 70286 7223 133472 2276 41275 92268 90965 5713 5068 1877 894 35882 668 13806 65377 20662 27971 55644 51198 35429 18054 21530 27363 13517 16199 134642 51256 92821 48981 3178 6166
leaf_count=9139 27629 14826 34268 41950 25087 8454 33279 4406 62239 4797 27160 79061 18564 21598 22244 95150 2036 23624 58866 3912 62487 23663 120002 5231 29353 35075 24866 75450 24005 38973 4280 70286 7223 133472 2276 41275 92268 90965 5713 5068 1877 894 35882 668 13806 65377 20662 27971 55644 51198 35429 18054 21530 27363 13517 16199 134642 51256 92821 48981 3178 6166
internal_value=5.60322e-09 -1.03171 1.9293 -1.54208 2.27169 2.53143 -1.32553 3.79566 -1.86268 0.474245 2.68765 -2.66227 -1.46611 0.90862 0.506649 5.42218 -0.778807 -0.896623 2.35532 2.2384 1.86553 2.70412 -3.58683 1.36127 -0.488574 -0.844767 1.30458 -1.01744 1.81007 1.05943 -4.70215 5.01991 6.25219 -1.4771 -7.54392 -0.871453 -4.34866 0.161506 8.93706 -0.604273 4.41551 10.8505 4.06386 -0.790193 -1.02572 2.30564 2.56812 1.29645 -1.96253 -2.98633 -0.416889 0.527727 -1.40081 1.96545 0.721966 2.64641 1.54279 5.99757 -0.750556 0.505198 4.61109 4.01289
internal_weight=2.25334e+06 1.4682e+06 785134 1.26999e+06 746586 721499 1.22576e+06 405556 944020 281745 241227 516513 225182 315943 285001 164329 169101 427507 112644 198210 181362 118875 291331 60223 365268 296942 65396 206618 146469 68326 38548 79425 16848 182353 44226 138532 171329 114589 9625 173339 53479 2771 50708 25534 147278 122464 114010 48633 108878 53234 116288 59329 56959 54992 17923 39862 161802 146406 168271 53778 30942 27764
internal_count=2253335 1468201 785134 1269991 746586 721499 1225765 405556 944020 281745 241227 516513 225182 315943 285001 164329 169101 427507 112644 198210 181362 118875 291331 60223 365268 296942 65396 206618 146469 68326 38548 79425 16848 182353 44226 138532 171329 114589 9625 173339 53479 2771 50708 25534 147278 122464 114010 48633 108878 53234 116288 59329 56959 54992 17923 39862 161802 146406 168271 53778 30942 27764
is_linear=0
shrinkage=0.05


Tree=9
num_leaves=63
num_cat=0
split_feature=9 8 0 0 10 14 42 0 39 39 0 0 8 14 0 9 0 10 3 11 26 39 0 15 0 9 39 0 39 39 0 17 8 39 17 10 0 8 16 42 0 8 5 8 5 5 8 5 17 0 19 39 19 9 39 20 17 15 8 17 5 8
split_gain=1.62323e+09 8.66551e+08 6.45752e+08 5.84037e+08 5.80515e+08 4.49952e+08 4.25781e+08 3.79594e+08 2.68143e+08 2.4943e+08 2.34554e+08 2.23312e+08 1.73642e+08 1.60243e+08 1.58386e+08 1.32383e+08 1.27896e+08 1.2607e+08 1.14569e+08 9.05443e+07 8.68931e+07 8.49796e+07 9.03362e+07 8.22598e+07 6.4405e+07 6.33679e+07 6.3093e+07 6.48988e+07 6.25991e+07 6.21302e+07 6.46666e+07 5.99826e+07 5.46323e+07 5.08925e+07 4.52427e+07 5.11494e+07 4.41497e+07 4.35474e+07 4.20646e+07 4.05012e+07 4.44237e+07 4.04192e+07 6.2086e+07 7.36169e+07 8.67421e+07 6.253e+07 4.58523e+07 5.67931e+07 4.03746e+07 5.10561e+07 3.96005e+07 3.93721e+07 3.90571e+07 3.86137e+07 3.67001e+07 3.55364e+07 4.89706e+07 4.07509e+07 3.53414e+07 3.61636e+07 4.36047e+07 3.52725e+07
threshold=4.5000000000000009 424.50000000000006 3.5000000000000004 3.5000000000000004 1.0000000180025095e-35 1.0000000180025095e-35 1.0000000180025095e-35 2.5000000000000004 1.0000000180025095e-35 1.0000000180025095e-35 2.5000000000000004 1.5000000000000002 506.50000000000006 1.0000000180025095e-35 1.5000000000000002 166.50000000000003 1.5000000000000002 2.2583333333333337 135.50000000000003 50.229805227805109 1.0000000180025095e-35 1.0000000180025095e-35 2.5000000000000004 2.5000000000000004 1.5000000000000002 73.500000000000014 1.0000000180025095e-35 1.0000000180025095e-35 1.0000000180025095e-35 1.0000000180025095e-35 2.5000000000000004 4.5000000000000009 1663.5000000000002 1.0000000180025095e-35 1.0000000180025095e-35 10.604347826086958 2.5000000000000004 371.50000000000006 1.0000000180025095e-35 1.0000000180025095e-35 2.5000000000000004 1389.5000000000002 14.500000000000002 964.50000000000011 6.5000000000000009 4.5000000000000009 1117.5000000000002 18.500000000000004 4.5000000000000009 2.5000000000000004 1.0000000180025095e-35 1.0000000180025095e-35 1.0000000180025095e-35 310.50000000000006 1.0000000180025095e-35 1.0000000180025095e-35 1.0000000180025095e-35 1.0000000180025095e-35 1454.5000000000002 8.5000000000000018 13.500000000000002 50.500000000000007
decision_type=2 2 2 2 2 2 2 2 2 2 2 2 2 2 2 2 2 2 2 2 2 2 2 2 2 2 2 2 2 2 2 2 2 2 2 2 2 2 2 2 2 2 2 2 2 2 2 2 2 2 2 2 2 2 2 2 2 2 2 2 2 2
left_child=2 3 4 5 6 7 8 16 10 25 24 61 13 21 -10 19 -2 20 26 -3 -18 22 -13 32 -1 -9 39 -28 -4 30 -20 -29 36 -5 -11 -36 -21 48 -12 40 -7 42 43 45 -45 -17 -44 -48 49 -15 -26 -38 -16 55 -51 56 -19 -57 -14 60 -60 -6
right_child=1 15 28 33 11 18 -8 9 14 34 38 12 58 37 52 41 17 53 29 23 -22 -23 -24 -25 50 -27 27 31 -30 -31 -32 -33 -34 -35 35 -37 51 -39 -40 -41 -42 -43 46 44 -46 -47 47 -49 -50 54 -52 -53 -54 -55 -56 57 -58 -59 59 -61 -62 -63
leaf_value=0.82080268069817519 -1.564424784408498 -0.99501872102964062 -5.1791052374420934 -7.9308338173307948 -1.2391677278774407 -2.4037026930126548 -4.7213095540131054 -1.7008963187713204 0.7038471732055398 -1.1507388192550263 0.91768299797582709 2.6739176848302266 3.8450548260662951 0.45763178238305757 5.118569435697899 0.60204865303254329 1.162373642355955 -0.97475128609202888 -0.97621274684686277 1.9830394200618393 4.1809072759493944 2.9511626847521746 -0.99773302954876364 4.2077495791215034 4.4500891772837887 -3.4594790536714011 -5.9968915872480535 -1.4369548803564089 1.13469729691668 -0.60012101547427843 -3.1196044374633645 -3.9474124195471028 5.5870463854891668 -2.657447711923429 2.542714026523111 -0.17749313127928135 -1.0617939547764046 1.9673015863449361 2.612242698035169 -6.2683285548564651 -4.102620727059521 7.9271797342801724 0.99244855645551044 17.299959742451961 -1.6690495930160947 9.1394927278793165 3.1153314021273535 22.363835206851494 -3.9739429028646871 -2.6218443693867219 6.9333007933965609 1.5301162998930837 6.8101773015140044 7.524874310353205 0.03831876084089457 1.0812305519769141 2.4332297448755567 -1.1876804515354704 6.2625170143268001 4.9207150492283027 22.570465728108374 -4.0528540685359529
leaf_weight=9001 41450 38072 35110 37710 21404 66146 15798 103342 17540 29532 107118 28809 30288 56498 94575 2642 43118 15064 61514 51966 53329 77732 40030 27478 46324 101574 10637 116066 4420 104482 82231 29929 6621 5207 34681 34445 35866 15200 55647 13265 91988 6172 19234 689 4810 11395 1157 573 9652 36196 24571 24771 53383 1908 20202 33036 35107 49356 807 2410 833 23224
leaf_count=9001 41450 38072 35110 37710 21404 66146 15798 103342 17540 29532 107118 28809 30288 56498 94575 2642 43118 15064 61514 51966 53329 77732 40030 27478 46324 101574 10637 116066 4420 104482 82231 29929 6621 5207 34681 34445 35866 15200 55647 13265 91988 6172 19234 689 4810 11395 1157 573 9652 36196 24571 24771 53383 1908 20202 33036 35107 49356 807 2410 833 23224
internal_value=-1.42215e-08 -1.02163 1.76279 -1.56393 2.07591 -1.35061 3.33277 -0.362269 3.64451 -1.57813 2.58614 0.609151 1.07307 0.667451 5.19633 1.77865 0.992903 1.45195 -2.33841 1.17766 2.83143 1.81819 0.538846 1.74151 4.8049 -2.5726 -2.9517 -2.22632 -4.47313 -1.52796 -2.20236 -1.9516 1.17311 -7.29103 0.487406 1.18725 0.913571 -0.556991 1.49703 -3.61459 -3.39198 4.15797 3.58356 5.61152 0.707682 7.5326 1.69375 9.4907 -0.870087 -0.604724 5.31073 -0.00296504 5.7289 0.462535 -1.66896 0.360886 1.40997 -0.277935 4.43162 8.81826 14.5458 -2.70338
internal_weight=2.25334e+06 1.42656e+06 826772 1.19512e+06 787242 1.1522e+06 423957 575942 408159 303574 242661 363285 318657 284319 165498 231446 272368 230918 576258 184774 96447 146571 68839 146702 79896 204916 328031 156632 39530 248227 143745 145995 119224 42917 98658 69126 112603 137748 162765 171399 158134 46672 40500 19536 5499 14037 20964 1730 122548 112896 70895 60637 147958 134471 56398 132563 50171 82392 34338 4050 1640 44628
internal_count=2253335 1426563 826772 1195117 787242 1152200 423957 575942 408159 303574 242661 363285 318657 284319 165498 231446 272368 230918 576258 184774 96447 146571 68839 146702 79896 204916 328031 156632 39530 248227 143745 145995 119224 42917 98658 69126 112603 137748 162765 171399 158134 46672 40500 19536 5499 14037 20964 1730 122548 112896 70895 60637 147958 134471 56398 132563 50171 82392 34338 4050 1640 44628
is_linear=0
shrinkage=0.05


Tree=10
num_leaves=63
num_cat=0
split_feature=9 8 0 0 10 14 42 0 39 39 0 0 8 14 0 9 0 11 3 11 0 26 39 0 0 9 39 39 39 0 39 0 17 20 39 0 17 8 17 8 0 17 8 5 2 9 19 19 17 17 5 8 42 17 8 9 0 3 39 11 11 16
split_gain=1.46497e+09 7.86065e+08 5.82791e+08 5.27399e+08 5.23915e+08 4.20628e+08 3.84267e+08 3.41414e+08 2.41999e+08 2.24969e+08 2.11685e+08 2.01539e+08 1.56712e+08 1.44619e+08 1.42943e+08 1.40316e+08 1.14337e+08 1.14945e+08 1.01244e+08 8.91367e+07 8.15227e+07 7.85058e+07 7.66941e+07 8.15284e+07 5.81255e+07 5.81208e+07 5.71087e+07 5.64957e+07 5.59359e+07 5.70434e+07 5.52164e+07 5.65514e+07 5.47615e+07 4.98014e+07 4.50037e+07 4.34018e+07 4.10774e+07 5.03683e+07 4.09128e+07 4.70812e+07 4.04436e+07 3.92744e+07 4.61818e+07 3.90708e+07 3.75245e+07 3.60061e+07 3.57395e+07 3.52491e+07 3.51945e+07 3.50973e+07 3.46807e+07 3.56768e+07 3.46235e+07 3.46e+07 3.56976e+07 3.425e+07 3.36506e+07 3.29985e+07 3.27846e+07 3.25082e+07 3.24218e+07 3.20872e+07
threshold=4.5000000000000009 404.50000000000006 3.5000000000000004 3.5000000000000004 1.0000000180025095e-35 1.0000000180025095e-35 1.0000000180025095e-35 2.5000000000000004 1.0000000180025095e-35 1.0000000180025095e-35 2.5000000000000004 1.5000000000000002 506.50000000000006 1.0000000180025095e-35 1.5000000000000002 151.50000000000003 1.5000000000000002 3.9404027918566169 135.50000000000003 53.101789043364271 2.5000000000000004 1.0000000180025095e-35 1.0000000180025095e-35 2.5000000000000004 1.5000000000000002 74.500000000000014 1.0000000180025095e-35 1.0000000180025095e-35 1.0000000180025095e-35 1.0000000180025095e-35 1.0000000180025095e-35 2.5000000000000004 4.5000000000000009 1.0000000180025095e-35 1.0000000180025095e-35 2.5000000000000004 5.5000000000000009 371.50000000000006 1.0000000180025095e-35 8.5000000000000018 2.5000000000000004 5.5000000000000009 1389.5000000000002 10.500000000000002 100.50000000000001 343.50000000000006 1.0000000180025095e-35 1.0000000180025095e-35 1.0000000180025095e-35 2.5000000000000004 13.500000000000002 1249.5000000000002 1.0000000180025095e-35 1.0000000180025095e-35 8.5000000000000018 37.500000000000007 1.0000000180025095e-35 138.50000000000003 1.0000000180025095e-35 103.25047367246383 26.454734474636542 1.0000000180025095e-35
decision_type=2 2 2 2 2 2 2 2 2 2 2 2 2 2 2 2 2 2 2 2 2 2 2 2 2 2 2 2 2 2 2 2 2 2 2 2 2 2 2 2 2 2 2 2 2 2 2 2 2 2 2 2 2 2 2 2 2 2 2 2 2 2
left_child=2 3 4 5 6 7 8 16 10 25 24 -6 13 22 56 19 -2 21 28 60 33 -18 23 -13 -1 -9 -22 -4 44 -30 31 -20 -31 59 -5 41 37 40 -11 -40 -15 -17 -43 -12 -7 55 -26 -16 -24 -50 -37 -52 -23 -27 -55 -19 -10 -28 -42 -21 -3 -45
right_child=1 15 27 34 11 18 -8 9 14 38 43 12 -14 36 47 35 17 45 30 20 26 52 48 -25 46 53 57 -29 29 32 -32 -33 -34 -35 -36 50 -38 -39 39 -41 58 42 -44 61 -46 -47 -48 -49 49 -51 51 -53 -54 54 -56 -57 -58 -59 -60 -61 -62 -63
leaf_value=0.77976250550890214 -1.4803068529251098 -4.9594035686979296 -4.9201498673881296 -7.5576064987017908 -2.5682149389545836 -3.922884617656905 -4.4852440125728554 -1.6219267252577283 -3.2161610523345341 -1.0932020417405977 0.16306925633073791 2.5402218140574693 4.2100397613958842 0.28124051490149293 4.8626410098621697 6.7518922295419346 1.1072360819411748 1.4005171697444949 -0.98296664906701858 3.493507161873509 -0.78081700533836984 4.1747222944775215 0.97153282573110555 -0.94784637405330485 4.2275846635519896 -4.587797340085559 0.63556845767489978 1.0779624193331134 -5.7068587719602331 -1.4112645079535211 -0.61395756651908873 -3.0101252047217404 -3.8590659307167097 1.6945446773665147 -2.5785995352243098 4.3686112718251255 -3.8895233602857218 2.6749785186388007 2.8486891518929034 0.13363669894969119 -2.4822112250974975 1.3672913139567098 7.8100780361402258 1.3067093513652903 -2.2088424219320637 9.0472090280551889 6.5866356880311763 6.469668584381802 3.8650006604809102 0.018396007221713983 -0.098041512752673254 7.5464933975056532 -4.0191728172195393 -1.4223918161724685 -3.757149454050007 -0.27073939766540062 1.9032730858780551 3.891078799534224 0.010508360955014048 7.4723754417476371 -0.48514573549273676 3.0462752446977208
leaf_weight=9001 41375 4452 35110 37621 44628 124993 15798 104154 4230 29532 44694 28809 34338 59268 94575 16153 43379 48462 60117 21004 41723 52008 19603 40030 46324 34609 18139 4420 10577 114132 101795 80436 28568 38884 5161 11679 8531 12760 25258 43409 36550 10152 3831 77884 42887 1199 24571 53383 51426 6703 13674 1718 1322 31555 34025 83435 13310 13635 20639 6794 44716 40187
leaf_count=9001 41375 4452 35110 37621 44628 124993 15798 104154 4230 29532 44694 28809 34338 59268 94575 16153 43379 48462 60117 21004 41723 52008 19603 40030 46324 34609 18139 4420 10577 114132 101795 80436 28568 38884 5161 11679 8531 12760 25258 43409 36550 10152 3831 77884 42887 1199 24571 53383 51426 6703 13674 1718 1322 31555 34025 83435 13310 13635 20639 6794 44716 40187
internal_value=-9.49006e-09 -0.970551 1.67465 -1.50705 1.97212 -1.30202 3.16613 -0.349023 3.46228 -1.50379 2.45684 0.578693 1.01942 0.634079 4.93651 1.59713 0.939299 1.37493 -2.2723 0.941488 1.58398 2.68679 1.72728 0.511904 4.56465 -2.44897 0.435465 -4.24948 -2.8545 -2.16391 -1.50079 -2.14307 -1.90131 2.84988 -6.95696 3.76719 -0.529141 -0.307287 0.463027 1.13232 -0.634048 5.07249 3.13246 1.42218 -3.48501 0.421728 5.04519 5.44245 2.8036 3.42144 2.31411 0.755214 3.9716 -3.30874 -2.63374 0.343319 0.668655 2.03259 -1.58261 4.46597 -0.890275 1.89879
internal_weight=2.25334e+06 1.42656e+06 826772 1.18001e+06 787242 1.13723e+06 423957 573722 408159 302542 242661 363285 318657 284319 165498 246554 271180 229805 563505 189347 140179 96709 146571 68839 79896 204343 73497 39530 321157 153277 242348 140553 142700 66682 42782 57207 137748 129217 98199 68667 116457 30136 13983 162765 167880 133096 70895 147958 77732 58129 27071 15392 53330 100189 65580 131897 17540 31774 57189 27798 49168 118071
internal_count=2253335 1426563 826772 1180009 787242 1137227 423957 573722 408159 302542 242661 363285 318657 284319 165498 246554 271180 229805 563505 189347 140179 96709 146571 68839 79896 204343 73497 39530 321157 153277 242348 140553 142700 66682 42782 57207 137748 129217 98199 68667 116457 30136 13983 162765 167880 133096 70895 147958 77732 58129 27071 15392 53330 100189 65580 131897 17540 31774 57189 27798 49168 118071
is_linear=0
shrinkage=0.05


Tree=11
num_leaves=63
num_cat=0
split_feature=9 8 0 39 42 10 0 14 0 43 39 0 8 14 0 8 11 8 10 26 17 0 17 11 5 0 17 17 17 21 17 0 39 11 8 9 8 9 17 8 5 2 8 5 8 8 4 26 5 41 11 0 21 9 5 5 8 17 17 9 20 19
split_gain=1.32213e+09 7.13243e+08 5.25969e+08 4.83758e+08 4.7425e+08 4.95376e+08 3.83717e+08 2.68921e+08 2.4659e+08 2.2096e+08 2.18404e+08 1.91046e+08 1.59508e+08 1.67198e+08 1.29006e+08 1.03827e+08 9.89563e+07 8.56686e+07 8.52475e+07 1.20808e+08 7.92686e+07 8.34825e+07 7.74724e+07 6.94942e+07 6.67373e+07 6.30387e+07 6.0967e+07 5.60283e+07 5.55869e+07 5.55053e+07 5.36158e+07 5.24583e+07 5.09874e+07 4.77162e+07 5.59176e+07 5.47974e+07 4.55568e+07 4.45191e+07 4.18857e+07 4.82505e+07 8.805e+07 4.03604e+07 4.00408e+07 3.98318e+07 6.37524e+07 4.25824e+07 3.88084e+07 3.87198e+07 3.8437e+07 3.80047e+07 3.73995e+07 4.50281e+07 3.63266e+07 3.61855e+07 3.45246e+07 4.46895e+07 6.0462e+07 3.42304e+07 3.37641e+07 3.48294e+07 3.32889e+07 3.22549e+07
threshold=4.5000000000000009 499.50000000000006 3.5000000000000004 1.0000000180025095e-35 1.0000000180025095e-35 1.0000000180025095e-35 3.5000000000000004 1.0000000180025095e-35 2.5000000000000004 1.0000000180025095e-35 1.0000000180025095e-35 2.5000000000000004 506.50000000000006 1.0000000180025095e-35 1.5000000000000002 5.5000000000000009 50.229805227805109 1539.5000000000002 2.5798319327731098 1.0000000180025095e-35 6.5000000000000009 2.5000000000000004 1.0000000180025095e-35 14.736952778960726 13.500000000000002 1.5000000000000002 1.0000000180025095e-35 5.5000000000000009 8.5000000000000018 1.0000000180025095e-35 1.0000000180025095e-35 1.5000000000000002 1.0000000180025095e-35 57.542742905954064 108.50000000000001 60.500000000000007 1.0000000180025095e-35 169.50000000000003 3.5000000000000004 1249.5000000000002 18.500000000000004 126.50000000000001 375.50000000000006 5.5000000000000009 881.50000000000011 1034.5000000000002 98.600000000000009 1.0000000180025095e-35 13.500000000000002 1.0000000180025095e-35 66.515879147584783 2.5000000000000004 1.0000000180025095e-35 242.50000000000003 15.500000000000002 6.5000000000000009 922.50000000000011 1.5000000000000002 1.5000000000000002 230.50000000000003 1.0000000180025095e-35 1.0000000180025095e-35
decision_type=2 2 2 2 2 2 2 2 2 2 2 2 2 2 2 2 2 2 2 2 2 2 2 2 2 2 2 2 2 2 2 2 2 2 2 2 2 2 2 2 2 2 2 2 2 2 2 2 2 2 2 2 2 2 2 2 2 2 2 2 2 2
left_child=2 3 4 6 5 10 8 18 9 49 11 31 13 26 -12 60 25 20 19 -5 21 38 36 -24 43 -9 -7 30 48 -28 -15 -1 -4 34 35 -17 -10 -18 -3 54 -41 -8 -32 44 -23 -45 -13 52 -19 -2 -14 -52 57 -35 55 56 -40 -20 -25 -60 -11 -33
right_child=1 17 32 7 -6 12 41 16 22 15 14 46 50 27 -16 33 37 28 47 -21 -22 24 23 58 -26 -27 29 -29 -30 -31 42 61 -34 53 -36 -37 -38 -39 39 40 -42 -43 -44 45 -46 -47 -48 -49 -50 -51 51 -53 -54 -55 -56 -57 -58 -59 59 -61 -62 -63
leaf_value=0.74077433135906601 -5.5349705837799235 6.3429563807501559 -4.6741423977805372 0.25397072170980989 -4.6751045950255801 -0.051772415592628254 -7.151195628021064 -3.4285942136410328 -2.7341887817143777 0.38304545037762472 0.63522213748243128 2.5186928755788198 1.6299673571920335 -2.4697132688967987 5.170331156815883 0.7765602493304713 -0.06145449057845212 5.0790907067042204 -3.0990206461896381 3.5959223948552044 0.16563643973644049 -2.7889680397368246 -0.96032865601374606 -3.4660939589779569 -0.19147923353050678 -1.3454356035556101 0.11023984149631075 -3.9545183974771039 3.2602393999603829 2.75777926506961 -0.33672103130630832 4.0162053657048284 1.024064512963984 0.32405471629587373 -2.1170255589120113 -2.0532959264485267 -4.7465489702429204 3.927095493533276 -2.958578082687501 5.1210817320140727 28.611730824242677 43.100002269744877 2.6728961013236319 5.5065718154535288 13.064129715233433 -0.21818339724662034 0.84056100869750561 -1.7682949415296898 13.212891353056325 2.2979843847200421 7.2583269748694619 2.8911836331580734 1.7193735435663868 6.7823769027260346 0.9033465363784885 5.4810133956577687 16.215575671807315 0.25521860119823953 -2.3700431954154459 1.877287890376099 2.9306431567461053 6.2573038978809077
leaf_weight=9001 25662 13388 35110 50790 26709 43394 37952 46201 51206 25194 17540 49515 12000 27677 147958 47824 58469 2773 8545 57834 59625 4623 72629 92836 35845 169744 25640 12628 10615 86864 108252 46324 4420 38045 84116 26634 62393 7947 3384 2038 496 40 12308 14963 735 4149 113250 21792 3050 1648 11715 11896 41449 2300 16178 13415 468 69227 109178 5050 26113 24571
leaf_count=9001 25662 13388 35110 50790 26709 43394 37952 46201 51206 25194 17540 49515 12000 27677 147958 47824 58469 2773 8545 57834 59625 4623 72629 92836 35845 169744 25640 12628 10615 86864 108252 46324 4420 38045 84116 26634 62393 7947 3384 2038 496 40 12308 14963 735 4149 113250 21792 3050 1648 11715 11896 41449 2300 16178 13415 468 69227 109178 5050 26113 24571
internal_value=-5.82188e-09 -0.922023 1.59092 -1.35458 1.87351 2.10349 -2.20988 -0.215009 -1.93303 -0.791861 3.28917 2.33399 0.730109 0.373424 4.68969 -0.32578 -1.27202 1.96758 0.980561 2.03331 1.633 2.43068 -2.73832 -2.29109 1.1827 -1.79112 1.54031 -0.757434 5.41374 2.1544 -0.485081 4.33642 -4.037 -0.843041 -1.23365 -0.235693 -3.83946 0.415795 3.95541 3.06699 9.71909 -7.09829 -0.0294685 3.19568 -0.614271 4.26379 1.35107 0.169619 9.33945 -5.0623 3.90285 5.05802 0.523844 0.692233 2.56299 4.11796 -0.629008 -0.11332 -2.75787 -2.18227 1.67966 4.79293
internal_weight=2.25334e+06 1.42656e+06 826772 1.24082e+06 787242 760533 708820 531998 670828 277536 408159 242661 352374 316763 165498 250226 282361 185745 249637 108624 169307 109682 393292 279693 60315 215945 155898 160865 16438 112504 148237 79896 39530 198919 158574 74458 113599 66416 49367 35979 2534 37992 120560 24470 5358 19112 162765 141013 5823 27310 35611 23611 119221 40345 33445 17267 3852 77772 207064 114228 51307 70895
internal_count=2253335 1426563 826772 1240818 787242 760533 708820 531998 670828 277536 408159 242661 352374 316763 165498 250226 282361 185745 249637 108624 169307 109682 393292 279693 60315 215945 155898 160865 16438 112504 148237 79896 39530 198919 158574 74458 113599 66416 49367 35979 2534 37992 120560 24470 5358 19112 162765 141013 5823 27310 35611 23611 119221 40345 33445 17267 3852 77772 207064 114228 51307 70895
is_linear=0
shrinkage=0.05


Tree=12
num_leaves=63
num_cat=0
split_feature=9 8 0 0 42 11 14 0 39 39 0 8 14 0 9 0 11 3 11 15 26 26 11 9 17 39 0 17 0 0 39 39 0 0 0 17 9 11 4 17 39 8 43 0 5 2 0 8 0 3 17 5 9 9 5 11 4 19 17 8 17 42
split_gain=1.19322e+09 6.47761e+08 4.74687e+08 4.32837e+08 4.2801e+08 4.47474e+08 3.48431e+08 2.84052e+08 1.95123e+08 1.78151e+08 1.72109e+08 1.45387e+08 1.66664e+08 1.23293e+08 1.21588e+08 1.00924e+08 9.44156e+07 8.96101e+07 7.40136e+07 8.16361e+07 6.3692e+07 6.13552e+07 5.3486e+07 5.34705e+07 5.21081e+07 5.43238e+07 5.00512e+07 4.93418e+07 4.71275e+07 4.63399e+07 4.60161e+07 4.58846e+07 4.639e+07 4.34524e+07 4.31444e+07 4.64776e+07 4.07954e+07 4.07105e+07 3.97458e+07 3.92387e+07 3.70281e+07 3.68788e+07 3.57131e+07 4.85813e+07 3.55451e+07 3.52095e+07 3.51657e+07 3.46584e+07 3.3046e+07 3.29859e+07 3.26824e+07 3.16788e+07 3.15766e+07 3.68626e+07 3.01346e+07 3.17066e+07 2.97587e+07 2.94634e+07 2.88797e+07 3.60418e+07 2.78224e+07 2.78158e+07
threshold=4.5000000000000009 404.50000000000006 3.5000000000000004 3.5000000000000004 1.0000000180025095e-35 1.1598326417003435 1.0000000180025095e-35 2.5000000000000004 1.0000000180025095e-35 1.0000000180025095e-35 2.5000000000000004 419.50000000000006 1.0000000180025095e-35 1.5000000000000002 169.50000000000003 1.5000000000000002 3.9404027918566169 135.50000000000003 53.101789043364271 2.5000000000000004 1.0000000180025095e-35 1.0000000180025095e-35 47.604329868393464 73.500000000000014 6.5000000000000009 1.0000000180025095e-35 2.5000000000000004 6.5000000000000009 1.0000000180025095e-35 1.5000000000000002 1.0000000180025095e-35 1.0000000180025095e-35 2.5000000000000004 1.0000000180025095e-35 2.5000000000000004 3.5000000000000004 67.500000000000014 103.25047367246383 984.00000000000011 2.5000000000000004 1.0000000180025095e-35 1539.5000000000002 1.0000000180025095e-35 2.5000000000000004 11.500000000000002 100.50000000000001 2.5000000000000004 250.50000000000003 1.0000000180025095e-35 128.50000000000003 2.5000000000000004 9.5000000000000018 54.500000000000007 300.50000000000006 7.5000000000000009 26.692955790268069 98.600000000000009 1.0000000180025095e-35 5.5000000000000009 1389.5000000000002 1.0000000180025095e-35 1.0000000180025095e-35
decision_type=2 2 2 2 2 2 2 2 2 2 2 2 2 2 2 2 2 2 2 2 2 2 2 2 2 2 2 2 2 2 2 2 2 2 2 2 2 2 2 2 2 2 2 2 2 2 2 2 2 2 2 2 2 2 2 2 2 2 2 2 2 2
left_child=2 3 4 6 5 8 7 15 10 23 29 12 21 48 18 -2 20 24 54 26 -17 39 -13 -9 25 45 37 33 -27 -1 -4 32 -19 -14 35 -24 -11 -20 -21 42 -28 -37 60 -44 -12 -8 58 -5 -10 -42 52 -15 -18 -54 -3 -56 -25 -31 -16 -60 -7 -22
right_child=1 14 30 47 -6 11 17 9 13 36 44 22 27 51 46 16 50 31 19 38 61 -23 34 56 -26 28 40 -29 -30 57 -32 -33 -34 -35 -36 41 -38 -39 -40 -41 49 -43 43 -45 -46 -47 -48 -49 -50 -51 -52 -53 53 -55 55 -57 -58 -59 59 -61 -62 -63
leaf_value=0.77510547436793586 -1.4079829549106508 -3.0617429189285428 -4.4404354424825367 -6.6406232099079041 -4.441349308457597 0.83759720599336696 -3.491707991171431 -1.4025379612258042 -3.1923514877495545 1.4418151071599281 0.28339564437266496 -0.86027437522113814 -5.7904224948451306 3.6372082502839249 6.5754271636170145 1.0407751502035114 1.7575220165547234 -0.86923750588178006 1.2242991392427307 3.9044437972191588 3.8028374863794063 -0.75283412911415271 9.741383745824546 -1.7715663745687413 -4.8867957146658885 -5.1086737530257444 -1.0043148396110773 -4.8164261233152814 -1.4555351905669747 3.8037235580191466 0.97286100982460821 -0.52603443027073582 -2.7052615132590896 -0.53225390930014271 2.3662847333221602 3.1862664369506497 -0.59761038624854323 4.2976748511533538 72.717983427501864 -0.74811085461538684 -0.76317091461336872 10.495794632434697 2.9563652259289412 -0.21468388604782282 1.8284458792553804 -1.7822936853343194 2.2910605057443028 -0.35149152301901726 1.7643519297457591 2.8250413844323905 -1.0147612216844351 5.3303860466561259 -0.24428136173174503 7.1327690992863912 -4.7371535242298473 0.33392461455000333 -3.6085721913347495 5.9439427421100461 1.3422114325244892 7.5619738832008494 3.4562452578577521 -3.5414657416709794
leaf_weight=9216 41375 10921 35110 40466 26709 12534 119091 103074 4455 47414 57528 6587 4043 36680 13651 43379 48980 60117 41644 27105 52008 26195 5172 32434 23269 9477 38690 7593 128997 46531 4420 101795 80436 139369 19832 12307 50785 14536 21 12568 10562 2007 21489 27580 105476 40323 22158 2316 13713 16273 30882 111905 51483 1751 3368 36350 68835 24573 7987 3288 53180 1322
leaf_count=9216 41375 10921 35110 40466 26709 12534 119091 103074 4455 47414 57528 6587 4043 36680 13651 43379 48980 60117 41644 27105 52008 26195 5172 32434 23269 9477 38690 7593 128997 46531 4420 101795 80436 139369 19832 12307 50785 14536 21 12568 10562 2007 21489 27580 105476 40323 22158 2316 13713 16273 30882 111905 51483 1751 3368 36350 68835 24573 7987 3288 53180 1322
internal_value=-1.99643e-09 -0.875922 1.51137 -1.36294 1.77984 1.99832 -1.1772 -0.309837 3.11951 -1.36314 2.21661 0.686386 0.291004 4.437 1.45495 0.865283 1.27457 -2.0603 0.915492 1.47729 2.46351 1.45095 3.3095 -2.20424 -2.60802 -2.43002 0.924449 -0.888457 -1.70555 4.11099 -3.83515 -1.33446 -1.91996 -0.68049 4.00806 5.67899 0.387097 2.0195 3.95772 1.90425 -0.014432 4.21115 2.19466 1.17403 1.28316 -3.05932 3.74035 -6.30016 0.548912 1.41276 0.410671 4.9124 0.841338 -0.00163164 -0.735675 -0.0960918 -3.02022 4.54337 5.02869 3.15601 2.95678 3.62078
internal_weight=2.25334e+06 1.42656e+06 826772 1.18001e+06 787242 760533 1.13723e+06 573722 410077 302542 243324 350456 304551 166753 246554 271180 229805 563505 199470 148831 96709 153546 45905 204343 321157 297888 121705 151005 138474 80320 39530 242348 140553 143412 39318 19486 98199 56180 27126 127351 65525 14314 114783 49069 163004 159414 47084 42782 18168 26835 133096 148585 102214 53234 50639 39718 101269 71104 24926 11275 65714 53330
internal_count=2253335 1426563 826772 1180009 787242 760533 1137227 573722 410077 302542 243324 350456 304551 166753 246554 271180 229805 563505 199470 148831 96709 153546 45905 204343 321157 297888 121705 151005 138474 80320 39530 242348 140553 143412 39318 19486 98199 56180 27126 127351 65525 14314 114783 49069 163004 159414 47084 42782 18168 26835 133096 148585 102214 53234 50639 39718 101269 71104 24926 11275 65714 53330
is_linear=0
shrinkage=0.05


Tree=13
num_leaves=63
num_cat=0
split_feature=9 8 0 39 10 0 42 14 0 43 39 0 0 8 14 0 8 11 8 5 5 5 8 8 11 8 10 20 17 11 39 0 0 8 9 5 8 5 0 8 0 10 8 5 9 2 9 26 16 15 9 41 21 17 0 11 39 9 19 8 8 8
split_gain=1.07688e+09 5.85685e+08 4.28405e+08 4.01102e+08 3.86294e+08 3.14009e+08 2.79138e+08 2.24158e+08 1.99157e+08 1.90266e+08 1.77916e+08 1.63758e+08 1.556e+08 1.16118e+08 1.06514e+08 1.04985e+08 8.28365e+07 8.05988e+07 7.55218e+07 8.25424e+07 8.12364e+07 1.09406e+08 1.43956e+08 1.37694e+08 8.18139e+07 7.77055e+07 7.34793e+07 1.04477e+08 6.97972e+07 6.27798e+07 6.23061e+07 6.92818e+07 5.30882e+07 4.70514e+07 5.39036e+07 5.29368e+07 4.44162e+07 7.07951e+07 4.43476e+07 4.40388e+07 4.28201e+07 4.06097e+07 4.01489e+07 3.89078e+07 3.77708e+07 3.63919e+07 3.6207e+07 3.53434e+07 3.51678e+07 3.39627e+07 3.30807e+07 3.29123e+07 3.22094e+07 3.19329e+07 3.91029e+07 4.89685e+07 4.02211e+07 3.19322e+07 3.18301e+07 3.16725e+07 3.64679e+07 3.14416e+07
threshold=4.5000000000000009 492.50000000000006 3.5000000000000004 1.0000000180025095e-35 1.0000000180025095e-35 3.5000000000000004 1.0000000180025095e-35 1.0000000180025095e-35 2.5000000000000004 1.0000000180025095e-35 1.0000000180025095e-35 1.5000000000000002 2.5000000000000004 506.50000000000006 1.0000000180025095e-35 1.5000000000000002 5.5000000000000009 50.229805227805109 1454.5000000000002 13.500000000000002 14.500000000000002 5.5000000000000009 922.50000000000011 1034.5000000000002 45.302133871369641 2145.5000000000005 2.5798319327731098 1.0000000180025095e-35 1.0000000180025095e-35 15.89893676905735 1.0000000180025095e-35 2.5000000000000004 1.5000000000000002 574.50000000000011 114.50000000000001 11.500000000000002 1290.5000000000002 18.500000000000004 1.5000000000000002 351.50000000000006 1.5000000000000002 63.757352941176478 1.0000000180025095e-35 9.5000000000000018 193.50000000000003 126.50000000000001 242.50000000000003 1.0000000180025095e-35 1.0000000180025095e-35 2.5000000000000004 95.500000000000014 1.0000000180025095e-35 1.0000000180025095e-35 7.5000000000000009 2.5000000000000004 53.101789043364271 1.0000000180025095e-35 310.50000000000006 1.0000000180025095e-35 1663.5000000000002 2558.5000000000005 72.500000000000014
decision_type=2 2 2 2 2 2 2 2 2 2 2 2 2 2 2 2 2 2 2 2 2 2 2 2 2 2 2 2 2 2 2 2 2 2 2 2 2 2 2 2 2 2 2 2 2 2 2 2 2 2 2 2 2 2 2 2 2 2 2 2 2 2
left_child=2 3 4 5 6 8 10 26 9 51 12 -6 40 14 30 -12 -11 32 20 59 21 22 -3 24 50 -21 27 -5 42 -30 31 -13 -9 34 -26 -35 49 -38 -18 -4 -1 -24 -10 -25 -19 -7 -40 52 -14 -22 -23 -2 -28 54 55 -16 -56 -31 -17 -20 -61 -34
right_child=1 18 39 7 11 45 -8 17 28 16 15 13 48 -15 53 58 38 44 19 25 36 23 41 43 33 -27 47 -29 29 57 -32 -33 61 35 -36 -37 37 -39 46 -41 -42 -43 -44 -45 -46 -47 -48 -49 -50 -51 -52 -53 -54 -55 56 -57 -58 -59 -60 60 -62 -63
leaf_value=0.66498042997447726 -5.1337009418290336 -2.9459308046372144 -3.8625306472729086 0.17793635164566624 -2.3423003022338764 -6.4816217212616909 -3.805159109655321 -3.1286561649434987 -2.4888741372443239 1.4941303671482808 0.57501200673581365 2.2724362169333676 0.6896224363840856 3.6380867689296608 -0.11802421737756204 4.11519670816 -2.5158024499043155 0.010202502500619319 -2.1952167793767314 11.691480013553374 -0.34769910615665389 -2.0668015599703078 3.2047035417906522 5.1575625303258548 1.0375612685914855 2.756812661378957 -0.1141445986219492 3.2925465899115682 -0.82158577167464208 -2.5754050864352838 2.4682354020597672 -0.94300000001545392 0.13455993059049035 9.3126505901974781 8.6843452535507151 4.8824054812872166 0.57896600537721354 15.573625136353227 -0.57127567838740578 9.0663986280338094 4.3260112207942161 15.536071865039844 -4.3780972353296841 -0.9870245080141633 4.2916760349676801 41.235154266357426 3.714110597779162 -1.7032283717935179 2.2390485228951884 2.1714644691920086 6.5859978522546854 2.1640956464894301 1.6124633656090444 -4.8107196026939656 -2.1260282738782794 3.2929393026301286 0.43778241123615724 3.6966058038822034 5.6423001312515453 5.8053027173170149 -3.6469961334543992 -1.5591915552522153
leaf_weight=9001 25643 14525 38860 49302 44628 37930 15798 46120 51206 51307 17540 28809 107118 34338 55077 94575 30441 59775 3749 5719 68426 5048 1273 3060 8126 4236 77576 59322 75210 201412 77732 40030 34387 13168 3217 13819 2196 1227 162619 670 70895 1404 62382 16297 5637 40 5083 21791 55647 16631 1414 1644 41439 4053 41321 13007 24290 2050 53383 4555 1315 134842
leaf_count=9001 25643 14525 38860 49302 44628 37930 15798 46120 51206 51307 17540 28809 107118 34338 55077 94575 30441 59775 3749 5719 68426 5048 1273 3060 8126 4236 77576 59322 75210 201412 77732 40030 34387 13168 3217 13819 2196 1227 162619 670 70895 1404 62382 16297 5637 40 5083 21791 55647 16631 1414 1644 41439 4053 41321 13007 24290 2050 53383 4555 1315 134842
internal_value=3.97564e-09 -0.832126 1.4358 -1.22853 1.69084 -2.00819 2.71611 -0.188926 -1.75714 -0.730048 2.96852 0.494347 2.10642 0.89162 0.559921 4.23258 -0.296435 -1.15796 1.75712 4.69801 1.41817 2.55862 -0.982293 3.50814 5.03097 7.88965 0.901824 1.87889 -2.48175 -2.05593 1.49811 0.402654 -1.62486 5.90837 3.20627 7.04409 0.3696 5.95391 -0.760082 -3.6434 3.91356 9.67211 -3.52643 -0.0156738 0.379166 -6.43135 -0.441387 0.148069 1.21935 0.144867 -0.173416 -4.69402 0.487031 -0.438358 -0.305808 0.533618 -1.17687 -2.51221 4.66617 1.39489 3.68779 -1.21502
internal_weight=2.25334e+06 1.42656e+06 826772 1.23716e+06 787242 706967 423957 530191 668997 276737 408159 363285 242661 318657 284319 165498 249450 280761 189405 19574 169831 81351 17202 64149 44792 9955 249430 108624 392260 278672 146571 68839 215349 38330 11343 26987 88480 3423 198143 39530 79896 2677 113588 19357 65412 37970 167702 140806 162765 85057 6462 27287 119015 137748 133695 68084 65611 203462 147958 9619 5870 169229
internal_count=2253335 1426563 826772 1237158 787242 706967 423957 530191 668997 276737 408159 363285 242661 318657 284319 165498 249450 280761 189405 19574 169831 81351 17202 64149 44792 9955 249430 108624 392260 278672 146571 68839 215349 38330 11343 26987 88480 3423 198143 39530 79896 2677 113588 19357 65412 37970 167702 140806 162765 85057 6462 27287 119015 137748 133695 68084 65611 203462 147958 9619 5870 169229
is_linear=0
shrinkage=0.05


Tree=14
num_leaves=63
num_cat=0
split_feature=9 8 0 42 11 0 14 0 39 0 39 9 8 14 0 0 11 3 8 26 26 9 22 17 17 17 0 5 8 5 17 39 17 7 8 5 8 8 8 17 11 39 39 0 9 0 8 5 17 2 4 5 17 8 0 8 3 17 9 9 43 0
split_gain=9.71888e+08 5.35231e+08 3.86635e+08 3.58184e+08 3.62968e+08 3.58036e+08 3.0118e+08 2.36446e+08 1.57337e+08 1.4064e+08 1.39992e+08 1.22523e+08 1.20722e+08 1.36284e+08 1.02388e+08 8.78703e+07 7.79541e+07 7.77834e+07 7.69075e+07 5.51989e+07 5.40467e+07 4.96144e+07 4.96008e+07 4.80278e+07 4.76587e+07 4.48595e+07 4.45116e+07 4.26929e+07 4.45291e+07 4.1542e+07 4.09147e+07 4.09093e+07 4.08461e+07 4.08389e+07 1.16796e+08 4.99107e+07 5.91297e+07 5.60565e+07 4.59584e+07 4.16552e+07 3.94457e+07 3.87598e+07 3.78206e+07 3.7245e+07 3.69175e+07 3.65146e+07 3.60755e+07 4.4803e+07 3.60066e+07 3.5094e+07 3.509e+07 3.50579e+07 3.50466e+07 3.34075e+07 3.10131e+07 3.09785e+07 3.09025e+07 2.91106e+07 2.95883e+07 3.19148e+07 2.87753e+07 3.9694e+07
threshold=4.5000000000000009 385.50000000000006 3.5000000000000004 1.0000000180025095e-35 1.7368487689586478 3.5000000000000004 1.0000000180025095e-35 2.5000000000000004 1.0000000180025095e-35 2.5000000000000004 1.0000000180025095e-35 116.50000000000001 419.50000000000006 1.0000000180025095e-35 1.5000000000000002 1.5000000000000002 3.9404027918566169 135.50000000000003 583.50000000000011 1.0000000180025095e-35 1.0000000180025095e-35 78.500000000000014 1.0000000180025095e-35 5.5000000000000009 1.0000000180025095e-35 4.5000000000000009 2.5000000000000004 17.500000000000004 1117.5000000000002 11.500000000000002 5.5000000000000009 1.0000000180025095e-35 1.0000000180025095e-35 1.0000000180025095e-35 1088.5000000000002 11.500000000000002 1249.5000000000002 1539.5000000000002 943.50000000000011 9.5000000000000018 34.641541007306394 1.0000000180025095e-35 1.0000000180025095e-35 2.5000000000000004 67.500000000000014 1.5000000000000002 881.50000000000011 5.5000000000000009 5.5000000000000009 84.500000000000014 97.90000000000002 16.500000000000004 2.5000000000000004 1454.5000000000002 1.0000000180025095e-35 1454.5000000000002 135.50000000000003 2.5000000000000004 54.500000000000007 310.50000000000006 1.0000000180025095e-35 2.5000000000000004
decision_type=2 2 2 2 2 2 2 2 2 2 2 2 2 2 2 2 2 2 2 2 2 2 2 2 2 2 2 2 2 2 2 2 2 2 2 2 2 2 2 2 2 2 2 2 2 2 2 2 2 2 2 2 2 2 2 2 2 2 2 2 2 2
left_child=2 5 3 4 8 6 7 15 9 45 21 18 13 19 54 -2 20 23 29 52 -17 -9 -14 24 -8 32 30 46 -29 -3 -13 -4 -15 35 -35 36 40 38 51 -39 -20 -26 43 -19 -12 -1 47 -28 -36 -42 -11 -37 60 -32 -10 -24 -16 58 -18 -60 -6 -62
right_child=1 11 31 -5 12 -7 17 10 14 50 44 26 22 25 56 16 57 42 33 -21 -22 -23 55 -25 41 -27 27 28 -30 -31 53 -33 -34 34 48 37 -38 39 -40 -41 49 -43 -44 -45 -46 -47 -48 -49 -50 -51 -52 -53 -54 -55 -56 -57 -58 -59 59 -61 61 -63
leaf_value=0.7747299458547211 -1.3229543517852067 -2.1248275004563446 -4.0319336195014861 -4.0848385099023057 2.6989696871277751 -5.7492666398557324 -3.6373906370431692 -1.2512908632964654 -3.0908971098866544 2.789409156562372 1.3233380389061455 5.27876998086907 0.440298357664622 -2.2444573171635045 3.8046710542844568 0.95039543336334076 1.6827300840081152 -0.81354332125210971 -5.8263652617637165 -0.78767660662492267 3.3270300372166064 -2.8149817961266081 3.5386814886664184 -4.2866120839449193 -2.5382178882280337 -3.3030129462413891 -1.7566453911029627 -1.9593817755035343 7.3127211515048378 0.21845370614258541 1.2404867267118973 1.0721519370997383 -0.071289151413348226 -2.9037985813340796 20.863361112953839 4.1592518259906477 0.16240703357159125 11.379940875603587 -0.91714600457809758 2.3244991784138804 9.797526684585101 -1.2477313983420852 -0.48450129972450595 -2.4789054335303948 -0.62209327765808298 4.0985372999886618 0.33186247413740422 5.0067715929985326 5.5744228572549019 4.0963322556480124 0.8289235320364865 0.73351615556853955 -0.76757239643450248 6.0354024040253771 1.6580534532542086 8.5987503488983688 5.2602151117571108 -0.97514989040963584 -0.23329302275688707 7.1179412988618651 2.7106266106158534 -0.15704089661221235
leaf_weight=9348 41315 29735 35110 26709 65648 42605 49256 108211 4568 27443 47203 24021 13311 27073 84770 43379 48896 58661 624 26018 53330 95494 29220 31358 122609 16082 2896 10924 1469 51972 16837 4420 107398 13130 446 11983 5692 2238 22801 2936 5709 110737 99047 78501 50449 71187 10781 15849 2820 5120 135612 19822 12560 4632 13896 3374 63994 30055 51500 1520 21459 27572
leaf_count=9348 41315 29735 35110 26709 65648 42605 49256 108211 4568 27443 47203 24021 13311 27073 84770 43379 48896 58661 624 26018 53330 95494 29220 31358 122609 16082 2896 10924 1469 51972 16837 4420 107398 13130 446 11983 5692 2238 22801 2936 5709 110737 99047 78501 50449 71187 10781 15849 2820 5120 135612 19822 12560 4632 13896 3374 63994 30055 51500 1520 21459 27572
internal_value=7.26375e-09 -0.79052 1.36401 1.6063 1.80617 -1.25036 -1.07945 -0.275418 2.81398 2.00323 -1.23819 1.24926 0.622274 0.261168 3.99494 0.799182 1.18258 -1.91445 0.485792 1.31077 2.26099 -1.98433 3.01216 -2.43012 -2.22412 -0.807288 2.77802 1.60264 -0.860316 -0.634319 3.86114 -3.46123 -0.508812 1.4665 -0.799094 1.9494 4.32756 1.26733 0.796034 6.24141 6.39759 -1.9258 -1.22903 -1.76667 0.318289 3.71273 2.63642 3.96186 7.66226 7.10198 1.15888 2.02421 1.73986 2.275 0.483161 4.06248 4.4308 0.392323 0.795591 -0.0225447 2.01449 1.09803
internal_weight=2.25334e+06 1.42656e+06 826772 787242 760533 1.16413e+06 1.12152e+06 571352 410818 243590 301357 262437 349715 303810 167228 269995 228680 550169 175028 153257 96709 203705 45905 313960 282602 150553 87409 41919 12393 81707 45490 39530 134471 93321 16396 76925 17145 59780 54606 5174 11453 233346 236209 137162 97652 80535 29526 18745 3266 10829 163055 31805 127239 21469 18464 32594 148764 131971 101916 53020 114679 49031
internal_count=2253335 1426563 826772 787242 760533 1164126 1121521 571352 410818 243590 301357 262437 349715 303810 167228 269995 228680 550169 175028 153257 96709 203705 45905 313960 282602 150553 87409 41919 12393 81707 45490 39530 134471 93321 16396 76925 17145 59780 54606 5174 11453 233346 236209 137162 97652 80535 29526 18745 3266 10829 163055 31805 127239 21469 18464 32594 148764 131971 101916 53020 114679 49031
is_linear=0
shrinkage=0.05


Tree=15
num_leaves=63
num_cat=0
split_feature=9 8 0 42 11 0 10 20 17 39 0 42 9 0 21 0 11 43 39 0 9 8 17 8 11 43 0 0 9 7 8 5 8 8 8 11 5 0 17 5 8 42 0 0 43 11 17 5 17 0 9 19 4 8 0 17 8 17 7 9 14 2
split_gain=8.77129e+08 4.83046e+08 3.48939e+08 3.23261e+08 3.27579e+08 3.23128e+08 2.79564e+08 1.46279e+08 1.42517e+08 1.41996e+08 1.26928e+08 1.22819e+08 1.1132e+08 1.09928e+08 1.02939e+08 9.93527e+07 1.35862e+08 1.2475e+08 9.78546e+07 9.24054e+07 8.07182e+07 8.4992e+07 7.46027e+07 6.81226e+07 6.05019e+07 5.82542e+07 5.05704e+07 5.04776e+07 4.72016e+07 4.51272e+07 1.17161e+08 5.80434e+07 7.0854e+07 5.79191e+07 5.56318e+07 4.67525e+07 4.40024e+07 4.16541e+07 4.0485e+07 4.03007e+07 3.91602e+07 3.90702e+07 4.97265e+07 3.86289e+07 4.14477e+07 3.83054e+07 3.80085e+07 3.66925e+07 3.49435e+07 3.4168e+07 3.33109e+07 3.32553e+07 3.27289e+07 3.24079e+07 3.0463e+07 3.16273e+07 3.05757e+07 2.97913e+07 2.97179e+07 2.92991e+07 2.90031e+07 2.89158e+07
threshold=4.5000000000000009 385.50000000000006 3.5000000000000004 1.0000000180025095e-35 1.7368487689586478 3.5000000000000004 3.2752525252525255 1.0000000180025095e-35 1.0000000180025095e-35 1.0000000180025095e-35 2.5000000000000004 1.0000000180025095e-35 148.50000000000003 1.5000000000000002 1.0000000180025095e-35 2.5000000000000004 62.398983299973793 1.0000000180025095e-35 1.0000000180025095e-35 1.5000000000000002 234.50000000000003 82.500000000000014 2.5000000000000004 564.50000000000011 17.252219543494672 1.0000000180025095e-35 2.5000000000000004 2.5000000000000004 64.500000000000014 1.0000000180025095e-35 1034.5000000000002 11.500000000000002 1213.5000000000002 1539.5000000000002 881.50000000000011 48.335976937967999 17.500000000000004 2.5000000000000004 9.5000000000000018 10.500000000000002 351.50000000000006 1.0000000180025095e-35 2.5000000000000004 2.5000000000000004 1.0000000180025095e-35 38.318309685242781 5.5000000000000009 7.5000000000000009 1.0000000180025095e-35 1.0000000180025095e-35 77.500000000000014 1.0000000180025095e-35 98.600000000000009 39.500000000000007 2.5000000000000004 5.5000000000000009 1389.5000000000002 1.5000000000000002 1.0000000180025095e-35 43.500000000000007 1.0000000180025095e-35 99.500000000000014
decision_type=2 2 2 2 2 2 2 2 2 2 2 2 2 2 2 2 2 2 2 2 2 2 2 2 2 2 2 2 2 2 2 2 2 2 2 2 2 2 2 2 2 2 2 2 2 2 2 2 2 2 2 2 2 2 2 2 2 2 2 2 2 2
left_child=2 5 3 4 9 6 7 27 26 10 51 14 23 53 20 16 22 -17 41 -11 21 28 -15 39 -23 45 -8 49 -10 31 -31 32 35 34 36 -25 -33 -27 -35 -3 -4 42 -9 60 -45 -26 -32 -22 -19 -2 -29 -1 -12 -6 55 -14 -57 -39 -21 -28 -16 -18
right_child=1 12 40 -5 13 -7 8 18 11 19 52 -13 54 15 43 17 61 48 -20 58 47 24 -24 29 25 37 59 50 -30 30 46 33 -34 38 -36 -37 -38 57 -40 -41 -42 -43 -44 44 -46 -47 -48 -49 -50 -51 -52 -53 -54 -55 -56 56 -58 -59 -60 -61 -62 -63
