tree
version=v4
num_class=6
num_tree_per_iteration=6
label_index=0
max_feature_idx=43
objective=multiclass num_class:6
feature_names=acuity gender triage_hr triage_sbp triage_o2sat arrival_hour arrival_dow arrival_is_night prefix_duration_min last_duration_min avg_duration_min std_duration_min freq_ED_ARRIVAL freq_ED_END freq_MEDICATION_DISPENSED freq_MEDICATION_RECONCILIATION freq_TRIAGE freq_VITAL_SIGN_REASSESSMENT last1_ed_arrival last1_triage last1_vital_sign_reassessment last1_medication_reconciliation last1_medication_dispensed last1_ed_end last1_none last2_ed_arrival last2_triage last2_vital_sign_reassessment last2_medication_reconciliation last2_medication_dispensed last2_ed_end last2_none last3_ed_arrival last3_triage last3_vital_sign_reassessment last3_medication_reconciliation last3_medication_dispensed last3_ed_end last3_none transport_AMBULANCE transport_HELICOPTER transport_OTHER transport_UNKNOWN transport_WALK_IN
feature_infos=[0:5] [0:1] [0:570] [0:415] [0:1005] [0:23] [0:6] [0:1] [-56:4129] [0:925] [0:329.36363636363637] [0:545.01865411500671] [0:1] none [0:50] [0:24] [0:1] [0:104] [0:1] [0:1] [0:1] [0:1] [0:1] none none [0:1] [0:1] [0:1] [0:1] [0:1] none [0:1] [0:1] [0:1] [0:1] [0:1] [0:1] none [0:1] [0:1] [0:1] [0:1] [0:1] [0:1]
tree_sizes=1099 6875 6889 6909 1598 7024 7004 7036 7115 7074 6901 7145 7096 7060 7136 7080 6971 7156 7063 7029 7069 7076 6966 7140 7087 7020 7095 7101 6958 7163 7139 7036 7077 7083 6985 7158 7013 7060 7135 7090 6962 7099 6993 7024 7014 7048 6980 7090 7005 7024 7038 7042 6935 7126 6993 7055 6966 7064 6902 7116 7081 7057 7097 7092 6987 7131 7084 7055 7042 7079 6993 7180 7086 7042 7112 7101 6981 7191 7071 7089 7136 7114 7063 7214 7010 7062 7123 7100 7060 7192 7034 7084 7119 7132 7114 7201 7063 7050 7108 7118 7127 7203 7134 7097 7050 7092 7135 7127 7128 6978 6905 7082 7127 7168 7045 7048 6974 7035 7137 7092 7010 6994 7019 7072 7142 6969 7036 7060 7028 7111 7162 7151 7047 7078 7106 7130 7169 7126 7021 7032 7070 7151 7167 7148 7052 7126 7201 7146 7184 7031 7026 7046 6689 7142 7174 7009 6979 7062 6669 7143 7171 6956 7035 7120 6775 7113 7198 7072

Tree=0
num_leaves=9
num_cat=0
split_feature=8 5 4 9 9 2 2 2
split_gain=152712 51489.6 20675.1 7296.34 7764.96 2283.93 3.55271e-15 2.77556e-17
threshold=-1.0000000180025095e-35 4.5000000000000009 93.500000000000014 1.5000000000000002 4.5000000000000009 80.500000000000014 142.50000000000003 218.50000000000003
decision_type=2 2 2 2 2 2 2 2
left_child=1 -1 3 -3 -5 -4 -2 -8
right_child=6 2 5 4 -6 -7 7 -9
leaf_value=453.9484147682474 -11.143228669771647 334.04197544404269 87.481115362746763 77.936824004769605 257.33415230769828 -11.143228669771617 -11.143228669771647 -11.143228669771624
leaf_weight=0.0017200911224780615 40.473961386600422 0.0010139484511455521 0.0010139484511455521 0.0011225857851968613 0.0013036480086157098 0.0013941791203251341 0.31604411097759921 0.001810622234188485
leaf_count=95 2235362 56 56 62 72 77 17455 100
internal_value=-11.1016 213.475 142.747 221.403 174.329 30.3828 -11.1432 -11.1432
internal_weight=40.7994 0.0075684 0.00584831 0.00344018 0.00242623 0.00240813 40.7918 0.317855
internal_count=2253335 418 323 190 134 133 2252917 17555
is_linear=0
shrinkage=1


Tree=1
num_leaves=63
num_cat=0
split_feature=10 9 9 0 9 11 42 0 8 0 0 19 8 21 10 0 0 9 8 9 17 39 9 8 0 0 9 9 39 10 5 9 7 0 17 20 8 39 39 0 9 14 0 14 9 14 21 0 8 0 0 18 9 39 5 8 8 9 8 9 8 9
split_gain=92613.5 26669.1 19733.1 8574.79 8535.02 6241.65 6063.64 5232.6 4522.19 3407.69 3386.73 2541.79 2466.29 2383.49 2236.71 2227.95 1983.14 1975.49 1521.83 1427.32 1262.22 1236.21 1121.85 1114.74 937.118 828.252 817.358 766.655 698.369 676.084 663.332 642.227 587.372 578.699 551.637 517.592 502.469 461.475 457.737 443.491 442.044 429.52 415.945 415.266 408.513 364.551 355.244 355.018 375.443 347.128 346.442 662.822 344.855 343.431 326.957 325.958 317.803 316.226 304.425 302.725 298.844 289.471
threshold=14.015625000000002 3.5000000000000004 59.500000000000007 3.5000000000000004 60.500000000000007 3.4696257460007911 1.0000000180025095e-35 2.5000000000000004 162.50000000000003 3.5000000000000004 3.5000000000000004 1.0000000180025095e-35 492.50000000000006 1.0000000180025095e-35 6.7559523809523823 3.5000000000000004 2.5000000000000004 140.50000000000003 343.50000000000006 183.50000000000003 3.5000000000000004 1.0000000180025095e-35 20.500000000000004 242.50000000000003 2.5000000000000004 3.5000000000000004 1.5000000000000002 5.5000000000000009 1.0000000180025095e-35 77.022727272727295 10.500000000000002 4.5000000000000009 1.0000000180025095e-35 2.5000000000000004 1.0000000180025095e-35 1.0000000180025095e-35 152.50000000000003 1.0000000180025095e-35 1.0000000180025095e-35 2.5000000000000004 10.500000000000002 2.5000000000000004 2.5000000000000004 1.0000000180025095e-35 120.50000000000001 1.0000000180025095e-35 1.0000000180025095e-35 3.5000000000000004 152.50000000000003 1.0000000180025095e-35 1.0000000180025095e-35 1.0000000180025095e-35 16.500000000000004 1.0000000180025095e-35 16.500000000000004 108.50000000000001 106.50000000000001 120.50000000000001 108.50000000000001 137.50000000000003 10.500000000000002 118.50000000000001
decision_type=2 2 2 2 2 2 2 2 2 2 2 2 2 2 2 2 2 2 2 2 2 2 2 2 2 2 2 2 2 2 2 2 2 2 2 2 2 2 2 2 2 2 2 2 2 2 2 2 2 2 2 2 2 2 2 2 2 2 2 2 2 2
left_child=2 13 6 4 8 9 14 50 24 19 17 60 16 26 25 22 36 33 38 57 23 41 56 34 58 49 35 -17 43 32 -21 -27 -14 -7 -10 -2 44 -35 45 -19 -13 46 -25 -26 -6 -5 -18 48 -28 -1 51 -8 -22 -44 -38 -24 -16 -4 -3 -48 -9 -11
right_child=1 3 5 18 12 10 7 11 20 61 -12 40 29 -15 15 27 21 39 -20 30 52 -23 55 42 28 31 47 -29 -30 -31 -32 -33 -34 37 -36 -37 54 -39 -40 -41 -42 -43 53 -45 -46 -47 59 -49 -50 -51 -52 -53 -54 -55 -56 -57 -58 -59 -60 -61 -62 -63
leaf_value=-2.0471034771458534 -2.0452356042651432 -2.0454826226185574 -2.0543383025807929 -1.9026886110008443 -2.0057143378067823 -2.0190436033074164 -2.0355431719513883 -1.9573674093935516 -1.9707105845598532 -1.9831394089425904 -1.8621650185836884 -1.8078323455195247 -2.0058136269858879 -2.058994276669091 -2.0629532016727183 -2.0236608554627984 -1.9428924693688068 -1.9819387598764144 -1.9806740170666615 -1.9697749723746796 -2.0117430640478888 -1.9754064717358244 -2.0418485880411437 -1.9881501119389744 -2.0194541671607955 -2.0576749788010149 -2.0402882867393028 -1.9067558194278846 -2.03293857866753 -1.9781732052206205 -2.0244017534088972 -2.017465016701891 -1.9743197638223455 -1.9811046309630609 -2.0029566246612482 -2.0127712812597478 -1.9708040168909982 -2.0169894059786411 -1.9374674281875128 -1.9451115235945531 -1.9960032737281452 -1.9699392070185633 -1.9629603048369852 -1.9938745132170084 -1.9769847482602469 -1.856626867490726 -1.9744995788323889 -1.941944739730622 -2.0116631221693302 -2.0686847989539556 -2.0403473986557255 -1.8538031744992216 -1.9978029816612211 -1.9837203889070798 -1.9875943829432665 -2.0161932579190518 -2.0462995156951327 -2.0388722376931394 -2.0267011543396207 -1.9382586375535826 -2.0304881118522586 -1.9390399719847768
leaf_weight=1903.0601285398006 6993.4540919959545 3898.0110709369183 9082.4935358762741 656.55917823314667 3195.9872299432755 5057.2912935912609 156.85995429754257 725.51162749528885 1550.74333101511 792.54110008478165 493.51822748780251 389.81484264135361 8324.4286604225636 11958.991927206516 14122.615394890308 234.87786501646042 9889.8690274357796 1550.3312645852566 472.5028395652771 645.02131819725037 7501.2572890520096 7949.8602756857872 5864.1173632442951 5116.766214966774 2563.1905491650105 4328.4831346571445 1472.3133538663387 348.05877774953842 2909.6010611951351 5301.7840419709682 4014.2138041555882 1288.6690816283226 1800.7302984595299 2589.5628006756306 9163.6706225574017 1489.2080774903297 8917.941674888134 1369.8461683094501 316.87908455729485 1729.4428060948849 33.926802724599838 2508.7977804243565 5704.7850103676319 4164.4806955754757 2018.9881508052349 1242.3802860081196 1871.7430798709393 156.99730977416039 5160.1705455780029 89096.728751957417 4230.6860353052616 73.75989094376564 10859.049270451069 3061.104151904583 4296.2045976519585 1569.4236758351326 3593.6313347518444 5195.7456140220165 4832.1656674146652 832.51154378056526 173.06790053844452 701.47441908717155
leaf_count=13855 50915 28379 66124 4780 23268 36819 1142 5282 11290 5770 3593 2838 60605 87066 102818 1710 72002 11287 3440 4696 54612 57878 42693 37252 18661 31513 10719 2534 21183 38599 29225 9382 13110 18853 66715 10842 64926 9973 2307 12591 247 18265 41533 30319 14699 9045 13627 1143 37568 648658 30801 537 79058 22286 31278 11426 26163 37827 35180 6061 1260 5107
internal_value=-2.02612 -1.99757 -2.05233 -1.98751 -1.98952 -2.01799 -2.06123 -2.0112 -2.00246 -2.03513 -1.99059 -1.92385 -1.97557 -2.04228 -2.06359 -2.05049 -1.96922 -1.99575 -1.89921 -2.04087 -1.99358 -1.95945 -2.05273 -1.98617 -2.02322 -2.06708 -2.02919 -1.95386 -2.01247 -1.99264 -2.01684 -2.04845 -2.00021 -2.00784 -1.99829 -2.03954 -1.98145 -1.99352 -1.88184 -1.96252 -1.8229 -1.95105 -1.97682 -2.00362 -1.99459 -1.87255 -1.94728 -2.01626 -2.01802 -2.06823 -2.03709 -1.97742 -2.0035 -1.97021 -1.97626 -2.03643 -2.05958 -2.04871 -2.03509 -1.96334 -1.97145 -1.96243
internal_weight=309508 148153 161355 120922 118234 33221.5 128133 5783.63 61324.8 20431.5 12790 1322.32 56908.8 27231.1 122350 25732.7 41481.9 12296.5 2688.32 18937.5 42957.4 23052.8 25149.8 24597.1 18367.4 96616.9 15272.1 582.937 9637.27 15426.9 4659.24 5617.15 10125.2 9016.7 10714.4 8482.66 18429.1 3959.41 2215.82 3279.77 423.742 15102.9 13882.7 6727.67 5214.98 1898.94 12594.1 6789.48 6632.48 90999.8 4461.31 230.62 18360.3 8765.89 13214.1 7433.54 17716.2 14278.2 8730.18 2704.25 898.58 1494.02
internal_count=2253335 1078611 1174724 880358 860786 241865 932859 42107 446468 148749 93116 9627 414318 198253 890752 187344 302004 89523 19572 137872 312746 167833 183100 179076 133722 703408 111187 4244 70163 112314 33921 40895 73715 65645 78005 61757 134171 28826 16132 23878 3085 109955 101071 48980 37967 13825 91690 49430 48287 662513 32480 1679 133670 63819 96204 54119 128981 103951 63559 19688 6542 10877
is_linear=0
shrinkage=1


Tree=2
num_leaves=63
num_cat=0
split_feature=31 14 0 9 22 28 9 17 8 15 0 17 17 0 2 8 2 15 14 9 11 0 38 17 8 8 43 14 43 11 17 2 0 0 2 9 8 0 0 42 8 9 21 21 0 2 2 0 17 14 4 9 17 43 3 9 0 2 14 17 26 43
split_gain=27565 5235.04 5187.29 3881.77 3342.3 2008.14 1635.41 2117.75 1480.58 1470.75 1978.68 1183.71 1156.93 900.726 842.154 1098.14 802.289 690.008 626.019 533.849 800.478 892.576 507 504.083 492.818 473.548 472.563 459.101 444.878 438.519 432.144 422.544 404.456 376.883 317.594 312.647 281.249 278.338 275.029 260.873 260.703 259.367 254.072 251.994 244.326 233.568 229.069 223.403 223.018 217.813 215.248 211.333 210.342 202.014 193.681 186.656 178.639 178.378 175.407 185.409 173.686 171.002
threshold=1.0000000180025095e-35 3.5000000000000004 1.0000000180025095e-35 1.5000000000000002 1.0000000180025095e-35 1.0000000180025095e-35 74.500000000000014 3.5000000000000004 636.50000000000011 1.0000000180025095e-35 1.0000000180025095e-35 1.0000000180025095e-35 5.5000000000000009 3.5000000000000004 1.0000000180025095e-35 5.5000000000000009 85.500000000000014 1.0000000180025095e-35 8.5000000000000018 4.5000000000000009 1.1598326417003435 2.5000000000000004 1.0000000180025095e-35 8.5000000000000018 513.50000000000011 108.50000000000001 1.0000000180025095e-35 1.5000000000000002 1.0000000180025095e-35 11.343330570002669 7.5000000000000009 1.0000000180025095e-35 1.5000000000000002 3.5000000000000004 90.500000000000014 310.50000000000006 78.500000000000014 1.5000000000000002 1.0000000180025095e-35 1.0000000180025095e-35 -1.0000000180025095e-35 155.50000000000003 1.0000000180025095e-35 1.0000000180025095e-35 2.5000000000000004 90.500000000000014 87.500000000000014 2.5000000000000004 9.5000000000000018 1.5000000000000002 89.500000000000014 1.0000000180025095e-35 1.0000000180025095e-35 1.0000000180025095e-35 100.50000000000001 3.5000000000000004 1.5000000000000002 113.50000000000001 15.500000000000002 10.500000000000002 1.0000000180025095e-35 1.0000000180025095e-35
decision_type=2 2 2 2 2 2 2 2 2 2 2 2 2 2 2 2 2 2 2 2 2 2 2 2 2 2 2 2 2 2 2 2 2 2 2 2 2 2 2 2 2 2 2 2 2 2 2 2 2 2 2 2 2 2 2 2 2 2 2 2 2 2
left_child=1 3 39 4 5 14 7 9 12 10 11 -5 43 16 15 -1 36 29 23 22 21 31 50 -10 30 -18 42 46 -7 41 -9 -21 -4 45 -33 -29 44 -24 -6 40 -2 -8 56 52 -11 -22 61 57 -14 -31 -12 -44 54 -23 -3 -45 -16 -28 59 -20 -49 -19
right_child=2 8 32 6 38 28 17 24 18 13 19 -13 48 -15 26 -17 25 27 58 20 33 53 37 -25 -26 -27 47 35 -30 49 -32 34 -34 -35 -36 -37 -38 -39 -40 -41 -42 -43 51 55 -46 -47 -48 60 -50 -51 -52 -53 -54 -55 -56 -57 -58 -59 -60 -61 -62 -63
leaf_value=-1.309145832328543 -1.4206117343102815 -1.3057851333825685 -1.3835688719654615 -1.2929016029919322 -1.298439634202097 -1.3981944797457382 -1.3650104191010342 -1.3729159041099483 -1.3396605035126801 -1.3573213827172628 -1.3392587939252969 -1.3690387263256873 -1.3651869100973162 -1.381706971293396 -1.3505410275011207 -1.3891831599792031 -1.3405469122096141 -1.3656264721178202 -1.324973893823439 -1.3352142027144742 -1.3690682536822611 -1.357002995985884 -1.3409882796203789 -1.359695361969103 -1.3599475037703315 -1.3518871430882311 -1.3808955491050374 -1.3592007782760165 -1.3826233057858648 -1.3824570925241149 -1.3907444719809494 -1.373020673997952 -1.4003193895362414 -1.3938386723084519 -1.3579126201141649 -1.3260307097543211 -1.3599439881876898 -1.3795354085836862 -1.3511265068587583 -1.3571358991736289 -1.274673910850725 -1.3745638266710141 -1.3512611862081478 -1.3893279004217403 -1.3433145819314103 -1.3608278673733014 -1.3626124502807149 -1.3694979555732503 -1.3813094965946731 -1.3702385168193545 -1.3644224724205036 -1.3910943107476204 -1.350312136324227 -1.3452749490968472 -1.3436446625025609 -1.3479564698763844 -1.3783989599155257 -1.358799449600216 -1.3098479244730414 -1.3451493414029518 -1.3529925987969709 -1.3735697238747731
leaf_weight=1095.3151196837425 31.659139454364777 504.72412252426147 3823.2396754026413 1594.3451523780823 253.72864282131195 13657.38833886385 17809.746406435966 19363.094112038612 12068.737276315689 6900.7813466787338 979.15568715333939 750.93656677007675 6398.5626236796379 2725.6469197869301 616.5560467839241 704.01726657152176 15644.625689506531 12111.329068243504 4062.3914482593536 1112.8529163599014 22443.368946433067 5139.4854804873466 489.23619818687439 4243.4635048508644 5961.0287611484528 22367.52366989851 6832.68003231287 17625.941186726093 6906.9309636950493 12238.19338965416 4122.521036863327 8985.273751616478 62773.468393802643 1249.5110722780228 5675.8687424659729 740.23167788982391 29251.222747087479 10946.090525448322 10412.440426588058 122.3090495467186 916.52069902420044 11819.563905358315 350.30040633678436 695.36225003004074 5672.6800521612167 13940.498485207558 16462.29698908329 14777.301926612854 3226.4990612268448 5195.9708516001701 6434.0937442183495 6734.2861600518227 22265.030052959919 12856.799308776855 1021.519715487957 448.46651500463486 8634.290054500103 1054.3176729083061 1238.1228926181793 1582.2736819386482 1786.5776250362396 15379.281103432178
leaf_count=4809 139 2216 16786 7000 1114 59963 78194 85014 52988 30298 4299 3297 28093 11967 2707 3091 68688 53175 17836 4886 98538 22565 2148 18631 26172 98205 29999 77387 30325 53732 18100 39450 275608 5486 24920 3250 128428 48059 45716 537 4024 51894 1538 3053 24906 61206 72278 64880 14166 22813 28249 29567 97755 56448 4485 1969 37909 4629 5436 6947 7844 67523
internal_value=-1.36787 -1.36335 -1.3976 -1.36544 -1.37576 -1.38013 -1.36302 -1.36038 -1.34931 -1.35829 -1.36262 -1.31728 -1.35587 -1.35344 -1.37394 -1.34046 -1.35248 -1.36795 -1.33954 -1.3638 -1.36182 -1.35623 -1.37128 -1.34487 -1.37279 -1.34722 -1.37541 -1.3645 -1.39296 -1.37252 -1.37605 -1.36492 -1.39936 -1.36684 -1.36717 -1.35786 -1.35726 -1.37789 -1.34987 -1.28841 -1.27955 -1.36882 -1.382 -1.35018 -1.351 -1.36591 -1.36728 -1.37102 -1.37059 -1.37882 -1.3611 -1.38912 -1.34908 -1.34862 -1.33112 -1.37311 -1.37654 -1.37794 -1.32689 -1.33063 -1.36772 -1.37007
internal_weight=513228 445560 67667.2 387805 73816.1 63150 313989 204607 57755.2 175160 92597.5 2345.28 34560.2 82562.5 42585.6 1799.33 79836.8 109383 23195 90252.2 71403.7 33770.3 18848.6 16312.2 29446.6 38012.1 40786.3 62319.1 20564.3 47063.5 23485.6 15774 66596.7 37633.4 14661.1 18366.2 41824.7 11435.3 10666.2 1070.49 948.18 29629.3 16335.4 24935.1 12573.5 36383.9 43952.9 24450.9 9625.06 17434.2 7413.25 7084.59 23791.3 17996.3 1526.24 1143.83 9250.85 7887 6882.79 5644.67 16563.9 27490.6
internal_count=2253335 1956241 297094 1702666 324091 277261 1378575 898329 253575 769043 406551 10297 151737 362492 186973 7900 350525 480246 101838 396254 313499 148269 82755 71619 129286 166893 179073 273613 90288 206633 103114 69256 292394 165230 64370 80637 183632 50207 46830 4700 4163 130088 71721 109478 55204 159744 192976 107352 42259 76545 32548 31105 104456 79013 6701 5022 40616 34628 30219 24783 72724 120698
is_linear=0
shrinkage=1


Tree=3
num_leaves=63
num_cat=0
split_feature=9 15 21 19 8 15 43 0 2 28 42 43 9 9 8 9 9 3 19 9 14 3 0 39 1 42 8 0 28 9 9 9 21 9 43 14 8 3 28 0 2 9 0 28 0 0 1 14 2 42 0 0 20 9 9 4 17 17 0 14 15 39
split_gain=132526 91077.5 60641.1 48691.8 23725.1 13405.4 8606.92 5770.65 3674.29 3402.96 3197.58 2871.09 2731.98 2712.14 2691.85 1635.47 1621.27 1602.1 1388.86 1250.29 1179.7 1123.82 1074.71 1010.54 894.485 861.931 847.788 713.387 711.504 710.261 773.512 703.565 688.949 1845.78 644.891 588.618 581.572 579.066 534.356 444.032 429.441 422.48 403.824 387.965 378.911 364.154 358.827 350.484 345.584 335.2 333.732 329.421 316.919 309.582 308.012 302.884 297.185 293.261 357.71 280.192 268.138 264.281
threshold=2.5000000000000004 1.0000000180025095e-35 1.0000000180025095e-35 1.0000000180025095e-35 52.500000000000007 1.0000000180025095e-35 1.0000000180025095e-35 1.5000000000000002 13.000000000000002 1.0000000180025095e-35 1.0000000180025095e-35 1.0000000180025095e-35 1.0000000180025095e-35 62.500000000000007 293.50000000000006 4.5000000000000009 46.500000000000007 89.500000000000014 1.0000000180025095e-35 1.5000000000000002 1.5000000000000002 89.500000000000014 3.5000000000000004 1.0000000180025095e-35 1.0000000180025095e-35 1.0000000180025095e-35 10.500000000000002 2.5000000000000004 1.0000000180025095e-35 1.0000000180025095e-35 1.5000000000000002 1.0000000180025095e-35 1.0000000180025095e-35 6.5000000000000009 1.0000000180025095e-35 1.0000000180025095e-35 172.50000000000003 133.50000000000003 1.0000000180025095e-35 3.5000000000000004 116.50000000000001 1.5000000000000002 1.5000000000000002 1.0000000180025095e-35 1.5000000000000002 2.5000000000000004 1.0000000180025095e-35 1.0000000180025095e-35 17.000000000000004 1.0000000180025095e-35 2.5000000000000004 3.5000000000000004 1.0000000180025095e-35 21.500000000000004 230.50000000000003 98.600000000000009 1.5000000000000002 4.5000000000000009 2.5000000000000004 1.0000000180025095e-35 2.5000000000000004 1.0000000180025095e-35
decision_type=2 2 2 2 2 2 2 2 2 2 2 2 2 2 2 2 2 2 2 2 2 2 2 2 2 2 2 2 2 2 2 2 2 2 2 2 2 2 2 2 2 2 2 2 2 2 2 2 2 2 2 2 2 2 2 2 2 2 2 2 2 2
left_child=2 4 3 5 8 11 12 -5 -2 29 21 17 -4 15 16 18 20 -1 -10 28 57 -9 26 39 37 50 27 -15 56 -8 -31 -11 -3 43 -26 44 40 -23 -21 47 46 60 -20 -34 -25 -39 -13 -17 -22 -44 52 -36 -19 -35 55 -29 -14 58 -6 -18 -33 -60
right_child=1 32 6 7 14 -7 9 10 13 31 -12 36 19 22 -16 23 59 25 42 38 48 24 -24 35 34 -27 -28 54 -30 30 -32 41 33 53 51 -37 -38 45 -40 -41 -42 -43 49 -45 -46 -47 -48 -49 -50 -51 -52 -53 -54 -55 -56 -57 -58 -59 61 -61 -62 -63
leaf_value=-1.8026659699007812 -1.7796750496727174 -1.8178025428008464 -1.7583586061250789 -1.7864059111620314 -1.7432541024734349 -1.8145820096151977 -1.7924498514863703 -1.7682867441516605 -1.7366540768604506 -1.7821311741486445 -1.7835604881452825 -1.7407089037355776 -1.6572955912762761 -1.7277234945650148 -1.8046378938510594 -1.7314145071136013 -1.7794867515448136 -1.7711590768433154 -1.767195070038635 -1.721677512244371 -1.8018459362193215 -1.6753499692717009 -1.7827797374203895 -1.738766583168754 -1.7017141098464756 -1.8009156411868019 -1.776316840567876 -1.7341347502446176 -1.6270584373409629 -1.7113441974939376 -1.7659345559474373 -1.6744438722845696 -1.7873740634630908 -1.8031170022686875 -1.6709550611782815 -1.7402065481220237 -1.783650351316981 -1.6710126429233301 -1.6578894120202796 -1.7635621346434678 -1.7710113711832303 -1.7107950579383508 -1.6704576131025295 -1.7521065924981896 -1.7102579025550004 -1.643787574168377 -1.7516026352084673 -1.7519055672983102 -1.7763525099836421 -1.7719642265418623 -1.7557032390236693 -1.7074655289084721 -1.7379876241368477 -1.8160238498183434 -1.7643859475971821 -1.749911374186863 -1.6322016820473122 -1.7874774031477205 -1.7702071531605752 -1.7955691648541878 -1.6507711812734585 -1.7455830818192823
leaf_weight=3369.0407202839851 4714.9273820966482 115087.29920947552 493.11306697130203 1321.2988369464874 4364.2541281431913 12600.49717348814 335.58141662180424 320.99829290807247 1457.1253729313612 132.26554065942764 706.09450167417526 16993.069693028927 3771.0940496474504 7188.801706045866 12204.887549951673 13814.79657946527 3913.0251490473747 9853.952350333333 119.54770021140575 575.86381548643112 1681.4680784344673 5995.0204159915447 1862.4005552083254 1325.0294034779072 3673.7601774185896 1595.665048211813 1804.7463451772928 4889.9248666614294 10047.94180996716 5505.2987731397152 735.59989151358604 2111.839799195528 2152.5368886291981 5731.3371907025576 5360.3153920322657 2584.0956078320742 1115.6089641004801 1846.291290640831 763.74871170520782 1430.8418360054493 1751.5009865015745 467.50781486928463 2795.3813304752111 1222.7779662758112 9682.515861093998 3669.1817548573017 13616.059126064181 2458.1042017936707 6347.8980956226587 83.76817575097084 9133.4442961513996 698.2942261993885 776.80569456517696 24533.053366646171 2150.1628917455673 8051.0712884217501 1717.0780316889286 692.8679476082325 3580.4960141330957 8796.5063098818064 2758.9235211908817 1566.3292295783758
leaf_count=19868 27805 678696 2908 7792 25737 74308 1979 1893 8593 780 4164 100212 22239 42394 71975 81469 23076 58111 705 3396 9916 35354 10983 7814 21665 9410 10643 28837 59255 32466 4338 12454 12694 33799 31611 15239 6579 10888 4504 8438 10329 2757 16485 7211 57100 21638 80297 14496 37435 494 53862 4118 4581 144677 12680 47479 10126 4086 21115 51875 16270 9237
internal_value=-1.77009 -1.79048 -1.72756 -1.7471 -1.75589 -1.76782 -1.66488 -1.68488 -1.73713 -1.69735 -1.67886 -1.7577 -1.64235 -1.73388 -1.78475 -1.72495 -1.77691 -1.77062 -1.69661 -1.63896 -1.76735 -1.67543 -1.74619 -1.72899 -1.67403 -1.76557 -1.74336 -1.74069 -1.63497 -1.72159 -1.71778 -1.66822 -1.81596 -1.80967 -1.68519 -1.71873 -1.74816 -1.66459 -1.68531 -1.73686 -1.74693 -1.66539 -1.67715 -1.7746 -1.71369 -1.6529 -1.74555 -1.73451 -1.78169 -1.67341 -1.76271 -1.67516 -1.76874 -1.81358 -1.74686 -1.74395 -1.64944 -1.75607 -1.75378 -1.79062 -1.66104 -1.76271
internal_weight=382101 258288 123813 94396.9 109561 70805.6 29415.9 23591.3 66413.2 12047 22270 58205.1 17368.8 61698.3 43147.7 35751.2 30942.8 24728.9 4455.82 16875.7 18233.3 21563.9 25947.1 31295.4 21242.9 21359.9 24084.7 22280 15536.1 6576.48 6240.9 5470.54 148727 33639.7 9732.37 13591.6 33476.2 11510.5 1339.61 17703.7 32360.6 5338.27 2998.7 3375.31 11007.5 5515.47 30609.1 16272.9 8029.37 2879.15 19764.2 6058.61 10630.8 30264.4 15091.2 12941 5488.17 10203.9 9511.08 12709.5 4870.76 5146.83
internal_count=2253335 1523183 730152 556680 646106 417557 173472 139123 391654 71044 131331 343249 102428 363849 254452 210833 182477 145832 26277 99520 107526 127167 153016 184556 125274 125964 142033 131390 91620 38783 36804 32261 877077 198381 57394 80153 197417 67880 7900 104403 190838 31481 17684 19905 64914 32526 180509 95965 47351 16979 116554 35729 62692 178476 88996 76316 32365 60175 56089 74951 28724 30352
is_linear=0
shrinkage=1


Tree=4
num_leaves=14
num_cat=0
split_feature=8 5 9 4 9 9 9 1 39 2 6 5 0
split_gain=1.69806e+06 8054.76 3890.53 2469.09 2417.11 1621.74 1185.22 1117.91 590.795 491.669 166.974 96.6098 5.82077e-11
threshold=-1.0000000180025095e-35 4.5000000000000009 1.5000000000000002 93.500000000000014 12.500000000000002 9.5000000000000018 1.5000000000000002 1.0000000180025095e-35 1.0000000180025095e-35 70.500000000000014 2.5000000000000004 16.500000000000004 2.5000000000000004
decision_type=2 2 2 2 2 2 2 2 2 2 2 2 2
left_child=1 2 -1 5 -4 6 11 -7 -8 -5 -10 -3 -11
right_child=-2 3 4 9 -6 7 8 -9 10 12 -12 -13 -14
leaf_value=145.05230538363722 -8.7347013591623917 205.18696827662546 219.54788245444297 223.66303339604841 179.2627206049832 177.58417219456777 217.106357493866 214.84794690531379 227.26920514222911 239.69046337918692 239.69046337917612 214.84794690531379 239.69046337917374
leaf_weight=0.0042266250529782159 453.43978259441792 0.0072456429479643703 0.0074469108076300472 0.0062393036496359846 0.0074469108076300472 0.004025357193313539 0.0066418393689673385 0.004025357193313539 0.0040253571933135399 0.012881143018603325 0.008251982246292755 0.004025357193313539 0.0076481786672957233
leaf_count=21 2252917 36 37 31 37 20 33 20 20 64 41 20 38
internal_value=-8.69303 215.918 187.39 224.308 199.405 216.155 221.473 196.216 229.119 235.955 235.618 208.637 239.69
internal_weight=453.524 0.08413 0.0191204 0.0650095 0.0148938 0.0382409 0.0301902 0.00805071 0.0189192 0.0267686 0.0122773 0.011271 0.0205293
internal_count=2253335 418 95 323 74 190 150 40 94 133 61 56 102
is_linear=0
shrinkage=1


Tree=5
num_leaves=63
num_cat=0
split_feature=18 17 9 21 11 9 0 22 15 17 43 0 0 0 9 17 15 0 0 15 33 8 8 17 0 17 14 0 14 17 0 10 15 9 14 0 4 39 10 15 0 1 10 8 17 8 9 14 9 9 3 0 10 8 3 8 9 4 17 42 9 10
split_gain=48041.2 16838.9 5782.56 4583.9 5614.95 4545.3 3773.33 3746 3191.76 2269.03 1573.84 1353.49 1267.06 1144.37 904.793 795.699 753.559 722.71 636.621 596.224 572.655 554.759 528.39 517.673 457.299 423.201 389.581 381.834 376.067 393.776 346.928 304.673 283.026 275.693 273.353 252.417 281.966 251.638 248.788 234.61 232.265 185.068 178.748 175.329 172.744 172.2 172.025 162.747 157.677 153.454 149.048 156.492 145.031 140.7 134.75 133.632 131.889 131.499 128.934 126.35 126.017 123.781
threshold=1.0000000180025095e-35 1.5000000000000002 2.5000000000000004 1.0000000180025095e-35 28.450522568629392 2.5000000000000004 1.0000000180025095e-35 1.0000000180025095e-35 1.0000000180025095e-35 4.5000000000000009 1.0000000180025095e-35 2.5000000000000004 2.5000000000000004 2.5000000000000004 30.500000000000004 1.0000000180025095e-35 1.0000000180025095e-35 1.0000000180025095e-35 2.5000000000000004 1.5000000000000002 1.0000000180025095e-35 132.50000000000003 128.50000000000003 3.5000000000000004 3.5000000000000004 10.500000000000002 1.0000000180025095e-35 2.5000000000000004 7.5000000000000009 5.5000000000000009 2.5000000000000004 8.4330357142857171 1.5000000000000002 1.5000000000000002 5.5000000000000009 2.5000000000000004 97.350000000000009 1.0000000180025095e-35 15.67543859649123 1.0000000180025095e-35 1.0000000180025095e-35 1.0000000180025095e-35 27.839743589743595 182.50000000000003 1.0000000180025095e-35 964.50000000000011 93.500000000000014 1.0000000180025095e-35 1.0000000180025095e-35 46.500000000000007 105.50000000000001 1.5000000000000002 27.839743589743595 106.50000000000001 96.500000000000014 1.5000000000000002 2.5000000000000004 97.90000000000002 5.5000000000000009 1.0000000180025095e-35 1.0000000180025095e-35 30.510000000000002
decision_type=2 2 2 2 2 2 2 2 2 2 2 2 2 2 2 2 2 2 2 2 2 2 2 2 2 2 2 2 2 2 2 2 2 2 2 2 2 2 2 2 2 2 2 2 2 2 2 2 2 2 2 2 2 2 2 2 2 2 2 2 2 2
left_child=1 2 7 4 9 48 -2 13 15 20 18 22 28 19 25 17 40 -4 57 50 38 -7 44 33 26 43 -13 -19 29 42 -17 37 -33 -14 58 -12 -37 59 39 54 -9 -39 -6 -11 -10 -31 53 -26 -5 -29 -1 -52 -35 -41 -3 -43 -44 -8 -25 -15 -21 -28
right_child=6 3 8 5 12 21 10 16 11 14 35 24 23 31 -16 30 -18 27 -20 60 -22 -23 -24 34 47 -27 61 49 -30 45 -32 32 -34 52 -36 36 -38 41 -40 46 -42 55 56 -45 -46 -47 -48 -49 -50 -51 51 -53 -54 -55 -56 -57 -58 -59 -60 -61 -62 -63
leaf_value=-0.82201991034217692 -0.8614253194830459 -0.79623929869028998 -0.85716236949666613 -0.81755577275388092 -0.80514374798105193 -0.79447376907927258 -0.75934465693481479 -0.85703235825580959 -0.80942628191129262 -0.77584342121442307 -0.77849997330141063 -0.81471050049619675 -0.80599966845608639 -0.8519070900306901 -0.79719484480339187 -0.82051770297528615 -0.7964513701744359 -0.82586968924786008 -0.77748209196409934 -0.81150463996156152 -0.81752660456152637 -0.81702517813806519 -0.81658441304439078 -0.81225172429099479 -0.82759263586398446 -0.76245464789920181 -0.82041241621688177 -0.83791015073496844 -0.8199921592023488 -0.79855088173132305 -0.82745602699549503 -0.83455296522684985 -0.84845566553285456 -0.81592865815315463 -0.81932680870654928 -0.79583560388734143 -0.78417493464251176 -0.84909525828245735 -0.80619886915866168 -0.7887366446240841 -0.81981735472718364 -0.82964325443085229 -0.80265910719482225 -0.78875539464072031 -0.80001286351589163 -0.80868984018676415 -0.80479746743696901 -0.84723096353554239 -0.84993963017249474 -0.83116071454062401 -0.81754783353787697 -0.83360146943360025 -0.82287801330570076 -0.79932045776712002 -0.80767726657483863 -0.85036874074596491 -0.81221320931861629 -0.76778635831247255 -0.8044977799386408 -0.87218987414101246 -0.84569351267314685 -0.82711162899559165
leaf_weight=4241.9540823101997 1391.6783601045609 4090.3499715924263 2765.5906134843826 386.41282126307487 15915.174505800009 5271.4999670088291 8665.7146567702293 455.40453571081161 7308.0880012214184 6464.1979317963123 15257.236353427172 26956.513733446598 3072.9442598223686 20307.548291712999 7428.6014251708984 32241.634382277727 5169.6409551203251 22116.137956291437 15874.9046638906 276.85516312718391 5402.6730549931526 5649.9180402457714 10980.342261224985 14915.238798975945 2489.0315521359444 4225.9645862579346 17352.4525398314 15825.751768618822 6669.100362688303 14069.276017099619 40834.804103255272 8019.6205755472183 6735.1310593485832 9424.6235156953335 10062.426747113466 6238.5683763921261 30677.328685164452 5169.6409551203251 12231.964479982853 10381.032261043787 5283.0479363799095 3074.7208704948425 3976.3507867753506 4431.4592207074165 14629.796684265137 5962.6015186011791 3151.4112311899662 1831.0933997631073 13792.716955751181 17999.434926390648 1650.47131472826 18920.015356510878 36913.824349105358 4501.9314440488815 6950.3970524966717 1041.0938540697098 39439.868623584509 9864.6307589113712 8369.6128780245781 797.99429371953011 10179.386949717999 11441.66883251071
leaf_count=14326 4700 13814 9340 1305 53749 17803 29266 1538 24681 21831 51527 91038 10378 68583 25088 108887 17459 74691 53613 935 18246 19081 37083 50372 8406 14272 58603 53447 22523 47515 137908 27084 22746 31829 33983 21069 103604 17459 41310 35059 17842 10384 13429 14966 49408 20137 10643 6184 46581 60788 5574 63897 124666 15204 23473 3516 133197 33315 28266 2695 34378 38641
internal_value=-0.814176 -0.819404 -0.827183 -0.810061 -0.807918 -0.830384 -0.779748 -0.837793 -0.822872 -0.79593 -0.778435 -0.815779 -0.812837 -0.841522 -0.782905 -0.827877 -0.810297 -0.832212 -0.770134 -0.834774 -0.802219 -0.80614 -0.80763 -0.817254 -0.820245 -0.775886 -0.81903 -0.830978 -0.808588 -0.80763 -0.824395 -0.846794 -0.840899 -0.820503 -0.81244 -0.78391 -0.786146 -0.849656 -0.800216 -0.797699 -0.822771 -0.842797 -0.809677 -0.781095 -0.803149 -0.801569 -0.794185 -0.835916 -0.849057 -0.834319 -0.830554 -0.832313 -0.821465 -0.791938 -0.80344 -0.834886 -0.811338 -0.763839 -0.809465 -0.852674 -0.844788 -0.823074
internal_weight=667217 579246 316095 263152 238051 25100.5 87970.1 91322.5 224772 69260 86578.4 92989 168791 80414.4 22550.2 131783 10908.1 58706.9 34405.3 35268.7 46709.8 10921.4 32918.2 82758.7 60070.8 15121.6 55750.6 55941.3 86032.4 79363.3 73076.4 45145.7 14754.8 49411.4 33347.3 52173.1 36915.9 30391 41307.1 29075.1 5738.45 9285.46 59331.4 10895.7 21937.9 20031.9 18034.4 4320.12 14179.1 33825.2 24812.4 20570.5 46338.4 14883 11040.7 4115.81 43416.2 18530.3 23284.9 21105.5 10456.2 28794.1
internal_count=2253335 1956241 1067521 888720 803950 84770 297094 308416 759105 233906 292394 314044 570044 271577 76157 445061 36839 198266 116194 119110 157749 36884 111172 279494 202872 51069 188282 188926 290550 268027 246795 152467 49830 166873 112621 176200 124673 102637 139503 98193 19380 31359 200375 36797 74089 67652 60906 14590 47886 114235 83797 69471 156495 50263 37287 13900 146626 62581 78638 71278 35313 97244
is_linear=0
shrinkage=1


Tree=6
num_leaves=63
num_cat=0
split_feature=0 16 14 4 16 31 0 43 3 6 5 5 40 4 39 2 5 6 6 6 5 5 5 2 3 3 5 5 4 1 43 6 39 3 3 2 42 5 6 1 5 5 5 5 5 6 42 1 5 5 6 6 6 5 6 6 5 5 1 1 6 6
split_gain=19302.8 109577 2.81959e+06 1445.42 14778.9 18292.7 2192.62 3125.91 5172.42 5297.04 6720.07 3645.64 2323.27 2147.34 1660.54 1493.25 1346.96 984.254 960.595 2364.37 1740.97 1654.58 1038.87 734.385 712.745 1325.67 991.675 3045.39 825.547 651.125 574.154 1569.26 607.669 538.146 552.934 1377.89 535.419 2548.95 835.449 821.483 409.137 386.196 368.383 486.303 510.154 2041.78 361.028 549.76 1301.05 836.354 1850.66 976.411 731.972 1297.37 679.521 584.559 484.915 509.021 343.764 342.466 497.318 1267.59
threshold=1.0000000180025095e-35 1.0000000180025095e-35 1.0000000180025095e-35 87.500000000000014 1.0000000180025095e-35 1.0000000180025095e-35 1.5000000000000002 1.0000000180025095e-35 12.500000000000002 3.5000000000000004 14.500000000000002 1.5000000000000002 1.0000000180025095e-35 77.500000000000014 1.0000000180025095e-35 82.500000000000014 16.500000000000004 2.5000000000000004 1.0000000180025095e-35 2.5000000000000004 22.500000000000004 17.500000000000004 8.5000000000000018 134.50000000000003 108.50000000000001 103.50000000000001 20.500000000000004 21.500000000000004 80.500000000000014 1.0000000180025095e-35 1.0000000180025095e-35 4.5000000000000009 1.0000000180025095e-35 159.50000000000003 70.500000000000014 83.500000000000014 1.0000000180025095e-35 5.5000000000000009 5.5000000000000009 1.0000000180025095e-35 5.5000000000000009 1.0000000180025095e-35 10.500000000000002 12.500000000000002 14.500000000000002 1.5000000000000002 1.0000000180025095e-35 1.0000000180025095e-35 8.5000000000000018 19.500000000000004 2.5000000000000004 2.5000000000000004 5.5000000000000009 15.500000000000002 1.0000000180025095e-35 4.5000000000000009 12.500000000000002 16.500000000000004 1.0000000180025095e-35 1.0000000180025095e-35 2.5000000000000004 3.5000000000000004
decision_type=2 2 2 2 2 2 2 2 2 2 2 2 2 2 2 2 2 2 2 2 2 2 2 2 2 2 2 2 2 2 2 2 2 2 2 2 2 2 2 2 2 2 2 2 2 2 2 2 2 2 2 2 2 2 2 2 2 2 2 2 2 2
left_child=1 2 18 4 5 -2 7 11 9 16 -11 14 24 23 41 -15 58 -16 -1 20 21 22 -20 -10 25 26 36 -28 -26 -17 32 -32 -21 34 35 40 38 -38 -8 -40 -13 -7 -24 -44 -45 -46 47 48 -42 51 -51 54 -49 -54 -50 -52 -56 -58 -9 -48 -61 -62
right_child=3 -3 -4 -5 -6 6 12 8 13 10 -12 33 -14 15 17 29 -18 -19 19 30 -22 -23 42 -25 28 -27 27 -29 -30 -31 31 -33 -34 -35 -36 -37 37 -39 39 -41 46 -43 43 44 45 -47 59 52 49 50 55 -53 53 -55 56 -57 57 -59 -60 60 61 -63
leaf_value=-4.5357911048873678 -211.00783229585943 -0.04166727062561916 -1985.6328896466928 -0.08518549222185412 -0.041667269240436969 -41.122793626096666 -0.041667265346947882 -0.041667262074889896 -0.041667262870690315 -60.037019190239349 -217.08785905980318 -0.041667263309383758 -71.546998962540087 -0.041667262518393547 -41.598271615798609 -40.457276651001656 -78.633870203822369 -98.683466302967375 -23.895173609387115 -0.04166726986942125 -97.348802226421753 -8.4116230223388069 -74.576432477836576 48.25141320332029 -0.041667266904381918 -51.245933025747412 -80.428367549305563 -0.04166726470167309 -42.697054178325665 -93.761750908106819 -0.041667264126388846 -75.24186025418534 -15.341466611365147 -47.950412967188228 -0.041667262905837853 -57.091030782785268 -85.544385311531201 -0.041667262793136955 -0.041667264938704006 -44.880065098966817 -67.666839381431657 -0.041667262888387908 -25.012780888500508 -73.677307301016029 -76.317663133940471 -0.041667272051652118 -0.041667262979839442 -7.5880649154001141 -0.041667263488092937 -0.04166726348809633 -96.971080632512056 -0.041667263488114836 -0.041667263488091258 -66.888371574411366 -59.998005429916851 -44.778319587656334 -0.041667263488082321 -49.327809654516415 -34.241186952010729 -0.041667262979834696 -59.599585830616121 -9.641463347898771
leaf_weight=0.011125639137389953 0.0011850241480714221 0.44794170034401615 0.0018634248359576935 36.766207381048112 1.6340506274245856 0.0012171039215900228 0.025166832310787868 0.0014772082977287946 0.0032847557304194197 0.0016667957897880115 0.0011518285482452484 0.0062852924875187446 0.0013984971137688254 0.0014260436000768095 0.0012031781898258487 0.0012371457651170203 0.0012723908512271009 0.0020275380411476362 0.006288383681749111 0.0079196190690709045 0.0010276738704448887 0.0059737472329288712 0.0013416557994787581 0.0010353450124966912 0.035111456552840536 0.0019529622877598731 0.0018659802975080622 0.0031964281388354721 0.0011721848895831491 0.0010670071569620632 0.0014504182927339562 0.0013297838213475188 0.035948183671813183 0.0010436507836857336 0.0088396100254612975 0.0017528679345559786 0.0011695534631144247 0.003422010599024361 0.0018847724404622559 0.0022302313138382601 0.0014787393047299693 0.0010794961326610064 0.00200231358394376 0.0020370570547272315 0.0019665426626631621 0.0015840683117858134 0.0081553267373237759 0.019877033497500918 0.0014959339478082256 0.0017022696647472904 0.001031678584695328 0.0069982197328499751 0.0014099607324169474 0.0014959600468458234 0.0016678803785907803 0.0011176518000866054 0.0010832625139300944 0.0010144839416170726 0.0014620088368246797 0.0042318607229390182 0.0016790378576843068 0.0052084439666941762
leaf_count=641 75 25756 232 2118132 94174 72 1456 86 191 101 73 366 83 83 72 73 76 122 365 456 61 345 79 62 2030 115 111 185 69 64 84 79 2078 63 518 105 70 199 109 131 88 64 118 121 116 91 476 1159 90 99 63 408 82 89 99 67 63 61 87 247 100 305
internal_value=-0.283306 -9.76231 -62.9551 -0.153129 -1.53175 -15.2159 -13.9032 -18.8852 -39.8281 -71.1631 -124.216 -15.0844 -7.67808 -12.4636 -54.3176 -40.254 -35.6575 -77.4239 -18.1678 -20.37 -33.7929 -30.7111 -39.4634 11.5321 -6.52067 -11.0471 -9.03082 -29.6718 -1.4197 -65.1415 -13.9758 -36.0103 -12.5793 -12.2888 -11.8025 -13.3384 -5.94601 -21.8207 -3.45675 -24.343 -12.1752 -21.813 -50.4244 -46.1551 -53.7313 -42.2879 -13.4537 -16.1415 -22.7817 -18.662 -38.9865 -12.2768 -11.0148 -34.4542 -28.5503 -69.8308 -39.8757 -23.8768 -17.053 -7.8239 -13.5317 -21.8203
internal_weight=39.108 0.5298 0.0818585 38.5782 1.81198 0.177933 0.176748 0.098177 0.0150805 0.00703023 0.00281862 0.0830965 0.0785709 0.0080503 0.00552732 0.0037302 0.00421161 0.00323072 0.0799951 0.0688694 0.0222214 0.0211938 0.01522 0.0043201 0.0771724 0.0408888 0.0389358 0.00506241 0.0362836 0.00230415 0.046648 0.0027802 0.0438678 0.0775692 0.0765255 0.0676859 0.0338734 0.00459156 0.0292818 0.004115 0.065933 0.0022966 0.00893164 0.00758998 0.00558767 0.00355061 0.0596477 0.0403731 0.0175901 0.0161114 0.0038516 0.0122598 0.022783 0.00290592 0.00526156 0.00214933 0.00376563 0.00209775 0.00293922 0.0192747 0.0111193 0.00688748
internal_count=2253335 30622 4866 2222713 104581 10407 10332 5774 896 423 174 4878 4558 473 330 220 249 194 4634 3993 1296 1235 890 253 4475 2376 2261 296 2099 137 2697 163 2534 4548 4485 3967 1965 269 1696 240 3862 136 525 446 328 207 3496 2368 1038 950 229 721 1330 171 313 130 223 124 173 1128 652 405
is_linear=0
shrinkage=0.05


Tree=7
num_leaves=63
num_cat=0
split_feature=10 9 9 9 42 0 8 8 0 0 0 8 0 9 0 9 19 21 0 8 9 14 17 39 8 0 39 20 10 5 17 7 17 0 8 9 8 14 0 39 9 0 15 8 9 9 8 5 14 11 0 0 31 0 39 21 9 11 39 39 10 9
split_gain=83761 23689 18048.7 7576.75 5815.46 5526.52 5325.95 4461.81 4371.07 2978.34 2572.01 2294.13 2060.81 1942.75 2102.79 1657.94 1649.31 1589.52 1543.16 1400.78 1357.86 1176.59 1066.69 986.721 979.924 912.388 670.004 653.028 569.986 518.083 504.194 485.582 463.808 455.405 449.089 416.342 398.102 381.109 370.085 347.234 346.134 330.988 328.277 324.873 324.659 321.909 324.629 317.38 312.021 306.405 305.882 303.041 504.324 295.743 290.053 275.56 275.711 275.37 275.234 272.317 270.59 265.54
threshold=13.628289473684212 2.5000000000000004 58.500000000000007 60.500000000000007 1.0000000180025095e-35 3.5000000000000004 5.5000000000000009 162.50000000000003 2.5000000000000004 3.5000000000000004 3.5000000000000004 478.50000000000006 2.5000000000000004 5.5000000000000009 3.5000000000000004 113.50000000000001 1.0000000180025095e-35 1.0000000180025095e-35 3.5000000000000004 54.500000000000007 206.50000000000003 1.0000000180025095e-35 3.5000000000000004 1.0000000180025095e-35 242.50000000000003 2.5000000000000004 1.0000000180025095e-35 1.0000000180025095e-35 77.022727272727295 11.500000000000002 2.5000000000000004 1.0000000180025095e-35 1.0000000180025095e-35 2.5000000000000004 128.50000000000003 120.50000000000001 200.50000000000003 1.0000000180025095e-35 2.5000000000000004 1.0000000180025095e-35 16.500000000000004 2.5000000000000004 1.0000000180025095e-35 108.50000000000001 132.50000000000003 108.50000000000001 964.50000000000011 17.500000000000004 2.5000000000000004 2.312568985422931 3.5000000000000004 1.0000000180025095e-35 1.0000000180025095e-35 3.5000000000000004 1.0000000180025095e-35 1.0000000180025095e-35 96.500000000000014 79.60693364816477 1.0000000180025095e-35 1.0000000180025095e-35 33.673333333333339 10.500000000000002
decision_type=2 2 2 2 2 2 2 2 2 2 2 2 2 2 2 2 2 2 2 2 2 2 2 2 2 2 2 2 2 2 2 2 2 2 2 2 2 2 2 2 2 2 2 2 2 2 2 2 2 2 2 2 2 2 2 2 2 2 2 2 2 2
left_child=2 17 4 5 13 7 9 25 51 20 15 12 34 50 19 41 -10 27 23 42 35 49 24 48 32 43 37 -2 31 -22 59 45 -9 -17 44 -4 53 -27 -26 -35 -24 -8 -15 -3 -5 -13 47 -47 55 -16 -1 52 -6 -29 -40 -14 -57 -34 -43 -7 -25 -18
right_child=1 3 6 11 8 30 10 22 16 -11 -12 28 18 14 21 33 61 -19 -20 -21 29 -23 40 60 38 26 -28 36 -30 -31 -32 -33 57 39 -36 -37 -38 -39 54 -41 -42 58 -44 -45 -46 46 -48 -49 -50 -51 -52 -53 -54 -55 -56 56 -58 -59 -60 -61 -62 -63
leaf_value=-0.042495528710457697 -0.014041127364258122 -0.019953186426944658 -0.028081175686403614 0.016157869905543482 -0.0099649770450409327 0.12459812835981905 0.0024455277533331596 0.048825092243449039 0.050666114516782074 0.056682442754714069 0.13739462586313275 0.031917404842117386 0.073940646060391399 -0.038351190780977804 -0.0022067029616505847 0.033310071485261425 0.17327708449963677 -0.03327718728849454 0.12113479649227273 -0.012061002570766201 0.054121324187869892 0.13311811033518681 0.013049386333434857 0.037209081617485866 0.033836428940958514 0.004961932082567024 -0.007913465038622924 -0.013069738533088765 0.044282063615496366 0.0043174816862394461 0.033305793599685586 0.046985074424397838 0.024626451499890453 0.076074912120014035 0.04475970446025794 -0.01133511126402381 0.027804922572133541 0.028275029077414967 0.056240328229651228 0.03825559771619353 0.026323335438977802 0.03480046005562433 -0.02519061402171402 -0.0015402232885718171 0.046581526315993382 -0.0044423775193396095 0.032344344074586133 0.025711981535708885 0.051187557163574648 0.053931677673717815 -0.028999187529320743 -0.013853900464565123 0.14223612480387818 0.13711555028945718 0.038097063448389118 0.037833816566090112 0.069130322105702094 0.0031912814814070902 0.0033262723703161149 0.061261047556481298 0.055298940398881093 0.029095209484589643
leaf_weight=73611.873263791203 9053.3458142727613 4393.0167197436094 8970.722700715065 2724.0122565180063 152.80111889541149 1465.6912863254547 4151.6606094688177 1713.1449037641287 926.2280544936657 1581.4714544266462 552.16403526067734 3380.7494260668755 10600.287481382489 22768.825861737132 1068.7252999991179 2484.1933960020542 465.31186270713806 11494.178551569581 1075.7220563590527 8090.0363514721394 641.86013534665108 228.12825597822666 8753.5426717996597 4295.2202772200108 5628.0139700472355 2812.2792451530695 3179.3574345260859 1209.8072663992643 5683.340047955513 2800.2890009135008 200.4377878010273 2006.1297454684973 8080.758685991168 1757.568178191781 15117.558857753873 6331.1417456269264 1795.6028559952974 4654.2456161528826 6350.6011149138212 927.05840075016022 11188.389997273684 2035.211428001523 5983.6307593584061 5268.5553554594517 1293.1778582334518 2782.7790203690529 1484.2274267822504 1271.2324175536633 2571.3506959527731 314.61430941522121 4452.1043726950884 4121.7077790349722 84.539383202791214 33.692231059074402 3372.8002250790596 1172.0840552896261 1761.091350838542 1839.3645644634962 1054.4815204292536 191.92950041592121 3985.1661834716797 34.286650687456131
leaf_count=556054 66651 32539 66786 19464 1122 9480 30110 11930 6492 10924 3538 24171 72061 171523 7731 17662 2838 85892 7033 60005 4509 1526 63024 29970 39794 20374 23218 8770 39805 20294 1380 14038 57666 12103 105875 46352 12912 33014 43956 6445 79650 14300 44757 38399 9057 19887 10633 9089 17873 2154 33275 30471 537 236 23687 8173 12097 13144 7608 1298 27735 244
internal_value=-1.15477e-05 0.0261447 -0.0258807 0.0344914 -0.0347651 0.0231434 0.00676131 0.0207926 0.0141669 -0.00921023 0.0318054 0.047302 0.0532096 -0.0371945 -0.0279955 0.0271074 0.0901609 -0.0199638 0.0625274 -0.0304409 -0.0147697 0.0279108 0.0292658 0.0599421 0.0357462 0.00121256 0.0113089 -0.00730908 0.0314396 0.0136044 0.108208 0.0247588 0.0248008 0.0487385 0.0408111 -0.0211525 0.0127454 0.0194941 0.0440406 0.0630151 0.0204967 0.0116673 -0.0356124 -0.00991241 0.0259516 0.0197595 0.0123379 0.00501324 0.067154 0.0105609 -0.0417258 -0.0106904 0.0442482 -0.00900051 0.0499469 0.0701876 0.0566244 0.020652 0.0240586 0.117265 0.0459153 0.163382
internal_weight=309474 153883 155591 130296 122303 69092.1 33287.8 67234.1 5784.87 20325.5 12962.3 61204.1 44595.7 116518 38454 12410.2 1425.83 23586.6 25460.9 36842.5 18744 1611.47 46926.6 24385.2 26984.7 20307.5 10645.9 12092.4 16608.5 3442.15 1858.06 10925.1 11633.3 5168.82 19134.7 15301.9 3039.1 7466.52 15351.4 2684.63 19941.9 7241.35 28752.5 9661.57 4017.19 8918.99 5538.24 4054.01 16104.8 1383.34 78064 4359.05 237.341 1243.5 9723.4 13533.5 2933.18 9920.12 3089.69 1657.62 8280.39 499.599
internal_count=2253335 1093975 1159360 919514 918729 492553 240631 480395 41704 148865 91766 426961 309338 877025 287696 88228 9574 174461 174942 276285 137941 11411 332851 167909 190177 147544 76606 88569 117623 24803 12158 77818 82740 36210 134396 113138 21918 53388 107437 18548 142674 52018 216280 70938 28521 63780 39609 28976 110204 9885 589329 32130 1659 9006 67643 92331 20270 70810 21908 10778 57705 3082
is_linear=0
shrinkage=0.05


Tree=8
num_leaves=63
num_cat=0
split_feature=31 14 0 9 21 8 2 9 17 43 17 15 2 22 17 0 2 14 2 17 0 21 15 8 0 11 9 8 15 9 9 0 17 17 8 9 10 0 17 8 2 17 9 42 17 0 2 42 14 17 9 38 0 0 14 43 43 8 43 9 9 0
split_gain=24543.1 4735.54 4719.7 3429.2 2489.39 1712.78 1620.19 1584.47 1710.25 1357.98 1304.12 1199.41 1604.79 989.07 860.788 770.6 728.601 728.475 659.979 565.469 504.081 479.788 469.074 481.226 402.132 395.904 583.119 391.634 358.58 358.447 357.623 341.104 440.625 301.732 299.483 289.97 423.698 333.605 282.113 275.128 255.041 248.696 230.385 224.906 214.724 212.81 211.418 202.99 193.557 215.219 184.883 184.198 180.699 170.434 166.693 164.265 163.744 160.096 146.1 142.413 140.563 139.961
threshold=1.0000000180025095e-35 2.5000000000000004 1.0000000180025095e-35 1.5000000000000002 1.0000000180025095e-35 564.50000000000011 24.500000000000004 74.500000000000014 3.5000000000000004 1.0000000180025095e-35 5.5000000000000009 1.0000000180025095e-35 1.0000000180025095e-35 1.0000000180025095e-35 1.5000000000000002 3.5000000000000004 86.500000000000014 7.5000000000000009 84.500000000000014 6.5000000000000009 2.5000000000000004 1.0000000180025095e-35 1.0000000180025095e-35 27.500000000000004 1.5000000000000002 30.576003283581027 5.5000000000000009 108.50000000000001 1.5000000000000002 3.5000000000000004 1.0000000180025095e-35 1.0000000180025095e-35 1.0000000180025095e-35 8.5000000000000018 529.50000000000011 5.5000000000000009 0.70833333333333337 2.5000000000000004 1.5000000000000002 78.500000000000014 87.500000000000014 9.5000000000000018 155.50000000000003 1.0000000180025095e-35 3.5000000000000004 2.5000000000000004 117.50000000000001 1.0000000180025095e-35 15.500000000000002 8.5000000000000018 343.50000000000006 1.0000000180025095e-35 1.5000000000000002 2.5000000000000004 4.5000000000000009 1.0000000180025095e-35 1.0000000180025095e-35 120.50000000000001 1.0000000180025095e-35 11.500000000000002 1.0000000180025095e-35 2.5000000000000004
decision_type=2 2 2 2 2 2 2 2 2 2 2 2 2 2 2 2 2 2 2 2 2 2 2 2 2 2 2 2 2 2 2 2 2 2 2 2 2 2 2 2 2 2 2 2 2 2 2 2 2 2 2 2 2 2 2 2 2 2 2 2 2 2
left_child=1 3 43 4 6 10 38 8 11 30 21 12 14 46 31 16 39 19 20 -7 -14 44 23 42 -4 26 -22 -18 53 -23 -6 32 -5 34 -10 51 37 59 52 45 50 -12 61 58 54 -13 -8 -33 49 -19 55 -20 -1 -11 -3 -24 -26 -55 -2 -37 -30 -9
right_child=2 5 24 7 9 17 13 22 33 28 41 15 18 -15 -16 -17 27 48 35 -21 25 29 40 -25 56 -27 -28 -29 60 -31 -32 47 -34 -35 -36 36 -38 -39 -40 -41 -42 -43 -44 -45 -46 -47 -48 -49 -50 -51 -52 -53 -54 57 -56 -57 -58 -59 -60 -61 -62 -63
leaf_value=0.064294990674582539 0.087547704482859742 0.0145813878237488 -0.014239816929334917 0.069018409380474016 0.011016485373044393 0.025336809689167957 -0.0074313267407687721 -0.0038447652377699829 -0.0068241996130814029 -0.0081183437181222926 -0.00053246733764137559 0.0096969962311912444 -0.0076666268011751151 0.0134500980915307 -0.0013478068181225107 -0.01360965881581702 0.025806447383170995 0.039095775751575475 0.0073951642621085945 0.0091320186800488198 -0.0089552207818551673 -0.02243873984493984 0.0027880476319722697 -0.011952506313110581 -0.034439013824708799 -0.0074141901311955295 0.013102616519803913 0.014778334967649362 0.029069088182021953 0.01466904783309028 -0.027656319651398482 0.021622281025024791 0.0043827361611769424 -0.021900809987127907 0.010673293940458971 0.025449152525591403 0.0038759255478445307 0.022193135702290305 0.0024591644032911013 0.006760855645698941 0.0063884117323321906 -0.016116284097476966 -0.006477561372539054 0.010533049747700116 0.0085797743895954532 0.022576094443798812 0.012634890590978727 0.053341350531912073 0.0533156037919362 0.022715061428145274 0.024852193404289676 -0.0064488485090715532 0.024260917198333953 0.013669090978006879 0.023245109201935586 -0.0042788293953917476 -0.02911262514741883 -0.0067010324659355948 0.0088699738825174495 0.0048279902098966928 -0.015800240814306022 0.0056061491305384598
leaf_weight=1189.7865350991488 911.22472482919693 25108.813565462828 3733.7775080949068 1471.856470733881 617.01325684785843 13347.857053726912 24964.390947982669 5810.1545329093933 16039.136861532927 2866.6472867578268 8222.7570962756872 6958.5443281531334 19075.482275471091 8263.0989865958691 1687.5498683452606 2588.5718037635088 14547.615586802363 4958.6030774861574 4299.6216929852962 9022.3857629001141 3998.3014156520367 1598.9350778609514 14830.57925696671 15407.544216886163 23310.685089722276 6086.7137074321508 11954.614548563957 18025.298045694828 179.41301445662975 1097.4525214284658 19195.643800809979 2064.306459620595 321.21586346626282 2742.9753830581903 2885.3901504278183 965.17444184422493 16332.469533786178 8374.5778940916061 308.20599927008152 27037.998234853148 21239.781280815601 3717.5863044708967 11803.480763077736 122.3537270128727 11661.720724463463 5950.0534461438656 1385.5078399926424 667.49520413577557 1285.7627610713243 3366.5825538039207 699.04182289540768 5446.0463825017214 369.36556397378445 3158.7473821789026 7128.139708891511 18456.421543598175 37871.013548329473 1388.5990423113108 63.090078085660934 6317.7676801681519 6436.1858723014593 12025.318953663111
leaf_count=5055 3887 109315 16786 6162 2701 57883 109866 25474 70693 12614 36202 30318 83913 35906 7401 11447 62820 21292 18820 39336 17618 7100 64966 68135 105160 26739 51959 78298 787 4774 85833 8924 1408 12188 12608 4218 71544 36295 1352 117891 92968 16551 51974 537 50939 25674 6071 2890 5467 14553 3055 24035 1574 13781 30935 81185 170448 6070 276 27631 28459 52574
internal_value=2.62241e-05 0.00422937 -0.0284321 0.00163579 -0.0082565 0.0144423 0.000804353 0.00406719 0.00680036 -0.0180237 0.00935842 0.00854292 0.00461829 -0.00164312 0.0291285 0.0131967 0.0141536 0.0237473 0.00278043 0.0188011 -0.00171571 0.0131364 -0.0009983 -0.00478482 -0.0301698 0.00343486 0.00757423 0.0197037 -0.00612122 -0.00733556 -0.026452 0.0404946 0.0574394 -0.00640272 -0.00415639 0.00720972 0.00951006 0.0153871 0.0461703 0.009628 0.00209028 -0.00538444 -0.00105877 0.0744291 0.0143938 0.0156335 -0.00637622 0.0293726 0.0352602 0.0324717 -0.000595856 -0.000341107 0.0548109 0.00142969 0.0164971 -0.00113028 -0.031142 0.00744877 0.0824531 0.00756082 -0.0145834 0.00252738
internal_weight=512962 446950 66012.1 356434 70322.6 90516.6 36480.4 286111 185839 33842.2 58535.4 164171 89063.2 34613 6212.42 75108.1 72519.5 31981.2 82850.8 22370.2 41115.1 46595.1 100272 45046.5 64915.5 22039.6 15952.9 32572.9 14029.6 2696.39 19812.7 4524.87 1793.07 21667.5 18924.5 41735.7 31990 15657.5 1867.36 39946.6 55225.8 11940.3 29639 1096.67 43898.7 12908.6 26349.9 2731.8 9610.95 8325.19 33986 9745.67 1559.15 7413.99 32237 33287 61181.7 4547.35 974.315 7282.94 6615.6 17835.5
internal_count=2253335 1956241 297094 1561894 310069 394347 159824 1251825 811494 150245 255816 716005 389557 151843 26785 326448 315001 138531 362772 97219 180229 203063 440331 198157 292394 96316 69577 141118 61711 11874 88534 19384 7570 95489 83301 182543 139688 68144 7981 173883 242174 52753 130022 4700 191189 55992 115937 11814 41312 35845 149206 42855 6629 32465 140250 146151 275608 19851 4163 31849 29246 78048
is_linear=0
shrinkage=0.05


Tree=9
num_leaves=63
num_cat=0
split_feature=9 15 21 19 8 15 43 0 28 3 2 42 8 9 9 0 9 9 43 14 9 14 3 42 8 39 5 5 9 8 28 9 9 5 28 21 9 0 9 2 2 20 0 1 4 1 0 2 17 17 14 4 1 1 17 0 43 39 9 4 3 15
split_gain=117756 79837.9 46666.5 45724.9 18887.5 15350.7 6711.58 5009.41 2838.57 2731.95 2702.05 2696.55 2243.14 1920.28 1939.36 1699.75 1443.4 1337.86 1332.1 1128.39 1074.99 951.083 922.847 840.809 769.892 742.235 709.665 714.412 708.906 644.103 602.624 568.996 588.276 482.074 450.973 394.056 832.956 387.865 382.644 375.728 370.485 368.136 337.182 330.629 323.603 340.092 298.512 290.869 281.519 270.914 246.678 241.721 238.029 237.853 236.465 320.549 232.182 222.68 211.251 216.53 206.048 195.051
threshold=3.5000000000000004 1.0000000180025095e-35 1.0000000180025095e-35 1.0000000180025095e-35 60.500000000000007 1.0000000180025095e-35 1.0000000180025095e-35 1.5000000000000002 1.0000000180025095e-35 89.500000000000014 13.000000000000002 1.0000000180025095e-35 320.50000000000006 1.0000000180025095e-35 1.5000000000000002 3.5000000000000004 78.500000000000014 51.500000000000007 1.0000000180025095e-35 1.0000000180025095e-35 1.5000000000000002 1.5000000000000002 89.500000000000014 1.0000000180025095e-35 10.500000000000002 1.0000000180025095e-35 14.500000000000002 5.5000000000000009 1.0000000180025095e-35 174.50000000000003 1.0000000180025095e-35 1.5000000000000002 1.0000000180025095e-35 9.5000000000000018 1.0000000180025095e-35 1.0000000180025095e-35 12.500000000000002 2.5000000000000004 5.5000000000000009 109.50000000000001 110.50000000000001 1.0000000180025095e-35 2.5000000000000004 1.0000000180025095e-35 97.350000000000009 1.0000000180025095e-35 2.5000000000000004 17.000000000000004 3.5000000000000004 1.0000000180025095e-35 1.0000000180025095e-35 98.050000000000011 1.0000000180025095e-35 1.0000000180025095e-35 3.5000000000000004 2.5000000000000004 1.0000000180025095e-35 1.0000000180025095e-35 292.50000000000006 99.500000000000014 96.500000000000014 2.5000000000000004
decision_type=2 2 2 2 2 2 2 2 2 2 2 2 2 2 2 2 2 2 2 2 2 2 2 2 2 2 2 2 2 2 2 2 2 2 2 2 2 2 2 2 2 2 2 2 2 2 2 2 2 2 2 2 2 2 2 2 2 2 2 2 2 2
left_child=2 4 3 5 10 9 13 60 20 -1 -2 22 17 -4 34 16 19 21 23 25 28 54 -9 41 33 38 27 -24 -8 39 -16 32 -10 -18 51 -3 -37 -35 49 44 -27 42 -11 -28 -20 -46 -40 -23 -43 -12 -19 -15 -44 -29 55 -6 -45 -57 59 -39 -5 -34
right_child=1 35 6 7 12 -7 8 11 31 18 15 -13 -14 14 30 -17 24 50 29 -21 -22 47 26 -25 -26 40 43 53 -30 -31 -32 -33 61 37 -36 36 -38 58 46 -41 -42 48 52 56 45 -47 -48 -49 -50 -51 -52 -53 -54 -55 -56 57 -58 -59 -60 -61 -62 -63
leaf_value=-0.026049737593655 -0.0089578847636345282 -0.047199980701767952 0.010534150959089942 -0.032211921037742876 0.024980140260212853 -0.044044706737571306 -0.022177173203303119 0.0027758161439500892 -0.012192702910258268 -0.00023625006408446692 0.088915339748526848 -0.012108871674642269 -0.035741639220771615 0.11123942553696048 0.032585007943871133 -0.002784031882734358 0.0050348335313502371 -0.010808908262640624 0.035059220195440728 0.020144736895903074 -0.0037384431498869671 -0.032185250176639445 0.070443476463054086 -0.029388728478374534 -0.011030807947789101 0.05437579983833022 0.083019170323919228 0.10494010224900872 0.052728143263472027 -0.012518452994868218 0.087657129576999171 0.043366350347308069 0.083377065462576949 0.039402447870758479 0.12101523974415995 -0.021651403579232661 -0.044290349470244156 0.031210098727042498 0.042136923959691652 0.0063498288124315509 0.026640082572010327 0.04172222272482104 0.020501467094065889 0.053467578634798132 0.026713122579991307 0.014673829390271724 0.02851534224941428 -0.0078847279172660559 -0.00846390346306157 0.030241128032033535 -0.026373202526113523 0.090090928363121103 0.0041794244128950213 0.08987142592989722 -0.010346196369627322 -0.0018290544306249854 0.074818907548870384 0.021435454727620866 -0.0037532940084199114 0.016872560981793416 0.0058558767103610342 0.10271924746421042
leaf_weight=4411.3126087933779 4567.1930619329214 107506.12835347652 501.09361676871777 799.0376201570034 3624.1565542370081 15379.290338143706 334.09757605195045 351.02716259658337 132.66112597286701 10056.600009337068 562.6605926156044 762.90505661070347 10185.167633116245 3979.8920330554247 892.67115922272205 3532.3269072920084 2579.8159542381763 3712.0372375398874 5545.645719319582 6666.1027282625437 1166.1153566241264 1532.3227885067463 2956.1051279306412 1620.4156014323235 1592.3065532892942 12152.060488849878 6356.342323243618 5888.9471926093102 5788.4963136762381 1376.5824107080698 1119.9194682389498 682.03469747304916 2286.5048954635859 5318.4223818778992 11232.087540403008 4795.2985209673643 26606.842571154237 5867.2696429789066 6978.2684964835644 3286.0516418367624 1336.4263443797827 1279.7144414633512 4914.1337024271488 2155.8235074132681 13983.196201071143 10104.843984678388 9494.1501356512308 6270.9483569860458 357.49603128433228 302.5026558637619 8102.2836762070656 2045.5666769891977 4095.0403525084257 4715.9214374870062 1158.7743145376444 3351.1622615903616 3110.2034079283476 1484.0759436786175 691.0357953608036 4777.6816652864218 640.31314636766911 3031.4231016933918
leaf_count=26653 27177 659028 2908 4777 21059 93976 1979 2050 780 59731 3130 4534 61808 21367 5146 20870 14864 22097 32152 38625 6857 9291 16169 9848 9437 68713 34500 31950 32466 8211 6191 3866 12454 30371 59255 28774 162542 33740 39893 19249 7600 7426 28772 11984 80943 58916 54387 37299 2099 1745 48775 10998 23978 25898 6885 19794 16979 8617 4035 27645 3802 16270
internal_value=-4.03509e-05 -0.0208334 0.0370142 0.0205602 0.0118823 0.000599548 0.0886413 0.0755487 0.0613527 0.0118495 0.0281548 0.0805199 -0.0155343 0.107166 0.109678 0.0308952 0.0329352 -0.00849452 0.0148023 0.0387979 0.0402606 0.000313551 0.0832875 0.00529627 0.022381 0.0428316 0.0844097 0.0921801 0.0486407 0.0209897 0.0632303 0.086421 0.0918084 0.025147 0.115095 -0.0457607 -0.0408332 0.0282625 0.0359882 0.0223909 0.0516278 0.00801105 0.00605724 0.0753432 0.0241697 0.0216627 0.0342859 -0.0126566 0.0307637 0.0684 -0.0214829 0.10406 0.0130824 0.0982392 0.0108363 0.0137379 0.066078 0.0053115 0.023036 0.0247751 -0.015277 0.0944029
internal_weight=382087 244747 137340 104147 105839 76410.3 33192.6 27736.6 13421.3 61031 66418.2 26297.3 39420.9 19771.2 19270.1 61851 58318.7 29235.8 56619.7 37492.2 7288.71 17421.4 25534.4 22323.4 20826.5 30826.1 25183.3 13561 6122.59 34296.3 2012.59 6132.62 5450.59 19234.2 17257.5 138908 31402.1 16654.4 17337.6 32919.7 13488.5 20703 19065.8 11622.4 29633.7 24088 16472.4 7803.27 1637.21 865.163 11814.3 6025.46 9009.17 10604.9 9618.17 8459.39 5266.03 4835.24 11336 10645 1439.35 5317.93
internal_count=2253335 1468201 785134 604597 617857 451954 180537 152643 74672 357978 382232 144064 235625 105865 102957 355055 334185 173817 331325 214093 41302 102945 139530 131854 120092 175468 137480 74017 34445 199471 11337 33370 29504 110655 91620 850344 191316 95791 99155 191260 76313 122006 112481 63463 172011 139859 94280 46590 9525 4875 70872 32365 52750 57848 56355 49470 28963 28411 65420 61385 8579 28724
is_linear=0
shrinkage=0.05


Tree=10
num_leaves=63
num_cat=0
split_feature=0 16 14 11 5 17 11 6 6 4 16 17 11 11 40 5 5 42 5 0 1 5 16 17 11 5 6 5 6 5 5 2 2 3 6 1 3 0 5 5 3 2 4 3 39 40 31 3 5 6 5 1 0 5 5 1 0 6 6 3 3 6
split_gain=1637.04 9291.8 240167 466546 274099 110589 390073 28086.4 19996.1 130.766 1329.52 172820 559018 737710 55.9873 314.121 417.981 22.078 48.6134 293.198 624.531 21.0117 155.244 141599 335243 12.09 29.3151 47.3862 57.008 43.1954 78.843 11.6613 72.503 189.05 11.0587 16.392 23.1183 142.591 26.119 195.924 7.1944 55.8952 113.597 187.47 379.1 6.63539 70.2501 213.568 4.22056 12.8338 36.3684 68.7207 125.012 1.63535 11.1086 15.5547 24.8208 46.7308 137.424 0.737842 10.3797 25.6356
threshold=1.0000000180025095e-35 1.0000000180025095e-35 1.0000000180025095e-35 1.1598326417003435 7.5000000000000009 1.0000000180025095e-35 1.7368487689586478 4.5000000000000009 2.5000000000000004 87.500000000000014 1.0000000180025095e-35 1.0000000180025095e-35 1.7368487689586478 1.1598326417003435 1.0000000180025095e-35 5.5000000000000009 2.5000000000000004 1.0000000180025095e-35 3.5000000000000004 1.5000000000000002 1.0000000180025095e-35 4.5000000000000009 1.0000000180025095e-35 1.0000000180025095e-35 2.312568985422931 15.500000000000002 5.5000000000000009 14.500000000000002 2.5000000000000004 11.500000000000002 13.500000000000002 53.500000000000007 52.500000000000007 122.50000000000001 5.5000000000000009 1.0000000180025095e-35 58.500000000000007 2.5000000000000004 15.500000000000002 16.500000000000004 106.50000000000001 66.500000000000014 99.500000000000014 101.50000000000001 1.0000000180025095e-35 1.0000000180025095e-35 1.0000000180025095e-35 103.50000000000001 20.500000000000004 3.5000000000000004 21.500000000000004 1.0000000180025095e-35 1.5000000000000002 10.500000000000002 9.5000000000000018 1.0000000180025095e-35 1.5000000000000002 2.5000000000000004 1.5000000000000002 121.50000000000001 120.50000000000001 4.5000000000000009
decision_type=2 2 2 2 2 2 2 2 2 2 2 2 2 2 2 2 2 2 2 2 2 2 2 2 2 2 2 2 2 2 2 2 2 2 2 2 2 2 2 2 2 2 2 2 2 2 2 2 2 2 2 2 2 2 2 2 2 2 2 2 2 2
left_child=1 2 5 4 -4 -1 -7 8 -6 10 11 14 13 -13 17 16 -16 34 19 -19 -21 22 23 31 -25 26 27 -20 -29 -28 -31 32 -11 -34 48 -36 37 38 -37 -40 41 42 -33 -44 -45 -23 -47 -48 53 -50 51 52 -51 54 -2 -56 57 58 -57 60 -42 -62
right_child=9 -3 3 -5 7 6 -8 -9 -10 21 -12 12 -14 -15 15 -17 -18 18 25 20 -22 45 -24 24 -26 -27 29 28 -30 30 -32 40 33 -35 35 36 -38 -39 39 -41 59 -43 43 44 -46 46 47 -49 49 50 -52 -53 -54 -55 55 56 -58 -59 -60 -61 61 -63
leaf_value=-0.041673390792223847 -0.041673321963559364 -0.041673381937354752 1136.1488345613825 -0.0416734520218792 409.21647033255499 895.57171966131864 -0.041673451034067305 547.57552585962128 196.54635156959279 -0.041673328722918186 -0.041673366149090285 1671.5166513505924 -0.041673205172750964 -0.041673238602040058 -0.04167331025442432 -0.041673311076054681 20.094960525798172 -0.041673282791586656 -0.041673287278886903 24.91978688965051 -0.04167330454982416 -0.041809659657547057 -0.041673371931279513 883.32405070475295 -0.041673272547087643 -0.0416732868654471 -0.041673284236846915 -0.041673285466577288 5.542409856422573 8.4244841181240222 -0.04167328745719643 -0.041673325331236348 13.682825625190574 -0.041673333301002619 -0.041673324794632045 -0.041673313958098264 -0.041673328601112017 9.1958164779544216 11.844981445725347 -0.041673312194192624 -0.041673332413870876 -0.041673327757146827 -0.041673330551551938 -0.041673335734570958 18.576962680899832 -0.041673365758452457 -14.564768498743144 -0.04167330946410118 -0.041673319048903631 12.422995928477468 -0.041673320844244445 -0.041673313378615018 -0.041673340139955009 -0.041673324464703468 -0.041673321005005939 -0.041673301985044126 -0.041673351728616526 -0.041673303993432859 11.864301939713265 -0.041673334721418452 -0.041673336315922134 1.8063030245046467
leaf_weight=0.88218689511995796 0.32959304570977455 4.979295747354632 0.0013642078411067208 0.013481245114235207 0.0019547564590824641 0.0015631744835746799 0.0054700605542166159 0.0013695698438738199 0.0025433899136260152 0.065593663894104703 18.164024767305797 0.0013161371470206138 0.0084706563648069277 0.0013241221604403108 0.0053569148585664852 0.044200051386724226 0.0049660733202472338 0.038851168137625902 0.11893240676727146 0.0040061758918454871 0.0066911014000652358 366.86424719353835 36.286808766541071 0.0015282458480213581 0.0036137396236881614 0.14541562985687051 0.010096312602399848 0.0093363321357173845 0.0089540214103180915 0.0059058670449303463 0.0051462828268995509 0.039489857153966912 0.0036431202461244547 0.0080609997676219791 0.10294447984779242 0.039814610645407811 0.046025781310163438 0.0054127258335938669 0.0042063979344675309 0.019711571992957033 0.97082191065419443 0.39868536613357719 0.011510183641803451 0.0055685947445454076 0.0053709627245552838 0.13751673778460727 0.0034427922801114627 0.0095621755172032863 0.10515652011963528 0.0040113378927344456 0.034104840437066741 0.0099519753421191126 0.004034891797346063 0.78036784903088108 0.039276674317079596 0.0057313921133754775 0.015782078800839372 0.008599776032497175 0.0041995719802798703 3.7875157205126015 0.06125220307148993 0.027056623221142218
leaf_count=4558 1720 25756 50 69 40 48 28 31 42 342 94174 71 45 7 28 231 28 204 624 23 35 1901256 187972 40 19 763 53 49 48 32 27 206 20 42 537 208 240 29 23 103 5060 2079 60 29 30 715 20 50 549 22 178 52 21 4072 205 30 82 45 23 19731 319 142
internal_value=-0.0206255 0.807334 5.45323 173.761 497.751 1.53274 199.013 349.328 288.966 -0.0319959 0.0923754 1.32341 197.962 833.21 0.212549 1.79241 9.64544 0.167503 0.524361 1.97655 9.3065 -0.0381255 -0.00448216 0.245912 262.503 0.287505 0.589755 0.322698 2.69201 2.32256 4.48233 -0.00453016 0.605176 4.23033 0.0866202 0.416799 0.8266 1.40456 0.742855 2.04881 -0.0134102 0.175423 1.5728 4.41272 9.09946 -0.0419458 -0.373851 -3.88636 0.0329085 0.276272 0.917963 2.73638 6.17242 0.000572448 0.08234 0.637771 1.41551 2.65655 4.99308 -0.0313569 0.00553519 0.524521
internal_weight=434.722 5.88923 0.909933 0.0207132 0.00723192 0.88922 0.00703324 0.00586772 0.00449815 428.833 20.1419 1.97789 0.0111109 0.00264026 1.96678 0.054523 0.010323 1.91226 0.353335 0.0495484 0.0106973 408.691 41.6765 5.38971 0.00514199 0.303787 0.158371 0.137223 0.0182904 0.0211485 0.0110521 5.38457 0.0772978 0.0117041 1.55893 0.218116 0.115171 0.0691453 0.0637326 0.023918 5.30727 0.460625 0.0619396 0.0224497 0.0109396 367.015 0.150522 0.013005 1.34081 0.15726 0.052103 0.0179982 0.00804623 1.18355 0.403183 0.0735895 0.0343128 0.0185307 0.00993096 4.84665 1.05913 0.0883088
internal_count=2253335 30622 4866 232 163 4634 76 113 82 2222713 104581 10407 123 78 10284 287 56 9997 1858 262 58 2118132 216091 28119 59 1596 833 721 97 112 59 28060 404 62 8139 1140 603 363 334 126 27656 2404 325 119 59 1902041 785 70 6999 822 273 95 43 6177 2105 385 180 98 53 25252 5521 461
is_linear=0
shrinkage=0.05


Tree=11
num_leaves=63
num_cat=0
split_feature=31 17 9 21 11 9 22 0 15 17 43 0 0 0 9 17 15 0 0 15 33 8 8 17 14 17 0 0 14 17 0 10 43 10 9 14 0 4 39 15 0 8 1 8 8 15 9 9 3 9 0 9 39 0 17 11 10 15 4 3 8 9
split_gain=41928 14883.7 5038.88 4011.76 4938.82 3999.82 3316.97 3204.6 2746.19 1982.63 1378.89 1182.5 1102.83 1038.61 824.33 719.786 643.883 630.507 557.715 522.214 497.239 493.243 463.069 455.953 410.876 387.529 350.07 342.169 322.569 341.57 315.35 275.014 258.627 237.62 233.31 230.861 228.664 258.031 225.129 200.949 184.29 179.462 162.846 159.156 158.318 202.165 158.272 150.504 137.499 135.912 135.269 133.947 132.745 129.336 124.599 123.089 122.218 121.709 119.197 117.85 117.573 115.271
threshold=1.0000000180025095e-35 1.5000000000000002 2.5000000000000004 1.0000000180025095e-35 29.364671435187947 2.5000000000000004 1.0000000180025095e-35 1.0000000180025095e-35 1.0000000180025095e-35 4.5000000000000009 1.0000000180025095e-35 2.5000000000000004 2.5000000000000004 2.5000000000000004 30.500000000000004 1.0000000180025095e-35 1.0000000180025095e-35 1.0000000180025095e-35 2.5000000000000004 1.5000000000000002 1.0000000180025095e-35 136.50000000000003 128.50000000000003 3.5000000000000004 1.0000000180025095e-35 11.500000000000002 3.5000000000000004 2.5000000000000004 7.5000000000000009 4.5000000000000009 2.5000000000000004 8.4330357142857171 1.0000000180025095e-35 15.25320512820513 1.5000000000000002 4.5000000000000009 2.5000000000000004 97.350000000000009 1.0000000180025095e-35 1.0000000180025095e-35 1.0000000180025095e-35 186.50000000000003 1.0000000180025095e-35 862.50000000000011 272.50000000000006 1.0000000180025095e-35 113.50000000000001 93.500000000000014 105.50000000000001 5.5000000000000009 1.5000000000000002 1.0000000180025095e-35 1.0000000180025095e-35 1.0000000180025095e-35 8.5000000000000018 8.0834928586490467 34.878676470588239 1.5000000000000002 97.90000000000002 96.500000000000014 1.5000000000000002 115.50000000000001
decision_type=2 2 2 2 2 2 2 2 2 2 2 2 2 2 2 2 2 2 2 2 2 2 2 2 2 2 2 2 2 2 2 2 2 2 2 2 2 2 2 2 2 2 2 2 2 2 2 2 2 2 2 2 2 2 2 2 2 2 2 2 2 2
left_child=1 2 6 4 9 51 13 -2 15 20 18 22 28 19 25 17 40 -4 58 48 33 -7 46 34 52 41 -26 -19 29 44 -17 38 -33 39 -14 -25 -12 -38 -15 59 -8 -11 -40 54 45 -6 -10 -41 53 55 -50 -5 61 -1 -31 -29 -36 -34 -9 -3 -44 -13
right_child=7 3 8 5 12 21 16 10 11 14 36 24 23 31 -16 30 -18 27 -20 -21 -22 -23 -24 35 26 -27 -28 49 -30 43 -32 32 57 -35 56 -37 37 -39 42 47 -42 -43 60 -45 -46 -47 -48 -49 50 -51 -52 -53 -54 -55 -56 -57 -58 -59 -60 -61 -62 -63
leaf_value=-0.036763173722694054 -0.044737748832943514 0.016952516942508444 -0.040428428951560173 -0.0037405292422870262 0.0002902811636853677 0.018277090971361796 -0.039214727912482608 0.051198653887957184 0.0122644934955751 0.036283646825258163 0.033330084243199817 -0.0016340898399183274 0.0073744464623223122 -0.036280141659497188 0.015579152747527671 -0.0058007453662065611 0.016525441413272217 -0.010960787667867096 0.034194781370122287 -0.02862070357673396 -0.0030747565330510908 -0.0029628205323813709 -0.0023654677175451917 0.0049689747172416057 -0.0084806924886663051 0.049720161173494065 -0.031098523540981554 -0.032838423096793724 -0.0054412804769669145 0.01129899760003324 -0.012424526964992936 -0.032992679688453062 -0.014860939108100865 0.00772980630985458 -0.0035462868239775781 -0.0035649148607503362 0.016813753333397772 0.027948613086793191 -0.032843079776662482 0.020983505577004208 -0.0052450589359016465 0.023888375039818388 -0.014566137884483408 0.004911173480992583 0.00087599025251639678 0.0099654676590197142 0.0014539257610550827 0.0087678671558565121 -0.003265615891243068 -0.017870904721506282 -0.018172440396122647 -0.033577486286606333 0.0038027713476899054 -0.0045856437287052276 0.022414136350756814 -0.0099719755970412698 -0.0089080599461886217 -0.027097083208184367 0.043183173561553663 0.0061932196167546688 -0.034065785884124559 -0.010401034047461268
leaf_weight=339.0769060254097 1335.4990147054195 4062.4810684621334 2725.932352989912 386.78144365549088 8358.9514983296394 5413.4510976970196 431.95631778240204 8711.1616138517857 17802.649743497372 6953.4370541572571 15321.155441313982 16254.421629041433 3038.5863278508186 20946.272353887558 7881.7518311142921 32158.021541029215 5184.9199342727661 22066.165170252323 15958.071163654327 10386.228069543839 5504.5028795003891 5521.0225722491741 10978.953906208277 19876.044364362955 28759.153601169586 3632.5673634707928 1818.9791578948498 2865.7921199500561 6585.0577299892902 16420.224956929684 40724.183876127005 6052.0126096010208 5348.9632240533829 14738.382949829102 16822.863248199224 13180.078280478716 6259.8899261057377 30811.940799623728 5134.3806399703026 14508.473065972328 5275.1529058516026 5034.2819560468197 3067.4516104459763 8839.9627015888691 25850.380425274372 15248.217738121748 4180.7956758439541 3051.8786967396736 1655.4444392323494 30094.191903948784 18856.741055637598 13688.785431087017 8310.8135913014412 3952.6108112037182 2978.6584831178188 740.61719682812691 28862.799952059984 3277.4438516199589 9919.9033100008965 6813.9308537840843 1033.4736865162849 4873.6234980523586
leaf_count=1149 4700 13695 9295 1305 28228 18231 1478 29266 59993 23355 51527 54908 10245 71291 26550 108751 17459 74682 53613 35313 18605 18653 37083 67072 97244 12184 6184 9728 22273 55366 137881 20567 18132 49722 56872 44549 21069 103604 17463 48823 17835 16935 10387 29830 87262 51441 14096 10292 5592 101990 63926 46581 28064 13375 10034 2511 97630 11143 33315 23000 3516 16472
internal_value=3.83662e-05 -0.00486005 -0.012188 0.00391657 0.00591642 -0.0151338 -0.022116 0.0321268 -0.00816367 0.0168357 0.033307 -0.00158814 0.00117018 -0.0256384 0.0287617 -0.0128174 0.00377116 -0.0169486 0.041055 -0.019208 0.0110779 0.00755266 0.00602046 -0.00296629 -0.00576692 0.0354135 -0.00982614 -0.0158009 0.0051839 0.00608442 -0.0095019 -0.0306826 -0.0250689 0.0128822 -0.00604139 0.00156636 0.0281919 0.0260684 -0.0334128 0.0155526 -0.00781614 0.0310782 -0.0269093 0.0104718 0.00357937 0.00653963 0.0102085 0.0188605 -0.0152666 -0.0189701 -0.0169694 -0.0327576 -0.0015506 -0.00712792 0.0130057 -0.0281425 -0.00693369 -0.0195098 0.0469309 0.010212 -0.0194802 -0.00365637
internal_weight=666868 578550 315296 263254 238244 25010 90942.1 88317.6 224354 72181.7 86982.1 92979.4 166062 80050.1 23502 131375 10892 58492.7 34589.1 35190.1 48679.6 10934.5 32962.4 81780.4 60017 15620.3 30578.1 55766.8 84281.5 77696.4 72882.2 44860 14678.4 43175.1 48724.2 33056.1 52393 37071.8 30181.6 28436.8 5707.11 11987.7 9235.31 28238.8 49457.5 23607.2 21983.4 17560.4 24803.9 33700.6 20512.2 14075.6 29438.9 4291.69 19398.9 3606.41 45685.7 8626.41 18631.1 10876.4 4100.93 21128
internal_count=2253335 1956241 1067508 888733 803963 84770 308626 297094 758882 243161 292394 314044 560802 271854 79024 444838 36772 198206 116194 119355 164137 36884 111172 276368 202872 52474 103428 188911 284434 262161 246632 152499 49842 145532 164747 111621 176200 124673 102657 95810 19313 40290 31366 95230 166931 79669 74089 59115 84042 114229 69518 47886 99444 14524 65400 12239 154502 29275 62581 36695 13903 71380
is_linear=0
shrinkage=0.05


Tree=12
num_leaves=63
num_cat=0
split_feature=2 18 4 0 16 39 43 2 42 38 2 16 43 6 42 5 1 6 0 1 5 5 0 5 2 7 5 2 31 31 2 3 3 2 4 5 3 3 6 0 3 9 5 16 0 4 1 3 2 3 3 38 4 4 5 11 4 31 6 5 3 31
split_gain=6096.19 83326.6 3.02746e+06 992.891 40467.1 219112 5037.32 670.656 55.9112 596.507 29.9943 496.466 423.127 411.861 437.698 1732.32 793.508 1237.26 380.266 586.095 1539.07 659.97 355.73 500.85 87.7742 843.711 5.66734 69.188 557.556 102.439 327.739 594.703 258.657 1060.95 2691.11 4078.63 23.0105 235.928 656.382 16.448 185.663 755.474 5.81525 41.1416 77.669 165.268 319.033 583.589 1076.29 5.01382 114.256 784.792 2.38308 53.2662 416.081 516.45 1.32947 12.3843 78.3652 218.671 539.095 0.216618
threshold=134.50000000000003 1.0000000180025095e-35 80.500000000000014 1.0000000180025095e-35 1.0000000180025095e-35 1.0000000180025095e-35 1.0000000180025095e-35 218.50000000000003 1.0000000180025095e-35 1.0000000180025095e-35 1.0000000180025095e-35 1.0000000180025095e-35 1.0000000180025095e-35 1.5000000000000002 1.0000000180025095e-35 3.5000000000000004 1.0000000180025095e-35 2.5000000000000004 1.5000000000000002 1.0000000180025095e-35 9.5000000000000018 18.500000000000004 1.5000000000000002 11.500000000000002 30.500000000000004 1.0000000180025095e-35 1.5000000000000002 127.50000000000001 1.0000000180025095e-35 1.0000000180025095e-35 53.500000000000007 125.50000000000001 110.50000000000001 71.500000000000014 99.500000000000014 1.0000000180025095e-35 121.50000000000001 120.50000000000001 4.5000000000000009 3.5000000000000004 110.50000000000001 1.5000000000000002 2.5000000000000004 1.0000000180025095e-35 2.5000000000000004 98.600000000000009 1.0000000180025095e-35 134.50000000000003 84.500000000000014 70.500000000000014 69.500000000000014 1.0000000180025095e-35 86.500000000000014 85.500000000000014 20.500000000000004 8.6603362806914514 93.500000000000014 1.0000000180025095e-35 5.5000000000000009 17.500000000000004 123.50000000000001 1.0000000180025095e-35
decision_type=2 2 2 2 2 2 2 2 2 2 2 2 2 2 2 2 2 2 2 2 2 2 2 2 2 2 2 2 2 2 2 2 2 2 2 2 2 2 2 2 2 2 2 2 2 2 2 2 2 2 2 2 2 2 2 2 2 2 2 2 2 2
left_child=3 7 -3 4 5 6 -1 8 -2 -10 11 12 13 -5 18 -16 -17 -18 19 21 -21 -15 23 -14 25 -12 27 29 -29 39 31 -31 33 34 -32 -36 37 -34 -39 -26 41 -41 43 44 45 -28 -47 48 -48 50 -44 -52 53 -51 -55 -56 57 -54 -59 -60 -61 -58
right_child=1 2 -4 10 -6 -7 -8 -9 9 -11 24 -13 22 14 15 16 17 -19 -20 20 -22 -23 -24 -25 26 -27 42 28 -30 30 32 -33 36 -35 35 -37 -38 38 -40 40 -42 -43 49 -45 -46 46 47 -49 -50 52 51 -53 56 54 55 -57 61 58 59 60 -62 -63
leaf_value=-0.041667241879986348 -0.041667220599411192 -2597.4723795340356 -0.041667211019282752 -0.041667232446935737 -0.041667247997259495 721.12892031557249 99.893495881231416 33.786050068663343 -0.041667218016872336 32.677928405701515 -0.04166722709631164 -0.041667242695950554 47.094044808532061 -0.041667232948567341 -67.927167202573926 -0.041667225558683102 -0.041667229022936014 -60.670676987175959 -0.041667236177330001 -0.041667231650937026 -68.361802472275926 -38.468600598786892 -0.041667237347936967 -0.041667231230024943 -0.0416672208951019 46.537062456935324 -0.041667210301624139 -0.041667220075892408 31.089317460521251 -48.119805634266129 -0.041667212348173686 -0.04166721291058216 -0.041667213252472607 -0.041667212693556249 -0.041667213158058554 -135.9778188571531 -0.041667213822669635 -0.041667214363837995 -46.064555501011618 47.871129438405639 -0.041667219843791008 -0.041667217729124975 -0.041667223878048665 -0.041667220860376469 -0.041667214972247929 -0.041667211778457641 56.68771499410142 -0.041667212068035482 -0.041667212256308719 -0.041667243799400566 -0.041667223110572804 45.166231320633358 -0.04166722029692474 -0.041667243310965274 49.36893382880028 -0.041667240808561559 -0.041667220755126883 -0.041667211962178381 -0.041667211737371194 -42.532268603288145 -0.041667211689601524 -0.029164636737592189
leaf_weight=0.0078858356847407857 0.48934102774455901 0.0011549874981416621 0.039089343603588761 0.018314284990157526 0.43009331120269889 0.001247971028733536 0.0015009731839665625 0.0014780778601561897 0.015747468258268782 0.0015281362448149585 0.010307872793067108 1.1183948529451344 0.0010607668333477702 0.0079149012067246116 0.0014730686234543109 0.0067749291210930096 0.0017179151709569851 0.0016493754457354015 0.014228414804165368 0.0018871350995169909 0.0014636973366877748 0.0013010264301556171 0.0093466582447945257 0.0012023743256577301 1.4332491550344775 0.0010734513444985447 0.018219814417804514 0.013763396709691622 0.0016061168807937074 0.0010399737103128351 0.0042842591265070664 0.0016858652961673215 0.031740431067840275 0.021159229394470458 0.0011037539033693089 0.0011034592210067418 0.15914065557808499 0.0027003789746231624 0.001086415952158859 0.0010435625445096566 0.053485306227230467 0.0038878553968970664 0.18733668316135776 0.5618580659056559 0.052512708560982668 0.0072155137284431459 0.0017627549624527616 0.0032117110367835267 0.0015904511892586015 0.39607811756024958 0.0072715968926786445 0.001106001420339453 0.69848758314310622 0.015839595983948129 0.0010119285925611612 0.001107783227780601 25.910578837220775 0.062233489099526196 0.007645828078238992 0.0011767307881260791 0.0020416322659002617 3.9991755821888502
leaf_count=791 30695 231 2509 1728 25699 3779 290 93 992 98 647 67432 164 680 164 432 116 524 1077 336 840 222 611 280 89807 72 1167 866 104 77 277 107 2019 1357 77 75 10112 171 70 66 3358 246 11761 35205 3328 464 118 204 101 24110 454 76 43815 998 70 68 1623716 4006 490 77 130 253686
internal_value=-0.0988391 -5.33037 -74.5863 -0.0175935 2.34075 98.691 15.9382 0.155146 0.0570267 2.85259 -0.047403 -0.294458 -4.43175 -6.21172 -9.15362 -17.2604 -9.90144 -29.7391 -5.63948 -11.9775 -29.885 -5.46646 4.26504 22.0515 -0.0386982 4.35149 -0.0401822 -0.128268 3.21153 -0.158169 -1.15256 -18.3846 -0.941277 -5.46648 -23.1489 -68.0007 -0.298515 -1.44904 -13.2454 -0.00814765 0.814252 10.0974 -0.035405 0.113043 1.14158 3.08331 7.215 15.1908 29.7805 -0.0384714 0.213807 5.92663 -0.0400593 0.0790948 2.7424 23.5464 -0.0416672 -0.106469 -0.725683 -4.64394 -15.5775 -0.0399955
internal_weight=35.8567 0.548339 0.0402443 35.3084 0.440728 0.0106348 0.00938681 0.508095 0.506617 0.0172756 34.8677 1.18673 0.0683345 0.0567247 0.0384105 0.0116153 0.0101422 0.00336729 0.0267952 0.0125668 0.00335083 0.00921593 0.0116098 0.00226314 33.6809 0.0113813 33.6695 1.73208 0.0153695 1.71671 0.225044 0.00272584 0.222319 0.0276507 0.00649147 0.00220721 0.194668 0.0355272 0.00378679 1.49167 0.0584167 0.00493142 31.9375 0.646371 0.084513 0.0320002 0.0137804 0.00656492 0.00335321 31.2911 0.195714 0.0083776 31.0954 0.414037 0.0179593 0.00211971 30.6813 0.771585 0.0730977 0.0108642 0.00321836 29.9098
internal_count=2253335 34618 2740 2218717 30559 4860 1081 31878 31785 1090 2188158 74606 7174 6119 4391 1236 1072 640 3155 2078 1176 902 1055 444 2113552 719 2112833 108789 970 107819 14342 184 14158 1786 429 152 12372 2260 241 93477 3670 312 2004044 40587 5382 2054 887 423 219 1963457 12291 530 1951166 25246 1136 138 1925920 48518 4703 697 207 1877402
is_linear=0
shrinkage=0.05


Tree=13
num_leaves=63
num_cat=0
split_feature=10 9 9 42 0 9 8 8 0 21 0 9 0 0 8 39 9 9 19 9 15 17 11 8 0 0 8 10 39 5 10 7 20 17 8 9 14 8 0 8 39 14 0 10 0 9 0 16 2 39 0 9 9 43 9 0 11 17 8 9 5 8
split_gain=76106.1 22211.5 15280.1 5617.38 5582.01 5944.47 4007.64 3948.38 3790.33 3260.84 2609.71 1635.34 1884.77 1604.01 1483.69 1435.44 1173.92 1161.83 1121.02 1021.59 1014.27 865.775 843.077 826.151 786.965 766.316 728.094 719.262 573.798 529.567 470.195 433.013 421.669 404.634 366.731 385.659 355.699 345.042 342.911 321.397 318.751 317.094 311.111 309.817 294.503 290.387 275.429 394.948 274.079 263.128 261.783 258.74 258.699 256.786 254.074 252.381 249.71 248.172 238.984 303.222 355.605 260.6
threshold=12.020833333333334 5.5000000000000009 63.500000000000007 1.0000000180025095e-35 3.5000000000000004 60.500000000000007 160.50000000000003 8.5000000000000018 2.5000000000000004 1.0000000180025095e-35 3.5000000000000004 5.5000000000000009 3.5000000000000004 3.5000000000000004 492.50000000000006 1.0000000180025095e-35 133.50000000000003 183.50000000000003 1.0000000180025095e-35 1.5000000000000002 1.0000000180025095e-35 4.5000000000000009 2.312568985422931 311.50000000000006 2.5000000000000004 2.5000000000000004 242.50000000000003 24.754310344827591 1.0000000180025095e-35 10.500000000000002 77.022727272727295 1.0000000180025095e-35 1.0000000180025095e-35 1.5000000000000002 158.50000000000003 120.50000000000001 1.0000000180025095e-35 574.50000000000011 2.5000000000000004 102.50000000000001 1.0000000180025095e-35 1.0000000180025095e-35 3.5000000000000004 24.506097560975615 3.5000000000000004 2.5000000000000004 1.0000000180025095e-35 1.0000000180025095e-35 93.500000000000014 1.0000000180025095e-35 1.0000000180025095e-35 29.500000000000004 1.0000000180025095e-35 1.0000000180025095e-35 120.50000000000001 3.5000000000000004 79.60693364816477 1.5000000000000002 1010.5000000000001 110.50000000000001 17.500000000000004 636.50000000000011
decision_type=2 2 2 2 2 2 2 2 2 2 2 2 2 2 2 2 2 2 2 2 2 2 2 2 2 2 2 2 2 2 2 2 2 2 2 2 2 2 2 2 2 2 2 2 2 2 2 2 2 2 2 2 2 2 2 2 2 2 2 2 2 2
left_child=2 9 3 11 5 6 25 10 46 19 17 44 20 16 15 24 38 54 -10 32 50 26 -14 41 43 39 33 55 36 -19 31 58 52 56 35 -17 -27 40 -9 -3 -28 -6 -29 -7 -1 -11 47 -5 -26 -18 -13 -22 -2 -40 -4 -21 -8 -38 59 61 -61 -16
right_child=1 4 7 8 23 14 21 13 18 45 -12 12 22 -15 30 34 49 29 -20 27 51 -23 -24 -25 48 28 37 42 -30 -31 -32 -33 -34 -35 -36 -37 57 -39 53 -41 -42 -43 -44 -45 -46 -47 -48 -49 -50 -51 -52 -53 -54 -55 -56 -57 -58 -59 -60 60 -62 -63
leaf_value=-0.04224374349204562 0.021098148801854125 -0.01902380541383052 -0.026440623420430028 0.12076934828175925 0.085888213587109533 0.031150894358695731 0.042102857078723299 0.0038345914044365216 0.048470132930257495 -0.033222102572736383 0.053869561924326986 -0.010708927287773125 -0.00091771510040775583 0.11997165927652682 0.043257601104722973 0.016285823211460916 0.063675365494700639 0.048368031729241069 0.13759997159072543 -0.0098621352421402984 -0.025043597957790289 0.018217799332630048 0.075108427765127578 0.042443130760084637 0.064135005499491027 0.0044672710139423231 0.049165586586326165 0.015208138916335524 -0.0073074537026832495 0.0011712238431321436 0.040441709717408125 0.043961709302349529 0.0098928122533364429 0.015559945825676536 0.040789630795118575 0.041247124248825706 0.03324569996162182 0.021681364902984342 0.0064730178489863901 -0.00052067129525056597 0.034291020766997138 0.1216740137634266 0.072613830915996852 0.049202281491036795 -0.028747134756999283 -0.0080667380137282498 -0.013837161366086041 -0.010688833961447163 0.050689279019410609 0.034857405087353681 -0.037686700505176009 -0.0093469511263823343 -0.020717274045647816 0.037816828684949372 -0.012130444354687317 0.067949948719903869 0.018949983125046491 0.0017925831802472058 0.03234577624986306 -0.0058859373152494203 0.026417369395185315 0.011180191903339704
leaf_weight=68892.896781724252 391.53065648616757 4225.5069713890553 7875.3052658438683 94.723727479577065 959.44236029684544 3743.9936239272502 3482.0455610305071 3572.1854840219021 941.44603571650077 12289.370656266809 1586.349203184247 935.25784322619438 1153.9267641156912 481.6650368720293 1212.8329479247332 3868.2171355336905 1820.6457905620337 696.36620573699474 564.19943335652351 4242.4374154284596 5972.4409185349941 13037.576397001743 533.12908211350441 563.85727323591709 12326.792198583469 2641.7117635309696 8758.0561097562313 8973.6674162745476 2969.0897566080093 4056.6345822811127 5707.7654779851437 1940.2471979707479 1617.1164431124926 6319.7932399511337 13368.126017406583 2579.1902029067278 3580.6426258534193 2164.2530956715345 997.89765971899033 5278.7376760542393 6117.3747008442879 1744.663593634963 242.39350242912769 6510.0256498157978 4293.7671563253971 1265.3716805055737 3934.6250412371528 143.98252795636563 5472.7693323642015 1402.110979989171 23340.457440137863 4684.6536519527435 6689.0224882811308 1893.054451957345 5117.2685499638319 106.83272758126259 1749.7941377609968 760.3082998842001 2128.7888362109661 2689.6319881677628 1246.9121673107147 1324.7571128904819
leaf_count=541026 2942 31851 59852 540 5799 25842 23975 25716 6376 94399 10449 7154 8303 2786 8451 26770 11999 4696 3094 31043 45498 91919 3370 3714 79872 19062 58885 63275 21795 29288 38599 13111 11548 44371 89943 17426 24816 14906 7106 38656 41956 10212 1526 43979 32957 9226 29569 1067 35598 9501 181280 35106 50167 12793 37846 673 12152 5342 14881 19258 8745 9278
internal_value=-2.11937e-05 0.0232791 -0.0264241 -0.0346279 0.0329864 0.0313026 0.0201405 0.00569241 0.0138621 -0.0115393 -0.00757367 -0.0371357 -0.0285095 0.0309157 0.0419363 0.0463679 0.0264871 -0.0130663 0.0818691 0.000232394 -0.0310023 0.0288959 0.0231074 0.0974971 0.0536447 0.00140702 0.0337651 0.00880876 0.0111044 0.00808607 0.0288827 0.0226249 -0.0131437 0.0240744 0.0360658 0.0262712 0.0189333 0.0403347 0.0141954 -0.00874701 0.0430486 0.108977 0.016718 0.0426113 -0.0414519 -0.0308738 -0.0106733 0.0414766 0.0600009 0.0511377 -0.0366473 -0.0181437 -0.018405 0.0269976 -0.0208044 -0.00795081 0.0343594 0.0277368 0.0178128 0.0130341 0.00434623 0.0265115
internal_weight=309276 164291 144985 115486 128473 125205 61084.9 29499.5 5678.98 35817.7 19331.9 109807 36619.9 10167.6 64120 47869.1 9685.89 17745.6 1505.65 22263 34932.8 41628.9 1687.06 3267.96 28053.6 19456 28591.3 13565.3 9951.75 4753 16250.9 10543.2 8697.67 11551.6 19815.5 6447.41 6982.66 17039.7 6463.14 9504.24 14875.4 2704.11 9216.06 10254 73186.7 13554.7 4173.33 238.706 17799.6 3222.76 24275.7 10657.1 7080.55 2890.95 12992.6 4349.27 5231.84 4340.95 8602.92 6474.13 3936.54 2537.59
internal_count=2253335 1145963 1107372 895340 881164 861439 429686 212032 40646 264799 142131 854694 280711 69901 431753 319430 67115 131682 9470 161174 269038 288164 11673 19725 185291 141522 196245 96517 71015 33984 112323 73724 64657 80498 134139 44196 49220 115747 45615 70507 100841 16011 64801 69821 573983 103625 31176 1607 115470 21500 188434 80604 53109 19899 97698 31716 36127 30158 60613 45732 28003 17729
is_linear=0
shrinkage=0.05


Tree=14
num_leaves=63
num_cat=0
split_feature=31 14 0 9 22 28 2 8 0 17 15 17 17 15 2 8 8 2 0 0 17 9 8 14 17 9 0 9 9 43 43 17 9 8 0 9 8 14 21 21 2 0 42 0 17 9 22 17 42 9 17 17 2 9 9 0 43 20 8 10 9 0
split_gain=21897.1 4314.49 4115.88 3153.76 2731.18 1706.46 1359.75 1100.5 980.821 1378.98 923.313 868.541 755.155 814.471 692.322 860.843 661.202 503.463 786.471 464.231 518.509 636.353 499.81 457.53 425.534 407.832 404.822 387.161 629.65 382.966 370.863 329.355 254.215 242.33 260.153 230.063 209.94 204.012 201.048 199.833 197.44 185.966 185.37 182.522 180.537 178.885 177.82 176.202 175.881 169.033 161.27 160.344 160.155 157.21 155.278 153.872 152.574 147.009 169.557 146.235 215.694 222.089
threshold=1.0000000180025095e-35 3.5000000000000004 1.0000000180025095e-35 1.5000000000000002 1.0000000180025095e-35 1.0000000180025095e-35 90.500000000000014 636.50000000000011 1.0000000180025095e-35 1.0000000180025095e-35 1.0000000180025095e-35 5.5000000000000009 3.5000000000000004 1.0000000180025095e-35 1.0000000180025095e-35 5.5000000000000009 64.500000000000014 13.000000000000002 2.5000000000000004 3.5000000000000004 3.5000000000000004 59.500000000000007 537.50000000000011 9.5000000000000018 8.5000000000000018 57.500000000000007 1.5000000000000002 109.50000000000001 5.5000000000000009 1.0000000180025095e-35 1.0000000180025095e-35 1.5000000000000002 101.50000000000001 140.50000000000003 2.5000000000000004 28.500000000000004 138.50000000000003 1.5000000000000002 1.0000000180025095e-35 1.0000000180025095e-35 32.500000000000007 2.5000000000000004 1.0000000180025095e-35 3.5000000000000004 8.5000000000000018 365.50000000000006 1.0000000180025095e-35 9.5000000000000018 1.0000000180025095e-35 1.0000000180025095e-35 8.5000000000000018 1.0000000180025095e-35 100.50000000000001 1.5000000000000002 44.500000000000007 1.5000000000000002 1.0000000180025095e-35 1.0000000180025095e-35 492.50000000000006 19.718253968253972 4.5000000000000009 2.5000000000000004
decision_type=2 2 2 2 2 2 2 2 2 2 2 2 2 2 2 2 2 2 2 2 2 2 2 2 2 2 2 2 2 2 2 2 2 2 2 2 2 2 2 2 2 2 2 2 2 2 2 2 2 2 2 2 2 2 2 2 2 2 2 2 2 2
left_child=1 3 48 4 5 14 8 11 9 35 16 39 13 32 15 -1 17 31 46 20 21 33 44 24 -9 36 -4 28 -20 -7 38 42 59 34 -12 -5 43 54 55 51 -6 52 -10 -15 -22 57 -19 -13 -2 -40 -14 -3 -32 -41 -18 -16 -28 -23 -59 60 -8 -62
right_child=2 7 26 6 40 29 12 23 10 -11 19 47 50 25 30 -17 37 18 27 -21 22 45 -24 -25 -26 -27 56 -29 -30 -31 41 -33 -34 -35 -36 -37 -38 -39 49 53 -42 -43 -44 -45 -46 -47 -48 -49 -50 -51 -52 -53 -54 -55 -56 -57 -58 58 -60 -61 61 -63
leaf_value=0.050723020587500861 0.073418318809294267 0.032097783032733924 -0.012711389090596431 0.065329801911689953 0.040828202753836522 -0.028354477413430973 0.00062940634478171164 0.025656404189073452 0.018868954318335178 -0.0066222940019715201 0.0092991097471525445 0.0028337735211914662 0.00064885501843042434 0.024614356198005546 0.015875043056834858 -0.019922772120358603 -0.0070973534000354846 -0.0088958183346366012 -0.008271593852296746 -0.014708949210890047 -0.0049828569283446094 0.004442340960726667 0.0089215031467444663 0.037467108103498785 0.0084639465832973201 0.009836328088412288 -0.033120600844902336 -0.004104228758712 0.011476852193511675 -0.013746288607562948 -0.013750679873983845 -0.0019586236471346385 -0.0010378307141874995 0.0071321768680757541 0.019916279258297986 0.032146850712657694 0.014576837614566865 -0.0027612980810974613 0.01400836212632966 -0.022478388346681255 0.014000985652877305 -0.00013613408424950952 0.04737947811729469 -0.0087902048305038387 -0.02327622031146442 0.032947172872071842 0.0045885983132340638 -0.011625189228481367 0.010115729350554532 -0.021218101465186975 -0.01490236434974606 0.015648853608109869 0.0025110925859141474 0.014762659856519603 -0.016245029042684111 -0.0098186315408377856 -0.02791002341905921 -0.0031006313412070777 0.018459369802572699 0.0022186303201122354 0.0073520101605587199 0.017397476992987059
leaf_weight=1154.281233615824 1024.8133640438245 1585.0951558947563 3639.452955668683 1372.0227732360945 735.50804893672466 13160.074996320764 5368.0232062488794 13471.193700149655 2308.017584338726 1756.5074725598097 11811.735986411601 6387.0663365274668 14464.056573107839 13415.175007611513 625.31301295757657 688.37205359339714 9130.0563596189022 22661.546927109361 5065.3875666111708 3064.5960337668657 14039.101155713201 22375.918506860733 7580.3067029416561 5529.2084089815617 4911.2970668673515 19623.786406099796 22647.370923114591 10187.489160656929 19865.243781119585 6807.1887143850327 5771.6193924397194 1620.4576246887445 10340.165507107973 21767.636451691389 11279.229339703888 843.45961138606071 12088.802541956306 9580.8150180727243 359.32710298895836 594.69610299170017 10156.863211914897 16618.465531513099 757.15425798296928 421.78106096386909 1492.0513397008181 467.01913170516491 2740.5368387699127 3144.3783238083124 122.88481305539608 6514.7125006765127 1884.2895423918962 22681.185813158751 2052.4942664504051 541.34529285132885 9430.9435512274504 8550.9630446468909 37004.574019910768 15239.63353420794 969.96677470207214 8770.3309463858604 12445.589594587684 9861.9465989172459
leaf_count=4809 4163 6701 16786 5534 3080 59963 23641 57374 9837 7731 51076 28093 63629 57179 2707 3091 40332 100114 22376 13629 61854 97814 33018 23207 21257 85306 105160 44688 85731 30325 25606 7120 45593 94182 48204 3511 52035 42144 1538 2680 43750 72724 3195 1879 6735 2014 12015 14166 537 29567 8430 97755 9022 2342 41936 37909 170448 66757 4212 38378 54261 42485
internal_value=5.41234e-05 0.00397297 -0.0271989 0.00206552 -0.00728669 -0.0113251 0.00423115 0.0165915 0.00185724 0.0264644 0.00137679 0.0109345 0.00876141 0.0105151 -0.0056422 0.0243314 -0.00228125 0.000483264 -0.000739223 0.0044786 0.00502804 0.00685452 -0.00160338 0.0248562 0.0210631 0.0152744 -0.0289005 0.00410842 0.00746438 -0.0233743 -0.00700617 0.0162731 0.00588164 0.0109172 0.0144853 0.0526967 0.0193906 -0.00868674 -0.0129112 0.0157638 0.0158125 -0.00312864 0.0259116 0.0235961 -0.00674027 0.00218785 -0.00744103 -0.00193617 0.0666405 -0.0193767 -0.00114356 0.0167233 -0.00948474 -0.00473232 -0.0117453 -0.00806775 -0.0298883 0.00181555 -0.0018105 0.00784478 0.00962769 0.011793
internal_weight=512571 448131 64439.1 389286 73195.2 62302.8 316091 58845.5 207407 3971.99 203435 34933.8 108684 92335.6 42335.5 1842.65 93347.6 65205.8 60520.2 110087 107023 83911.1 23111.5 23911.7 18382.5 45549.5 63291.4 35118.1 24930.6 19967.3 40492.9 4685.63 46786.1 44858.6 23091 2215.48 25925.8 28141.8 16050.3 25402.3 10892.4 24442.6 3065.17 13837 15531.2 39052.5 25402.1 9531.44 1147.7 6874.04 16348.3 24266.3 7824.11 1136.04 18561 9176.28 59651.9 38585.5 16209.6 36445.9 27675.6 22307.5
internal_count=2253335 1956241 297094 1702666 324091 277261 1378575 253575 905759 16776 888983 151737 472816 400757 186973 7900 409488 285076 264924 479495 465866 364259 101607 101838 78631 196399 292394 152795 108107 90288 179073 20152 204358 193462 99280 9045 111093 124412 71721 109478 46830 107352 13032 59058 68589 170797 112129 42259 4700 31105 72059 104456 34628 5022 82268 40616 275608 168783 70969 158765 120387 96746
is_linear=0
shrinkage=0.05


Tree=15
num_leaves=63
num_cat=0
split_feature=9 15 21 19 8 15 43 0 3 2 28 42 8 9 9 9 9 42 14 8 9 14 39 3 10 43 0 9 43 28 9 9 20 5 21 9 9 0 2 3 0 2 28 1 0 0 7 0 2 4 14 0 5 9 17 17 0 0 9 1 4 1
split_gain=104959 75339.3 36979.1 37607.4 16603.8 14412.4 5030.27 4044.04 2461.12 2369.26 2210.59 2135.36 2091.07 1475.41 1460.93 1372.44 1229.56 1178.05 997.882 938.296 904.51 829.34 804.862 736.212 714.275 700.046 684.456 610.969 566.759 483.92 425.547 467.638 420.052 419.668 397.318 826.613 370.871 394.402 367.088 366.576 344.139 331.886 324.951 321.239 318.97 308.654 293.569 282.733 271.076 258.547 251.196 224.25 222.456 221.148 221.045 209.957 237.916 208.462 202.788 192.927 192.488 189.812
threshold=3.5000000000000004 1.0000000180025095e-35 1.0000000180025095e-35 1.0000000180025095e-35 62.500000000000007 1.0000000180025095e-35 1.0000000180025095e-35 1.5000000000000002 88.500000000000014 13.000000000000002 1.0000000180025095e-35 1.0000000180025095e-35 320.50000000000006 1.0000000180025095e-35 77.500000000000014 1.5000000000000002 45.500000000000007 1.0000000180025095e-35 1.0000000180025095e-35 247.50000000000003 1.5000000000000002 1.5000000000000002 1.0000000180025095e-35 89.500000000000014 3.0263157894736845 1.0000000180025095e-35 3.5000000000000004 1.0000000180025095e-35 1.0000000180025095e-35 1.0000000180025095e-35 1.5000000000000002 1.0000000180025095e-35 1.0000000180025095e-35 9.5000000000000018 1.0000000180025095e-35 12.500000000000002 5.5000000000000009 2.5000000000000004 107.50000000000001 143.50000000000003 2.5000000000000004 108.50000000000001 1.0000000180025095e-35 1.0000000180025095e-35 1.5000000000000002 2.5000000000000004 1.0000000180025095e-35 3.5000000000000004 17.000000000000004 98.600000000000009 1.0000000180025095e-35 2.5000000000000004 15.500000000000002 37.500000000000007 1.0000000180025095e-35 4.5000000000000009 2.5000000000000004 3.5000000000000004 141.50000000000003 1.0000000180025095e-35 93.500000000000014 1.0000000180025095e-35
decision_type=2 2 2 2 2 2 2 2 2 2 2 2 2 2 2 2 2 2 2 2 2 2 2 2 2 2 2 2 2 2 2 2 2 2 2 2 2 2 2 2 2 2 2 2 2 2 2 2 2 2 2 2 2 2 2 2 2 2 2 2 2 2
left_child=2 4 3 5 9 8 13 60 -1 -2 20 23 16 -4 18 42 21 19 22 25 27 55 36 -9 26 32 33 -8 38 -17 31 -12 45 -16 -3 -36 54 -38 43 47 -35 46 -15 51 -24 -10 49 52 -23 -27 58 -25 -30 -20 -11 56 -6 -39 -18 -51 -5 -47
right_child=1 34 6 7 12 -7 10 11 17 14 30 -13 -14 15 24 29 50 -19 53 -21 -22 48 44 28 -26 41 -28 -29 39 -31 -32 -33 -34 40 35 -37 37 57 -40 -41 -42 -43 -44 -45 -46 61 -48 -49 -50 59 -52 -53 -54 -55 -56 -57 -58 -59 -60 -61 -62 -63
