{"learner":{"attributes":{"best_iteration":"492","best_score":"3.620690691494068","scikit_learn":"{\"_estimator_type\": \"regressor\"}"},"feature_names":["acuity","gender","triage_hr","triage_sbp","triage_o2sat","arrival_hour","arrival_dow","arrival_is_night","prefix_duration_min","last_duration_min","avg_duration_min","std_duration_min","freq_ED_ARRIVAL","freq_ED_END","freq_MEDICATION_DISPENSED","freq_MEDICATION_RECONCILIATION","freq_TRIAGE","freq_VITAL_SIGN_REASSESSMENT","last1_ed_arrival","last1_triage","last1_vital_sign_reassessment","last1_medication_reconciliation","last1_medication_dispensed","last1_ed_end","last1_none","last2_ed_arrival","last2_triage","last2_vital_sign_reassessment","last2_medication_reconciliation","last2_medication_dispensed","last2_ed_end","last2_none","last3_ed_arrival","last3_triage","last3_vital_sign_reassessment","last3_medication_reconciliation","last3_medication_dispensed","last3_ed_end","last3_none","transport_AMBULANCE","transport_HELICOPTER","transport_OTHER","transport_UNKNOWN","transport_WALK IN"],"feature_types":["float","int","float","float","float","int","int","int","float","float","float","float","int","int","int","int","int","int","int","int","int","int","int","int","int","int","int","int","int","int","int","int","int","int","int","int","int","int","int","i","i","i","i","i"],"gradient_booster":{"model":{"cats":{"enc":[],"feature_segments":[],"sorted_idx":[]},"gbtree_model_param":{"num_parallel_tree":"1","num_trees":"500"},"iteration_indptr":[0,1,2,3,4,5,6,7,8,9,10,11,12,13,14,15,16,17,18,19,20,21,22,23,24,25,26,27,28,29,30,31,32,33,34,35,36,37,38,39,40,41,42,43,44,45,46,47,48,49,50,51,52,53,54,55,56,57,58,59,60,61,62,63,64,65,66,67,68,69,70,71,72,73,74,75,76,77,78,79,80,81,82,83,84,85,86,87,88,89,90,91,92,93,94,95,96,97,98,99,100,101,102,103,104,105,106,107,108,109,110,111,112,113,114,115,116,117,118,119,120,121,122,123,124,125,126,127,128,129,130,131,132,133,134,135,136,137,138,139,140,141,142,143,144,145,146,147,148,149,150,151,152,153,154,155,156,157,158,159,160,161,162,163,164,165,166,167,168,169,170,171,172,173,174,175,176,177,178,179,180,181,182,183,184,185,186,187,188,189,190,191,192,193,194,195,196,197,198,199,200,201,202,203,204,205,206,207,208,209,210,211,212,213,214,215,216,217,218,219,220,221,222,223,224,225,226,227,228,229,230,231,232,233,234,235,236,237,238,239,240,241,242,243,244,245,246,247,248,249,250,251,252,253,254,255,256,257,258,259,260,261,262,263,264,265,266,267,268,269,270,271,272,273,274,275,276,277,278,279,280,281,282,283,284,285,286,287,288,289,290,291,292,293,294,295,296,297,298,299,300,301,302,303,304,305,306,307,308,309,310,311,312,313,314,315,316,317,318,319,320,321,322,323,324,325,326,327,328,329,330,331,332,333,334,335,336,337,338,339,340,341,342,343,344,345,346,347,348,349,350,351,352,353,354,355,356,357,358,359,360,361,362,363,364,365,366,367,368,369,370,371,372,373,374,375,376,377,378,379,380,381,382,383,384,385,386,387,388,389,390,391,392,393,394,395,396,397,398,399,400,401,402,403,404,405,406,407,408,409,410,411,412,413,414,415,416,417,418,419,420,421,422,423,424,425,426,427,428,429,430,431,432,433,434,435,436,437,438,439,440,441,442,443,444,445,446,447,448,449,450,451,452,453,454,455,456,457,458,459,460,461,462,463,464,465,466,467,468,469,470,471,472,473,474,475,476,477,478,479,480,481,482,483,484,485,486,487,488,489,490,491,492,493,494,495,496,497,498,499,500],"tree_info":[0,0,0,0,0,0,0,0,0,0,0,0,0,0,0,0,0,0,0,0,0,0,0,0,0,0,0,0,0,0,0,0,0,0,0,0,0,0,0,0,0,0,0,0,0,0,0,0,0,0,0,0,0,0,0,0,0,0,0,0,0,0,0,0,0,0,0,0,0,0,0,0,0,0,0,0,0,0,0,0,0,0,0,0,0,0,0,0,0,0,0,0,0,0,0,0,0,0,0,0,0,0,0,0,0,0,0,0,0,0,0,0,0,0,0,0,0,0,0,0,0,0,0,0,0,0,0,0,0,0,0,0,0,0,0,0,0,0,0,0,0,0,0,0,0,0,0,0,0,0,0,0,0,0,0,0,0,0,0,0,0,0,0,0,0,0,0,0,0,0,0,0,0,0,0,0,0,0,0,0,0,0,0,0,0,0,0,0,0,0,0,0,0,0,0,0,0,0,0,0,0,0,0,0,0,0,0,0,0,0,0,0,0,0,0,0,0,0,0,0,0,0,0,0,0,0,0,0,0,0,0,0,0,0,0,0,0,0,0,0,0,0,0,0,0,0,0,0,0,0,0,0,0,0,0,0,0,0,0,0,0,0,0,0,0,0,0,0,0,0,0,0,0,0,0,0,0,0,0,0,0,0,0,0,0,0,0,0,0,0,0,0,0,0,0,0,0,0,0,0,0,0,0,0,0,0,0,0,0,0,0,0,0,0,0,0,0,0,0,0,0,0,0,0,0,0,0,0,0,0,0,0,0,0,0,0,0,0,0,0,0,0,0,0,0,0,0,0,0,0,0,0,0,0,0,0,0,0,0,0,0,0,0,0,0,0,0,0,0,0,0,0,0,0,0,0,0,0,0,0,0,0,0,0,0,0,0,0,0,0,0,0,0,0,0,0,0,0,0,0,0,0,0,0,0,0,0,0,0,0,0,0,0,0,0,0,0,0,0,0,0,0,0,0,0,0,0,0,0,0,0,0,0,0,0,0,0,0,0,0,0,0,0,0,0,0,0,0,0,0,0,0,0,0,0,0,0,0,0,0,0,0,0,0,0,0,0,0,0,0,0,0,0,0,0,0,0,0,0,0,0,0,0,0,0,0,0,0,0,0,0,0,0,0,0,0,0,0,0,0],"trees":[{"base_weights":[7.2958495E-4,2.4907818E-1,-1.3207719E-1,3.4591535E-1,-7.67563E-2,-1.1280642E-1,-7.212378E-1,3.976687E-1,-4.9468705E-1,-1.3602485E-1,2.3750964E-1,9.082797E-2,-1.6683502E-1,-7.7912736E-1,-4.958006E-2,4.2475823E-1,-4.1866434E-1,-5.576233E-1,5.3665284E-2,-1.169211E-1,-5.4809844E-1,6.3476875E-2,2.8649038E-1,-2.2044646E-2,2.542409E-1,-2.118789E-1,5.9640877E-2,-8.295082E-1,-3.973563E-1,-2.2203948E-1,1.1884368E-1,4.978979E-1,2.2423145E-1,-3.1829235E-1,-5.731521E-1,-5.444481E-1,-9.0789473E-1,2.6964113E-1,-3.2495163E-2,-1.0427277E-1,-7.0091325E-1,-4.5380577E-1,-6.719613E-1,-3.977695E-1,8.413862E-2,7.560976E-2,3.0785206E-1,1.7273673E-1,-1.3674004E-1,1.3836764E-1,3.642402E-1,-2.8029343E-1,-1.287578E-1,9.624918E-2,-1.1379936E-1,-8.4338117E-1,-6.776025E-1,-1.9647887E-1,-4.7705653E-1,-3.1956154E-1,-4.0688574E-2,2.6634383E-1,1.9175456E-3,2.150289E-2,2.989156E-2,1.5285117E-2,3.835306E-3,-3.4735974E-2,-1.4826633E-2,-1.734694E-2,-3.0640692E-2,-2.6302045E-2,-3.5695054E-2,-4.8906248E-2,-4.3970767E-2,7.972028E-3,2.5867507E-2,8.356546E-4,-1.388889E-2,1.4360025E-4,-8.119873E-3,-3.9002705E-2,-1.3645834E-2,-1.892978E-2,-2.8818244E-2,-2.989905E-2,-3.8705688E-2,-2.8779069E-2,-4.0816325E-3,-4.1089565E-3,6.036585E-3,-4.2331717E-3,2.270492E-2,1.4667052E-2,2.6751855E-2,-1.706743E-2,1.2151021E-2,-1.8298446E-3,-1.2150366E-2,-1.3133253E-2,8.43261E-3,1.8952433E-2,-4.233467E-3,-9.321397E-3,-1.7585246E-2,7.606533E-5,-9.065055E-3,7.136501E-3,2.1103174E-4,-9.954191E-3,1.5611737E-2,-4.3257013E-2,-3.948997E-2,-3.564426E-2,-1.7777778E-2,-1.3707866E-2,-3.2956686E-3,-2.5424017E-2,-1.6427433E-2,-7.342008E-3,-2.3112481E-2,2.6785715E-3,-1.9485295E-2,2.03154E-2,1.7361112E-4,-2.9874214E-3,3.277778E-2],"categories":[],"categories_nodes":[],"categories_segments":[],"categories_sizes":[],"default_left":[0,0,0,0,0,0,0,0,0,0,0,0,0,0,0,0,0,0,0,0,0,0,0,0,0,0,0,0,0,0,0,0,0,0,0,0,0,0,0,0,0,0,0,0,0,0,0,0,0,0,0,0,0,0,0,0,0,0,0,0,0,0,0,0,0,0,0,0,0,0,0,0,0,0,0,0,0,0,0,0,0,0,0,0,0,0,0,0,0,0,0,0,0,0,0,0,0,0,0,0,0,0,0,0,0,0,0,0,0,0,0,0,0,0,0,0,0,0,0,0,0,0,0,0,0,0,0],"id":0,"left_children":[1,3,5,7,9,11,13,15,17,19,21,23,25,27,29,31,33,35,37,39,41,43,45,47,49,51,53,55,57,59,61,63,65,67,69,71,73,75,77,79,81,83,85,87,89,91,93,95,97,99,101,103,105,107,109,111,113,115,117,119,121,123,125,-1,-1,-1,-1,-1,-1,-1,-1,-1,-1,-1,-1,-1,-1,-1,-1,-1,-1,-1,-1,-1,-1,-1,-1,-1,-1,-1,-1,-1,-1,-1,-1,-1,-1,-1,-1,-1,-1,-1,-1,-1,-1,-1,-1,-1,-1,-1,-1,-1,-1,-1,-1,-1,-1,-1,-1,-1,-1,-1,-1,-1,-1,-1,-1],"loss_changes":[7.432041E4,2.47733E4,1.6669268E4,2.6331203E4,3.350511E3,1.5641686E4,1.8080508E3,1.2608586E4,1.2114775E3,1.1913069E3,2.43281E2,5.4986543E3,1.1462143E4,8.231133E2,1.0723613E2,8.0934375E3,2.8378345E2,1.4482324E2,6.727876E1,1.0682844E3,7.800513E1,5.9787544E1,1.003114E2,3.939195E3,1.5522822E3,5.3294805E3,1.1835239E3,7.913086E1,7.9844055E1,3.2245743E1,3.221618E1,2.7410703E3,1.7726138E3,9.0737915E1,6.448462E1,9.429199E1,1.4199219E0,2.8061417E1,3.1205412E1,8.8167004E2,1.0363867E2,3.4901184E1,2.1422974E1,1.5074284E1,3.6538578E1,1.2439467E2,6.651526E1,2.3612244E3,1.1810017E3,7.204064E2,4.1536426E2,3.445793E3,2.8963804E3,6.583722E2,1.1804475E3,3.9716797E1,3.5766235E1,1.4383743E1,1.6511719E1,2.9161423E1,2.1042936E1,3.0389275E1,4.20796E1,0E0,0E0,0E0,0E0,0E0,0E0,0E0,0E0,0E0,0E0,0E0,0E0,0E0,0E0,0E0,0E0,0E0,0E0,0E0,0E0,0E0,0E0,0E0,0E0,0E0,0E0,0E0,0E0,0E0,0E0,0E0,0E0,0E0,0E0,0E0,0E0,0E0,0E0,0E0,0E0,0E0,0E0,0E0,0E0,0E0,0E0,0E0,0E0,0E0,0E0,0E0,0E0,0E0,0E0,0E0,0E0,0E0,0E0,0E0,0E0,0E0,0E0,0E0,0E0],"parents":[2147483647,0,0,1,1,2,2,3,3,4,4,5,5,6,6,7,7,8,8,9,9,10,10,11,11,12,12,13,13,14,14,15,15,16,16,17,17,18,18,19,19,20,20,21,21,22,22,23,23,24,24,25,25,26,26,27,27,28,28,29,29,30,30,31,31,32,32,33,33,34,34,35,35,36,36,37,37,38,38,39,39,40,40,41,41,42,42,43,43,44,44,45,45,46,46,47,47,48,48,49,49,50,50,51,51,52,52,53,53,54,54,55,55,56,56,57,57,58,58,59,59,60,60,61,61,62,62],"right_children":[2,4,6,8,10,12,14,16,18,20,22,24,26,28,30,32,34,36,38,40,42,44,46,48,50,52,54,56,58,60,62,64,66,68,70,72,74,76,78,80,82,84,86,88,90,92,94,96,98,100,102,104,106,108,110,112,114,116,118,120,122,124,126,-1,-1,-1,-1,-1,-1,-1,-1,-1,-1,-1,-1,-1,-1,-1,-1,-1,-1,-1,-1,-1,-1,-1,-1,-1,-1,-1,-1,-1,-1,-1,-1,-1,-1,-1,-1,-1,-1,-1,-1,-1,-1,-1,-1,-1,-1,-1,-1,-1,-1,-1,-1,-1,-1,-1,-1,-1,-1,-1,-1,-1,-1,-1,-1],"split_conditions":[4E0,1E0,4E0,4E0,5.36E2,3.3333333E0,3.27E2,1E0,1E0,1E0,1E0,1E0,5.04E2,1E0,5.73E2,1E0,3E0,1E0,9.77E1,4E0,7.3E1,3.4E1,7E0,3E0,1E0,1E0,1E0,2E0,9.77E1,1E0,1.4E1,1E0,1.9666666E1,1E0,9.7E1,2E0,7.2E1,1.9E1,5.8991523E0,1.04E2,1E0,9.9E1,5E0,1.6E1,1E1,1.072E3,2.087E3,1E0,8.1E1,1E0,1E0,3E0,8.8E1,1.017E3,1.135E3,1E0,3E0,1E0,1.5E2,7.183488E1,2.1E1,1.206E3,1.09E2,8E-2,1.2905556E-1,5.7333328E-2,1.6666675E-2,-1.4895833E-1,-4.1666664E-2,-6.0000002E-2,-9.333333E-2,-6.583333E-2,-1.1416667E-1,-1.425E-1,-1.2666667E-1,4.083333E-2,1.6708334E-1,3.3333302E-3,-3.2499995E-2,5.6945084E-4,-3.8333334E-2,-1.4666668E-1,-5.8333337E-2,-5.1666666E-2,-7.666667E-2,-9.718056E-2,-1.0666666E-1,-1.00833334E-1,-2.833333E-2,-2.9166663E-2,4.2499997E-2,-2.3333335E-2,2.05E-1,1.0166667E-1,1.9208334E-1,-4.916667E-2,4.7499992E-2,-6.6666603E-3,-4.8333336E-2,-3.666667E-2,3.0013895E-2,8.333333E-2,-1.4999998E-2,-4.333333E-2,-8.5E-2,0E0,-4.5833338E-2,5.7500005E-2,1.6666651E-3,-5.333333E-2,1.475E-1,-1.6833334E-1,-1.3833334E-1,-1.6833334E-1,-1.21249996E-1,-7.416667E-2,-1.9166661E-2,-1.09166674E-1,-1.0125001E-1,-5.1666666E-2,-1.4416666E-1,2.4166679E-2,-8.916666E-2,2.1083334E-1,8.333445E-4,-2.2500003E-2,5.9666663E-1],"split_indices":[9,14,0,0,8,10,8,42,39,42,22,39,8,39,8,10,0,42,4,0,8,11,5,0,20,39,7,17,4,39,5,39,10,0,4,8,2,5,11,8,39,3,17,5,5,8,8,43,9,0,14,0,8,8,8,20,14,20,9,11,5,8,2,0,0,0,0,0,0,0,0,0,0,0,0,0,0,0,0,0,0,0,0,0,0,0,0,0,0,0,0,0,0,0,0,0,0,0,0,0,0,0,0,0,0,0,0,0,0,0,0,0,0,0,0,0,0,0,0,0,0,0,0,0,0,0,0],"split_type":[0,0,0,0,0,0,0,0,0,0,0,0,0,0,0,0,0,0,0,0,0,0,0,0,0,0,0,0,0,0,0,0,0,0,0,0,0,0,0,0,0,0,0,0,0,0,0,0,0,0,0,0,0,0,0,0,0,0,0,0,0,0,0,0,0,0,0,0,0,0,0,0,0,0,0,0,0,0,0,0,0,0,0,0,0,0,0,0,0,0,0,0,0,0,0,0,0,0,0,0,0,0,0,0,0,0,0,0,0,0,0,0,0,0,0,0,0,0,0,0,0,0,0,0,0,0,0],"sum_hessian":[2.253335E6,7.85134E5,1.468201E6,6.05254E5,1.7988E5,1.4217E6,4.6501E4,5.70152E5,3.5102E4,1.51339E5,2.8541E4,2.98112E5,1.123588E6,4.2811E4,3.69E3,5.5184E5,1.8312E4,3.1488E4,3.614E3,1.44635E5,6.704E3,6.269E3,2.2272E4,1.76323E5,1.21789E5,9.3719E5,1.86398E5,3.7819E4,4.992E3,1.823E3,1.867E3,4.04355E5,1.47485E5,1.1102E4,7.21E3,3.0349E4,1.139E3,1.03E3,2.584E3,1.4157E5,3.065E3,3.809E3,2.895E3,2.68E2,6.001E3,2.049E3,2.0223E4,6.5347E4,1.10976E5,5.9312E4,6.2477E4,5.14071E5,4.23119E5,1.53912E5,3.2486E4,3.465E4,3.169E3,1.419E3,3.573E3,1.185E3,6.38E2,8.25E2,1.042E3,2.40855E5,1.635E5,9.5013E4,5.2472E4,6.05E2,1.0497E4,1.077E3,6.133E3,2.7379E4,2.97E3,3.19E2,8.2E2,7.14E2,3.16E2,2.153E3,4.31E2,4.979E4,9.178E4,2.586E3,4.79E2,2.363E3,1.446E3,1.683E3,1.212E3,1.71E2,9.7E1,1.082E3,4.919E3,1.44E3,6.09E2,1.9011E4,1.212E3,7.859E3,5.7488E4,5.7135E4,5.3841E4,4.164E3,5.5148E4,6.0482E4,1.995E3,2.22117E5,2.91954E5,1.21605E5,3.01514E5,1.02262E5,5.165E4,2.7068E4,5.418E3,2.4632E4,1.0018E4,2.855E3,3.14E2,8.89E2,5.3E2,2.947E3,6.26E2,5.37E2,6.48E2,5.03E2,1.35E2,5.38E2,2.87E2,9.53E2,8.9E1],"tree_param":{"num_deleted":"0","num_feature":"44","num_nodes":"127","size_leaf_vector":"1"}},{"base_weights":[-6.8920036E-4,2.3620014E-1,-1.2736803E-1,3.2850286E-1,-7.437695E-2,-1.0832024E-1,-7.0971143E-1,3.7827742E-1,-4.7995898E-1,-1.3075195E-1,2.2454628E-1,6.499743E-2,-1.666015E-1,-7.6697326E-1,-6.1208267E-2,4.041889E-1,-4.0255556E-1,-5.405062E-1,4.757953E-2,-1.12378664E-1,-5.2706933E-1,5.8851674E-2,2.7118036E-1,-3.8194343E-2,2.0713417E-1,-2.1512257E-1,5.0610498E-2,-8.175005E-1,-3.8302153E-1,-2.5045153E-1,8.751182E-2,4.7401795E-1,2.1273884E-1,-3.0352157E-1,-5.5498546E-1,-5.274135E-1,-8.885965E-1,2.5024247E-1,-3.3268858E-2,-9.977326E-2,-6.9439006E-1,-4.1501853E-1,-6.314121E-1,-3.7918216E-1,7.847384E-2,6.878049E-2,2.9168314E-1,1.3323513E-1,-1.4919169E-1,-2.8320646E-1,2.2904389E-1,-2.7792978E-1,-1.3805757E-1,8.459226E-2,-1.079993E-1,-8.491846E-1,-7.5146914E-1,-1.9078015E-1,-4.590118E-1,-3.52459E-1,-5.141844E-2,1.8848167E-1,-8.611825E-2,2.0470323E-2,2.8459763E-2,1.4246076E-2,3.11801E-3,-3.3910893E-2,-1.4093161E-2,-1.6651206E-2,-2.9695142E-2,-2.5429917E-2,-3.506077E-2,-4.828125E-2,-4.287454E-2,1.46114E-2,-1.7910449E-2,7.1959145E-4,-1.3541668E-2,-2.6631946E-2,-4.3074056E-3,-3.8654815E-2,-1.3437501E-2,-1.7102664E-2,-2.6837325E-2,-2.8027436E-2,-3.706706E-2,-2.7616281E-2,-3.5714288E-3,-3.9704526E-3,5.660569E-3,-4.163775E-3,2.1393443E-2,1.3888597E-2,2.5474032E-2,-1.7306753E-2,1.0104868E-2,-2.1429032E-3,-1.2631513E-2,-8.150518E-3,-2.0405577E-2,6.9765314E-3,1.5805727E-2,-9.70694E-3,-1.7010288E-2,-1.5939873E-2,-5.533407E-3,6.1731017E-3,1.5294961E-4,-9.154539E-3,1.4596789E-2,-4.3110922E-2,-3.7791256E-2,-3.8039185E-2,-2.2083333E-2,-1.6911766E-2,-5.775401E-3,-2.3213781E-2,2.0454546E-2,-7.797271E-3,-2.619454E-2,1.9406393E-3,-1.8110236E-2,1.4962122E-2,1.3736264E-3,-1.0625E-2,1.1872146E-2],"categories":[],"categories_nodes":[],"categories_segments":[],"categories_sizes":[],"default_left":[0,0,0,0,0,0,0,0,0,0,0,0,0,0,0,0,0,0,0,0,0,0,0,0,0,0,0,0,0,0,0,0,0,0,0,0,0,0,0,0,0,0,0,0,0,0,0,0,0,0,0,0,0,0,0,0,0,0,0,0,0,0,0,0,0,0,0,0,0,0,0,0,0,0,0,0,0,0,0,0,0,0,0,0,0,0,0,0,0,0,0,0,0,0,0,0,0,0,0,0,0,0,0,0,0,0,0,0,0,0,0,0,0,0,0,0,0,0,0,0,0,0,0,0,0,0,0],"id":1,"left_children":[1,3,5,7,9,11,13,15,17,19,21,23,25,27,29,31,33,35,37,39,41,43,45,47,49,51,53,55,57,59,61,63,65,67,69,71,73,75,77,79,81,83,85,87,89,91,93,95,97,99,101,103,105,107,109,111,113,115,117,119,121,123,125,-1,-1,-1,-1,-1,-1,-1,-1,-1,-1,-1,-1,-1,-1,-1,-1,-1,-1,-1,-1,-1,-1,-1,-1,-1,-1,-1,-1,-1,-1,-1,-1,-1,-1,-1,-1,-1,-1,-1,-1,-1,-1,-1,-1,-1,-1,-1,-1,-1,-1,-1,-1,-1,-1,-1,-1,-1,-1,-1,-1,-1,-1,-1,-1],"loss_changes":[6.7620086E4,2.2507578E4,1.6285736E4,2.4356145E4,3.0313472E3,1.4360857E4,1.7267812E3,1.1535805E4,1.12125E3,1.1019463E3,2.2052856E2,5.2475137E3,1.1213193E4,8.2863086E2,1.0623842E2,7.377328E3,2.762798E2,1.4304102E2,5.9240005E1,1.061051E3,7.813074E1,5.3921486E1,9.240747E1,3.9442268E3,1.6167803E3,4.2093555E3,1.0470826E3,7.836133E1,7.253113E1,3.370494E1,3.707762E1,2.4863828E3,1.6009033E3,8.9913086E1,6.209204E1,9.88916E1,1.9034424E0,2.6442741E1,2.9272526E1,8.349199E2,1.0250476E2,2.8558289E1,2.66156E1,1.42943535E1,3.292674E1,1.1196877E2,6.113379E1,2.6892698E3,1.3838613E3,9.6572754E1,1.122686E3,2.500254E3,1.9331357E3,5.070398E2,1.0294807E3,3.0384766E1,3.5019043E1,1.5610889E1,1.6466675E1,3.6908463E1,1.5830099E1,2.383516E1,3.186461E1,0E0,0E0,0E0,0E0,0E0,0E0,0E0,0E0,0E0,0E0,0E0,0E0,0E0,0E0,0E0,0E0,0E0,0E0,0E0,0E0,0E0,0E0,0E0,0E0,0E0,0E0,0E0,0E0,0E0,0E0,0E0,0E0,0E0,0E0,0E0,0E0,0E0,0E0,0E0,0E0,0E0,0E0,0E0,0E0,0E0,0E0,0E0,0E0,0E0,0E0,0E0,0E0,0E0,0E0,0E0,0E0,0E0,0E0,0E0,0E0,0E0,0E0,0E0,0E0],"parents":[2147483647,0,0,1,1,2,2,3,3,4,4,5,5,6,6,7,7,8,8,9,9,10,10,11,11,12,12,13,13,14,14,15,15,16,16,17,17,18,18,19,19,20,20,21,21,22,22,23,23,24,24,25,25,26,26,27,27,28,28,29,29,30,30,31,31,32,32,33,33,34,34,35,35,36,36,37,37,38,38,39,39,40,40,41,41,42,42,43,43,44,44,45,45,46,46,47,47,48,48,49,49,50,50,51,51,52,52,53,53,54,54,55,55,56,56,57,57,58,58,59,59,60,60,61,61,62,62],"right_children":[2,4,6,8,10,12,14,16,18,20,22,24,26,28,30,32,34,36,38,40,42,44,46,48,50,52,54,56,58,60,62,64,66,68,70,72,74,76,78,80,82,84,86,88,90,92,94,96,98,100,102,104,106,108,110,112,114,116,118,120,122,124,126,-1,-1,-1,-1,-1,-1,-1,-1,-1,-1,-1,-1,-1,-1,-1,-1,-1,-1,-1,-1,-1,-1,-1,-1,-1,-1,-1,-1,-1,-1,-1,-1,-1,-1,-1,-1,-1,-1,-1,-1,-1,-1,-1,-1,-1,-1,-1,-1,-1,-1,-1,-1,-1,-1,-1,-1,-1,-1,-1,-1,-1,-1,-1,-1],"split_conditions":[4E0,1E0,4E0,4E0,5.36E2,3E1,3.21E2,1E0,1E0,1E0,1E0,1E0,4.89E2,1E0,5.19E2,1E0,3E0,1E0,9.77E1,4E0,5.6E1,3.4E1,7E0,3E0,1E0,1E0,1E0,1E0,9.77E1,1E0,1.7E1,1E0,2.14E1,1E0,9.7E1,3E0,7.2E1,1.07E2,5.8991523E0,1E0,1E0,9.9E1,5E0,1.6E1,1E1,1.072E3,2.087E3,1E0,7.4E1,1E0,1E0,3E0,2E0,1.017E3,1.135E3,1.55E2,3E0,1E0,5E0,7.183488E1,2.1E1,1.072E3,9.73E1,7.6E-2,1.2260278E-1,5.333333E-2,1.3333321E-2,-1.4151041E-1,-3.9583325E-2,-5.7000007E-2,-8.866667E-2,-6.254166E-2,-1.0845833E-1,-1.3537501E-1,-1.2033334E-1,8.105208E-2,-4.6625E-2,3.1666518E-3,-3.0875003E-2,-7.504167E-2,-1.8541658E-2,-1.3933332E-1,-5.541667E-2,-4.8180558E-2,-7.283334E-2,-8.825E-2,-9.966668E-2,-9.579166E-2,-2.6916672E-2,-2.7708327E-2,4.0374994E-2,-2.2166658E-2,1.9475E-1,9.6583344E-2,1.8247917E-1,-5.0041664E-2,3.8458325E-2,-8.000004E-3,-5.091666E-2,-2.4000002E-2,-5.6500006E-2,2.5165964E-2,6.7499995E-2,-4.5333337E-2,-8.1583336E-2,-6.270833E-2,-2.7597224E-2,5.001389E-2,1.5833378E-3,-4.816667E-2,1.4012499E-1,-1.5825E-1,-1.6825001E-1,-1.3475E-1,-1.2325001E-1,-7.795832E-2,-3.51875E-2,-1.0370834E-1,1.6795833E-1,-5.1999997E-2,-1.4279167E-1,1.7958332E-2,-7.043056E-2,1.6279168E-1,6.958318E-3,-6.554166E-2,1.08208336E-1],"split_indices":[9,14,0,0,8,8,8,42,39,42,22,39,8,39,8,10,0,42,4,0,8,11,5,0,0,39,7,20,4,39,5,39,10,0,4,8,2,2,11,0,39,3,17,5,5,8,8,43,9,14,20,0,0,8,8,8,17,17,14,11,5,8,2,0,0,0,0,0,0,0,0,0,0,0,0,0,0,0,0,0,0,0,0,0,0,0,0,0,0,0,0,0,0,0,0,0,0,0,0,0,0,0,0,0,0,0,0,0,0,0,0,0,0,0,0,0,0,0,0,0,0,0,0,0,0,0,0],"split_type":[0,0,0,0,0,0,0,0,0,0,0,0,0,0,0,0,0,0,0,0,0,0,0,0,0,0,0,0,0,0,0,0,0,0,0,0,0,0,0,0,0,0,0,0,0,0,0,0,0,0,0,0,0,0,0,0,0,0,0,0,0,0,0,0,0,0,0,0,0,0,0,0,0,0,0,0,0,0,0,0,0,0,0,0,0,0,0,0,0,0,0,0,0,0,0,0,0,0,0,0,0,0,0,0,0,0,0,0,0,0,0,0,0,0,0,0,0,0,0,0,0,0,0,0,0,0,0],"sum_hessian":[2.253335E6,7.85134E5,1.468201E6,6.05254E5,1.7988E5,1.4217E6,4.6501E4,5.70152E5,3.5102E4,1.51339E5,2.8541E4,3.57767E5,1.063933E6,4.2728E4,3.773E3,5.5184E5,1.8312E4,3.1488E4,3.614E3,1.44635E5,6.704E3,6.269E3,2.2272E4,2.07281E5,1.50486E5,8.69666E5,1.94267E5,3.7758E4,4.97E3,1.66E3,2.113E3,4.04355E5,1.47485E5,1.1102E4,7.21E3,3.0349E4,1.139E3,1.03E3,2.584E3,1.4157E5,3.065E3,3.235E3,3.469E3,2.68E2,6.001E3,2.049E3,2.0223E4,8.1464E4,1.25817E5,6.436E3,1.4405E5,4.79156E5,3.9051E5,1.5999E5,3.4277E4,2.5507E4,1.2251E4,1.409E3,3.561E3,1.097E3,5.63E2,1.336E3,7.77E2,2.40855E5,1.635E5,9.9651E4,4.7834E4,6.05E2,1.0497E4,1.077E3,6.133E3,2.7388E4,2.961E3,3.19E2,8.2E2,9.64E2,6.6E1,2.153E3,4.31E2,4.319E3,1.37251E5,2.586E3,4.79E2,2.025E3,1.21E3,2.113E3,1.356E3,1.71E2,9.7E1,1.082E3,4.919E3,1.44E3,6.09E2,1.9011E4,1.212E3,1.0232E4,7.1232E4,6.2041E4,6.3776E4,3.281E3,3.155E3,7.103E4,7.302E4,2.04291E5,2.74865E5,5.1389E4,3.39121E5,1.0834E5,5.165E4,2.8859E4,5.418E3,2.2375E4,3.132E3,1.1892E4,3.59E2,4.75E2,9.34E2,3.54E3,2.1E1,5.12E2,5.85E2,4.37E2,1.26E2,7.91E2,5.45E2,5.59E2,2.18E2],"tree_param":{"num_deleted":"0","num_feature":"44","num_nodes":"127","size_leaf_vector":"1"}},{"base_weights":[-2.7421566E-3,2.2286613E-1,-1.23388335E-1,3.0991235E-1,-7.002407E-2,-1.0461975E-1,-6.971958E-1,3.5746896E-1,-4.6252456E-1,-1.23886615E-1,2.1557705E-1,4.8936985E-2,-1.641674E-1,-7.538674E-1,-5.537891E-2,3.822514E-1,-3.893409E-1,-5.2107084E-1,4.757953E-2,-1.0635665E-1,-5.0201344E-1,5.629984E-2,2.6040497E-1,-4.61876E-2,1.7756107E-1,-2.1377334E-1,4.781539E-2,-8.042056E-1,-3.7135386E-1,-2.7543995E-1,6.1183143E-2,4.3073675E-1,1.3927016E-1,-2.9019183E-1,-5.419498E-1,-5.0777596E-1,-8.745614E-1,2.4636276E-1,-3.172147E-2,-9.3875155E-2,-6.826484E-1,-4.3289024E-1,-6.596474E-1,-3.5144928E-1,7.506255E-2,6.195122E-2,2.805083E-1,1.0836636E-1,-1.5063216E-1,-2.9079702E-1,1.9823067E-1,-2.7403694E-1,-1.3958731E-1,-1.4836901E-1,7.347582E-2,-8.367963E-1,-7.3628795E-1,-2.496826E-1,-4.814105E-1,-3.7358916E-1,-6.872038E-2,1.20221324E-1,-1.8295218E-1,1.8628083E-2,2.537834E-2,1.0493634E-2,1.8585132E-3,-3.2755774E-2,-1.3454944E-2,-1.6372913E-2,-2.897783E-2,-2.4466027E-2,-3.3912897E-2,-4.828125E-2,-4.1900124E-2,7.4125873E-3,2.334385E-2,-5.0443906E-4,-2.638889E-2,4.9404387E-4,-7.5884797E-3,-3.799768E-2,-1.3229166E-2,-1.9011462E-2,-2.9446809E-2,-3.5470825E-2,-1.9070514E-2,-2.5714288E-2,-3.4313728E-3,-3.6934444E-3,5.393853E-3,-4.024983E-3,1.9918034E-2,1.3341575E-2,2.473207E-2,-1.741124E-2,8.801272E-3,-1.8260997E-3,-1.2261606E-2,-1.1011681E-2,-2.4754366E-2,1.3217171E-2,3.7821576E-3,-1.3043671E-2,-3.1749085E-2,-1.6035773E-2,-5.65161E-3,-1.283316E-2,1.0850525E-2,5.712478E-3,-8.7770146E-5,-4.249419E-2,-3.715289E-2,-3.726562E-2,-2.1805556E-2,-2.0934466E-2,-7.954545E-3,-2.0996679E-2,-2.8235296E-2,-7.692308E-3,-2.7789256E-2,2.6229508E-3,-1.9067798E-2,4.2589437E-3,1.9517545E-2,-1.5948277E-2,8.58209E-3],"categories":[],"categories_nodes":[],"categories_segments":[],"categories_sizes":[],"default_left":[0,0,0,0,0,0,0,0,0,0,0,0,0,0,0,0,0,0,0,0,0,0,0,0,0,0,0,0,0,0,0,0,0,0,0,0,0,0,0,0,0,0,0,0,0,0,0,0,0,0,0,0,0,0,0,0,0,0,0,0,0,0,0,0,0,0,0,0,0,0,0,0,0,0,0,0,0,0,0,0,0,0,0,0,0,0,0,0,0,0,0,0,0,0,0,0,0,0,0,0,0,0,0,0,0,0,0,0,0,0,0,0,0,0,0,0,0,0,0,0,0,0,0,0,0,0,0],"id":2,"left_children":[1,3,5,7,9,11,13,15,17,19,21,23,25,27,29,31,33,35,37,39,41,43,45,47,49,51,53,55,57,59,61,63,65,67,69,71,73,75,77,79,81,83,85,87,89,91,93,95,97,99,101,103,105,107,109,111,113,115,117,119,121,123,125,-1,-1,-1,-1,-1,-1,-1,-1,-1,-1,-1,-1,-1,-1,-1,-1,-1,-1,-1,-1,-1,-1,-1,-1,-1,-1,-1,-1,-1,-1,-1,-1,-1,-1,-1,-1,-1,-1,-1,-1,-1,-1,-1,-1,-1,-1,-1,-1,-1,-1,-1,-1,-1,-1,-1,-1,-1,-1,-1,-1,-1,-1,-1,-1],"loss_changes":[6.133308E4,2.0017023E4,1.5811811E4,2.223389E4,2.7671724E3,1.2999962E4,1.6913652E3,1.0552414E4,1.0483652E3,1.0031116E3,2.0377722E2,4.8606816E3,1.0772572E4,8.224512E2,9.6822845E1,6.501203E3,2.76937E2,1.4754297E2,5.699362E1,1.0402994E3,7.277319E1,4.7994884E1,8.884253E1,3.6864866E3,1.6350825E3,3.7114102E3,9.779905E2,8.296094E1,6.644513E1,2.6492523E1,3.5594032E1,2.0560078E3,6.617334E2,8.528711E1,5.7976562E1,9.51582E1,2.986023E0,2.2236336E1,2.7734394E1,8.5040405E2,9.888782E1,3.810266E1,2.8006287E1,1.2675526E1,2.9306206E1,9.827179E1,5.9097168E1,2.8451091E3,1.4710979E3,1.0280267E2,1.3109473E3,2.17625E3,1.7897397E3,8.89199E2,5.269833E2,3.0664062E1,3.2864258E1,3.6112335E1,1.3122864E1,3.538665E1,1.600747E1,1.8785162E1,2.3253143E1,0E0,0E0,0E0,0E0,0E0,0E0,0E0,0E0,0E0,0E0,0E0,0E0,0E0,0E0,0E0,0E0,0E0,0E0,0E0,0E0,0E0,0E0,0E0,0E0,0E0,0E0,0E0,0E0,0E0,0E0,0E0,0E0,0E0,0E0,0E0,0E0,0E0,0E0,0E0,0E0,0E0,0E0,0E0,0E0,0E0,0E0,0E0,0E0,0E0,0E0,0E0,0E0,0E0,0E0,0E0,0E0,0E0,0E0,0E0,0E0,0E0,0E0,0E0,0E0],"parents":[2147483647,0,0,1,1,2,2,3,3,4,4,5,5,6,6,7,7,8,8,9,9,10,10,11,11,12,12,13,13,14,14,15,15,16,16,17,17,18,18,19,19,20,20,21,21,22,22,23,23,24,24,25,25,26,26,27,27,28,28,29,29,30,30,31,31,32,32,33,33,34,34,35,35,36,36,37,37,38,38,39,39,40,40,41,41,42,42,43,43,44,44,45,45,46,46,47,47,48,48,49,49,50,50,51,51,52,52,53,53,54,54,55,55,56,56,57,57,58,58,59,59,60,60,61,61,62,62],"right_children":[2,4,6,8,10,12,14,16,18,20,22,24,26,28,30,32,34,36,38,40,42,44,46,48,50,52,54,56,58,60,62,64,66,68,70,72,74,76,78,80,82,84,86,88,90,92,94,96,98,100,102,104,106,108,110,112,114,116,118,120,122,124,126,-1,-1,-1,-1,-1,-1,-1,-1,-1,-1,-1,-1,-1,-1,-1,-1,-1,-1,-1,-1,-1,-1,-1,-1,-1,-1,-1,-1,-1,-1,-1,-1,-1,-1,-1,-1,-1,-1,-1,-1,-1,-1,-1,-1,-1,-1,-1,-1,-1,-1,-1,-1,-1,-1,-1,-1,-1,-1,-1,-1,-1,-1,-1,-1],"split_conditions":[4E0,1E0,4E0,4E0,5.36E2,4E1,3.21E2,1E0,1E0,1E0,1E0,1E0,4.89E2,1E0,4.51E2,1E1,3E0,1E0,9.77E1,4E0,1.06E2,3.4326374E1,7E0,3E0,1E0,1E0,7E0,1E0,9.81E1,1E0,2E1,1E0,2.611111E1,1E0,9.7E1,3E0,7.2E1,1.9E1,1E0,1.06E2,1E0,1.9E1,4.9594547E1,1.6E1,1E1,1.072E3,2.087E3,1E0,6.5E1,2E0,6E0,1E0,2E0,9.66E2,1.8E1,1.55E2,3E0,1E0,2.424871E1,7.183488E1,9.92E1,2.5E2,9.83E1,6.8894446E-2,1.07417084E-1,4.1133333E-2,7.6666595E-3,-1.344349E-1,-3.7604153E-2,-5.415001E-2,-8.4233336E-2,-5.9414577E-2,-1.0303541E-1,-1.2860624E-1,-1.14316665E-1,3.4739044E-2,1.5467656E-1,-1.9916773E-3,-6.76646E-2,1.2236238E-3,-3.6322918E-2,-1.3236666E-1,-5.264584E-2,-5.5007637E-2,-6.334966E-2,-9.822848E-2,-8.739515E-2,-9.266875E-2,-2.3310399E-2,-2.6322914E-2,3.9189603E-2,-2.1058321E-2,1.850125E-1,9.1754176E-2,1.733552E-1,-5.017847E-2,3.441043E-2,-6.7666653E-3,-4.920416E-2,-3.050834E-2,-6.750834E-2,5.3775717E-2,1.4958334E-2,-6.250417E-2,-1.0056668E-1,-6.290624E-2,-2.8522914E-2,-6.409166E-2,1.1811876E-1,4.733751E-2,-5.493045E-4,-1.503375E-1,-1.598375E-1,-1.2801251E-1,-1.17087506E-1,-8.891876E-2,-4.1856255E-2,-8.685626E-2,-1.2768959E-1,-5.1483322E-2,-1.4398542E-1,1.9977106E-2,-8.710624E-2,3.6516666E-2,1.0935002E-1,-9.309792E-2,8.268126E-2],"split_indices":[9,14,0,0,8,8,8,42,39,42,22,39,8,39,8,10,0,42,4,0,8,11,5,0,0,39,5,20,4,39,5,39,10,0,4,8,2,5,26,8,39,5,11,5,5,8,8,43,9,14,8,42,0,8,5,8,17,17,11,11,4,9,2,0,0,0,0,0,0,0,0,0,0,0,0,0,0,0,0,0,0,0,0,0,0,0,0,0,0,0,0,0,0,0,0,0,0,0,0,0,0,0,0,0,0,0,0,0,0,0,0,0,0,0,0,0,0,0,0,0,0,0,0,0,0,0,0],"split_type":[0,0,0,0,0,0,0,0,0,0,0,0,0,0,0,0,0,0,0,0,0,0,0,0,0,0,0,0,0,0,0,0,0,0,0,0,0,0,0,0,0,0,0,0,0,0,0,0,0,0,0,0,0,0,0,0,0,0,0,0,0,0,0,0,0,0,0,0,0,0,0,0,0,0,0,0,0,0,0,0,0,0,0,0,0,0,0,0,0,0,0,0,0,0,0,0,0,0,0,0,0,0,0,0,0,0,0,0,0,0,0,0,0,0,0,0,0,0,0,0,0,0,0,0,0,0,0],"sum_hessian":[2.253335E6,7.85134E5,1.468201E6,6.05254E5,1.7988E5,1.4217E6,4.6501E4,5.70152E5,3.5102E4,1.51339E5,2.8541E4,3.97265E5,1.024435E6,4.2728E4,3.773E3,5.5184E5,1.8312E4,3.1488E4,3.614E3,1.44635E5,6.704E3,6.269E3,2.2272E4,2.28372E5,1.68893E5,8.30168E5,1.94267E5,3.7758E4,4.97E3,1.306E3,2.467E3,4.60041E5,9.1799E4,1.1102E4,7.21E3,3.0349E4,1.139E3,1.03E3,2.584E3,1.4157E5,3.065E3,4.663E3,2.041E3,2.75E2,5.994E3,2.049E3,2.0223E4,9.2094E4,1.36278E5,7.138E3,1.61755E5,4.58065E5,3.72103E5,2.247E4,1.71797E5,2.5507E4,1.2251E4,2.362E3,2.608E3,8.85E2,4.21E2,1.987E3,4.8E2,2.61808E5,1.98233E5,5.427E4,3.7529E4,6.05E2,1.0497E4,1.077E3,6.133E3,2.7388E4,2.961E3,3.19E2,8.2E2,7.14E2,3.16E2,2.477E3,1.07E2,5.0703E4,9.0867E4,2.586E3,4.79E2,3.489E3,1.174E3,1.73E3,3.11E2,1.74E2,1.01E2,1.082E3,4.912E3,1.44E3,6.09E2,1.9011E4,1.212E3,1.1885E4,8.0209E4,6.177E4,7.4508E4,5.307E3,1.831E3,1.05082E5,5.6673E4,4.41949E5,1.6116E4,4.7577E4,3.24526E5,1.7333E4,5.137E3,1.11413E5,6.0384E4,2.2375E4,3.132E3,1.1892E4,3.59E2,8.23E2,1.539E3,1.504E3,1.104E3,4.02E2,4.83E2,3.04E2,1.17E2,1.76E3,2.27E2,3.47E2,1.33E2],"tree_param":{"num_deleted":"0","num_feature":"44","num_nodes":"127","size_leaf_vector":"1"}},{"base_weights":[-3.8223327E-3,2.1106689E-1,-1.1873639E-1,2.939422E-1,-6.7789264E-2,-1.0017296E-1,-6.8627155E-1,3.3944574E-1,-4.4514713E-1,-1.1907625E-1,2.0415528E-1,8.280177E-2,-1.4630364E-1,-7.4211895E-1,-5.3789083E-2,3.6302847E-1,-3.712117E-1,-5.015085E-1,4.591978E-2,-1.0752971E-1,-6.7577237E-1,5.247209E-2,2.4684596E-1,-1.48033425E-2,2.2783601E-1,-1.8481058E-1,4.9753487E-2,-7.9228795E-1,-3.608932E-1,-2.2877784E-1,8.372753E-2,4.271261E-1,1.8729235E-1,-2.7199855E-1,-5.239218E-1,-4.8866558E-1,-8.429825E-1,2.3472357E-1,-2.9400386E-2,-8.993367E-2,-4.7954002E-1,-7.523112E-1,-2.6041666E-1,-3.3695653E-1,7.039199E-2,5.804878E-2,2.6597112E-1,1.6182311E-1,-1.1440035E-1,1.1914747E-1,3.2831407E-1,-2.469641E-1,-1.0970851E-1,8.2306236E-2,-1.04472555E-1,-8.2613295E-1,-7.2175974E-1,-2.4291155E-1,-4.6761212E-1,-3.0607286E-1,-4.6838406E-3,2.3134328E-1,-3.3984706E-2,1.8434044E-2,2.5661007E-2,1.4314348E-2,4.8503983E-3,-3.1105611E-2,-1.2588113E-2,-1.609462E-2,-2.796707E-2,-2.348388E-2,-3.320392E-2,-4.486532E-2,-3.912249E-2,1.3782384E-2,-1.7910449E-2,7.1959145E-4,-1.2384259E-2,4.920717E-4,-7.280341E-3,-2.1228721E-2,-3.281841E-2,-3.8999595E-2,-1.2681159E-2,-2.1610169E-2,1.1023622E-2,-2.457143E-2,-3.4313728E-3,-2.964286E-3,5.4939077E-3,-4.4565215E-3,1.8032787E-2,1.2605197E-2,2.4154989E-2,1.0588362E-2,-1.679403E-2,-1.4295185E-3,-1.0709909E-2,2.4403604E-2,4.477554E-3,1.8293068E-2,9.233126E-3,-7.920485E-3,-1.575389E-2,1.8448198E-4,-8.204883E-3,6.268152E-3,-1.4714139E-4,-8.903174E-3,1.315741E-2,-4.1944496E-2,-3.6737952E-2,-3.6534097E-2,-2.125E-2,-2.044903E-2,-7.6948055E-3,-2.013289E-2,-2.7782807E-2,-2.0239523E-2,-4.9875313E-3,1.5196079E-2,-5.06135E-3,1.6743472E-2,-1.7361112E-4,-4.105166E-3,2.606383E-2],"categories":[],"categories_nodes":[],"categories_segments":[],"categories_sizes":[],"default_left":[0,0,0,0,0,0,0,0,0,0,0,0,0,0,0,0,0,0,0,0,0,0,0,0,0,0,0,0,0,0,0,0,0,0,0,0,0,0,0,0,0,0,0,0,0,0,0,0,0,0,0,0,0,0,0,0,0,0,0,0,0,0,0,0,0,0,0,0,0,0,0,0,0,0,0,0,0,0,0,0,0,0,0,0,0,0,0,0,0,0,0,0,0,0,0,0,0,0,0,0,0,0,0,0,0,0,0,0,0,0,0,0,0,0,0,0,0,0,0,0,0,0,0,0,0,0,0],"id":3,"left_children":[1,3,5,7,9,11,13,15,17,19,21,23,25,27,29,31,33,35,37,39,41,43,45,47,49,51,53,55,57,59,61,63,65,67,69,71,73,75,77,79,81,83,85,87,89,91,93,95,97,99,101,103,105,107,109,111,113,115,117,119,121,123,125,-1,-1,-1,-1,-1,-1,-1,-1,-1,-1,-1,-1,-1,-1,-1,-1,-1,-1,-1,-1,-1,-1,-1,-1,-1,-1,-1,-1,-1,-1,-1,-1,-1,-1,-1,-1,-1,-1,-1,-1,-1,-1,-1,-1,-1,-1,-1,-1,-1,-1,-1,-1,-1,-1,-1,-1,-1,-1,-1,-1,-1,-1,-1,-1],"loss_changes":[5.5643434E4,1.8144723E4,1.5468023E4,2.0355574E4,2.5088638E3,1.2000232E4,1.6425273E3,9.555477E3,9.715752E2,9.727278E2,1.8480957E2,4.052352E3,8.57208E3,8.1693555E2,9.083617E1,6.216008E3,2.7731494E2,1.376831E2,5.141485E1,9.704922E2,9.7561035E1,4.377906E1,8.040735E1,3.0100942E3,1.2575249E3,4.429967E3,9.358214E2,8.953516E1,6.2475586E1,2.876934E1,3.6741104E1,2.0344375E3,1.3181528E3,7.850824E1,5.142041E1,1.0077588E2,3.046692E0,2.5116192E1,2.4714031E1,7.863992E2,6.480286E1,3.563733E1,3.9748264E1,1.1406292E1,3.0703762E1,9.133392E1,6.0771973E1,1.5336963E3,9.3697705E2,6.0396466E2,3.2267188E2,3.1321582E3,2.6505815E3,5.649459E2,8.789354E2,2.9117188E1,3.2129395E1,3.4868607E1,1.4696716E1,2.511364E1,1.2752692E1,2.2803513E1,3.1490358E1,0E0,0E0,0E0,0E0,0E0,0E0,0E0,0E0,0E0,0E0,0E0,0E0,0E0,0E0,0E0,0E0,0E0,0E0,0E0,0E0,0E0,0E0,0E0,0E0,0E0,0E0,0E0,0E0,0E0,0E0,0E0,0E0,0E0,0E0,0E0,0E0,0E0,0E0,0E0,0E0,0E0,0E0,0E0,0E0,0E0,0E0,0E0,0E0,0E0,0E0,0E0,0E0,0E0,0E0,0E0,0E0,0E0,0E0,0E0,0E0,0E0,0E0,0E0,0E0],"parents":[2147483647,0,0,1,1,2,2,3,3,4,4,5,5,6,6,7,7,8,8,9,9,10,10,11,11,12,12,13,13,14,14,15,15,16,16,17,17,18,18,19,19,20,20,21,21,22,22,23,23,24,24,25,25,26,26,27,27,28,28,29,29,30,30,31,31,32,32,33,33,34,34,35,35,36,36,37,37,38,38,39,39,40,40,41,41,42,42,43,43,44,44,45,45,46,46,47,47,48,48,49,49,50,50,51,51,52,52,53,53,54,54,55,55,56,56,57,57,58,58,59,59,60,60,61,61,62,62],"right_children":[2,4,6,8,10,12,14,16,18,20,22,24,26,28,30,32,34,36,38,40,42,44,46,48,50,52,54,56,58,60,62,64,66,68,70,72,74,76,78,80,82,84,86,88,90,92,94,96,98,100,102,104,106,108,110,112,114,116,118,120,122,124,126,-1,-1,-1,-1,-1,-1,-1,-1,-1,-1,-1,-1,-1,-1,-1,-1,-1,-1,-1,-1,-1,-1,-1,-1,-1,-1,-1,-1,-1,-1,-1,-1,-1,-1,-1,-1,-1,-1,-1,-1,-1,-1,-1,-1,-1,-1,-1,-1,-1,-1,-1,-1,-1,-1,-1,-1,-1,-1,-1,-1,-1,-1,-1,-1],"split_conditions":[4E0,1E0,4E0,4E0,5.36E2,2.6666667E0,3.21E2,1E0,1E0,4E0,1E0,1E0,5.04E2,1E0,5.19E2,1E0,3E0,1E0,9.77E1,1E0,1E0,3.4326374E1,7E0,3E0,1E0,1E0,1E0,1E0,9.81E1,1.31E2,1.4E1,1E0,1.4E1,1E0,9.7E1,3E0,1.6E1,1.07E2,5.8991523E0,1.06E2,5E0,3.27E2,2.8E2,1.6E1,6.4E2,1.017E3,2.087E3,1E0,8.6E1,6E0,1.45E2,3E0,9.6E1,1.017E3,1.135E3,1.55E2,3E0,1E0,2.424871E1,1E0,7.4E1,1.206E3,1.09E2,6.875527E-2,1.11101784E-1,5.8262467E-2,1.7688608E-2,-1.2771316E-1,-3.572395E-2,-5.1442504E-2,-8.002167E-2,-5.6443848E-2,-9.788364E-2,-1.24434166E-1,-9.818416E-2,7.143076E-2,-4.6030696E-2,3.1079054E-3,-2.8398335E-2,1.1624455E-3,-3.4506775E-2,-6.0590576E-2,-8.477192E-2,-1.2658167E-1,-8.4915005E-2,-7.834687E-2,6.790314E-2,-8.803531E-2,-2.214489E-2,-2.5006771E-2,3.7493218E-2,-2.2505403E-2,1.7451191E-1,8.716648E-2,1.6468744E-1,4.1481543E-2,-4.336399E-2,-5.4939627E-3,-4.174396E-2,1.120522E-1,1.5899433E-2,7.89362E-2,4.767052E-2,-3.5774793E-2,-7.3545635E-2,6.319523E-4,-4.1568995E-2,5.0590754E-2,-8.626938E-4,-4.588708E-2,1.280962E-1,-1.4282063E-1,-1.5184562E-1,-1.21611886E-1,-1.11233115E-1,-8.447283E-2,-3.976344E-2,-8.2513444E-2,-1.2130511E-1,-1.2088203E-1,-3.801899E-2,8.988054E-2,-3.977176E-2,1.7532623E-1,-1.3820886E-3,-3.0215418E-2,5.595971E-1],"split_indices":[9,14,0,0,8,10,8,42,39,0,22,39,8,39,8,10,0,42,4,42,39,11,5,0,20,39,7,20,4,9,5,39,5,0,4,8,5,2,11,8,17,8,8,5,8,8,8,42,9,9,9,0,8,8,8,8,17,17,11,39,2,8,2,0,0,0,0,0,0,0,0,0,0,0,0,0,0,0,0,0,0,0,0,0,0,0,0,0,0,0,0,0,0,0,0,0,0,0,0,0,0,0,0,0,0,0,0,0,0,0,0,0,0,0,0,0,0,0,0,0,0,0,0,0,0,0,0],"split_type":[0,0,0,0,0,0,0,0,0,0,0,0,0,0,0,0,0,0,0,0,0,0,0,0,0,0,0,0,0,0,0,0,0,0,0,0,0,0,0,0,0,0,0,0,0,0,0,0,0,0,0,0,0,0,0,0,0,0,0,0,0,0,0,0,0,0,0,0,0,0,0,0,0,0,0,0,0,0,0,0,0,0,0,0,0,0,0,0,0,0,0,0,0,0,0,0,0,0,0,0,0,0,0,0,0,0,0,0,0,0,0,0,0,0,0,0,0,0,0,0,0,0,0,0,0,0,0],"sum_hessian":[2.253335E6,7.85134E5,1.468201E6,6.05254E5,1.7988E5,1.4217E6,4.6501E4,5.70152E5,3.5102E4,1.51339E5,2.8541E4,2.86261E5,1.135439E6,4.2728E4,3.773E3,5.5184E5,1.8312E4,3.1488E4,3.614E3,1.48265E5,3.074E3,6.269E3,2.2272E4,1.71109E5,1.15152E5,9.49041E5,1.86398E5,3.7758E4,4.97E3,1.66E3,2.113E3,4.04355E5,1.47485E5,1.1102E4,7.21E3,3.0349E4,1.139E3,1.03E3,2.584E3,1.4157E5,6.695E3,2.595E3,4.79E2,2.75E2,5.994E3,2.049E3,2.0223E4,6.1696E4,1.09413E5,5.5317E4,5.9835E4,5.19285E5,4.29756E5,1.53912E5,3.2486E4,2.5507E4,1.2251E4,2.362E3,2.608E3,1.234E3,4.26E2,9.37E2,1.176E3,2.40855E5,1.635E5,7.0348E4,7.7137E4,6.05E2,1.0497E4,1.077E3,6.133E3,2.7388E4,2.961E3,5.93E2,5.46E2,9.64E2,6.6E1,2.153E3,4.31E2,5.0703E4,9.0867E4,5.11E3,1.585E3,2.458E3,1.37E2,3.53E2,1.26E2,1.74E2,1.01E2,1.399E3,4.595E3,1.379E3,6.7E2,1.9011E4,1.212E3,5.607E4,5.626E3,5.883E4,5.0583E4,4.107E3,5.121E4,4.7435E4,1.24E4,2.25768E5,2.93517E5,1.39308E5,2.90448E5,1.02262E5,5.165E4,2.7068E4,5.418E3,2.2375E4,3.132E3,1.1892E4,3.59E2,8.23E2,1.539E3,1.504E3,1.104E3,8.34E2,4E2,1.01E2,3.25E2,6.5E2,2.87E2,1.083E3,9.3E1],"tree_param":{"num_deleted":"0","num_feature":"44","num_nodes":"127","size_leaf_vector":"1"}},{"base_weights":[-5.001917E-3,1.9974399E-1,-1.1449174E-1,2.329186E-1,-4.4276115E-1,-9.619603E-2,-6.73842E-1,3.776273E-1,4.7817767E-2,-5.0132775E-1,2.6162112E-2,4.4667803E-2,-1.5082152E-1,-7.28545E-1,-5.4319024E-2,4.0589762E-1,-3.537031E-1,1.6910885E-1,-5.6285772E-2,-4.6736577E-1,-6.694459E-1,1.9215372E-1,-4.220244E-2,1.2510179E-1,-7.899897E-2,-1.9614078E-1,4.2842876E-2,-7.7894014E-1,-3.456045E-1,-2.6319817E-1,5.632091E-2,-2.2177075E-1,4.1325718E-1,-2.3502661E-1,-5.162614E-1,6.640125E-2,2.5654957E-1,-1.0291149E-1,1.9947758E-1,-4.5317462E-1,-8.1244445E-1,-7.062282E-1,-3.1746034E-2,2.2857143E-1,-2.5263157E-1,-2.1754144E-2,-4.710145E-1,1.4608665E-1,-3.6235532E-1,-2.2466464E-1,6.336356E-2,-2.5158602E-1,-1.278863E-1,-1.2882733E-1,6.8598494E-2,-8.128038E-1,-7.0837414E-1,-2.2936945E-1,-4.507474E-1,-3.5553047E-1,-6.872038E-2,9.78162E-2,-2.804428E-1,-1.1557627E-2,2.4590164E-2,1.7613564E-2,2.5267541E-2,-2.998325E-2,-1.0457245E-2,-1.5334064E-2,-2.7496472E-2,8.977989E-3,-1.3437336E-3,1.86128E-2,8.830406E-3,-4.301732E-3,-2.3166893E-2,2.7079796E-3,1.1983374E-2,-2.211891E-2,-3.7942123E-2,-4.4783466E-2,-3.7135925E-2,-3.722687E-2,-2.80648E-2,-1.2671232E-2,7.941177E-3,7.7651516E-3,1.9368133E-2,-2.0000001E-2,4.5454547E-2,-2.152499E-3,1.7628206E-2,-2.6171876E-2,9.09091E-3,1.0059689E-2,3.3936134E-4,-1.5879711E-2,-2.4468496E-2,-1.5042386E-2,-4.129646E-3,-7.789848E-4,9.567953E-3,-1.1932232E-2,-3.032202E-2,-1.5184539E-2,-5.1055844E-3,-1.1984958E-2,8.893016E-3,5.482721E-3,-2.5999834E-4,-3.2923833E-2,-4.1026432E-2,-3.5861433E-2,-2.0694446E-2,-1.9599516E-2,-7.1103894E-3,-2.0187793E-2,-2.900433E-2,-7.444169E-3,-2.6342977E-2,2.6229508E-3,-1.9067798E-2,2.0871561E-2,3.1297326E-3,2.3214286E-2,-1.8237706E-2],"categories":[],"categories_nodes":[],"categories_segments":[],"categories_sizes":[],"default_left":[0,0,0,0,0,0,0,0,0,0,0,0,0,0,0,0,0,0,0,0,0,0,0,0,0,0,0,0,0,0,0,0,0,0,0,0,0,0,0,0,0,0,0,0,0,0,0,0,0,0,0,0,0,0,0,0,0,0,0,0,0,0,0,0,0,0,0,0,0,0,0,0,0,0,0,0,0,0,0,0,0,0,0,0,0,0,0,0,0,0,0,0,0,0,0,0,0,0,0,0,0,0,0,0,0,0,0,0,0,0,0,0,0,0,0,0,0,0,0,0,0,0,0,0,0,0,0],"id":4,"left_children":[1,3,5,7,9,11,13,15,17,19,21,23,25,27,29,31,33,35,37,39,41,43,45,47,49,51,53,55,57,59,61,63,65,67,69,71,73,75,77,79,81,83,85,87,89,91,93,95,97,99,101,103,105,107,109,111,113,115,117,119,121,123,125,-1,-1,-1,-1,-1,-1,-1,-1,-1,-1,-1,-1,-1,-1,-1,-1,-1,-1,-1,-1,-1,-1,-1,-1,-1,-1,-1,-1,-1,-1,-1,-1,-1,-1,-1,-1,-1,-1,-1,-1,-1,-1,-1,-1,-1,-1,-1,-1,-1,-1,-1,-1,-1,-1,-1,-1,-1,-1,-1,-1,-1,-1,-1,-1],"loss_changes":[5.05144E4,1.6735143E4,1.5025086E4,1.9997836E4,1.0586924E3,1.093965E4,1.5759023E3,8.663164E3,4.1362686E3,1.9535059E2,4.858865E1,3.951619E3,8.991203E3,8.243262E2,8.7233376E1,1.863625E3,3.007351E2,1.358773E3,2.1021738E3,1.3926172E2,1.3501416E2,2.028912E1,2.6584541E1,2.462308E3,3.2466306E3,3.1416465E3,8.589592E2,8.96543E1,6.064868E1,2.3444817E1,3.451553E1,3.1417572E1,2.2393203E3,8.496286E1,4.6260742E1,7.343876E2,7.558511E2,9.0690857E2,1.5873254E2,9.005078E1,5.863098E0,2.9802979E1,1.3347487E1,1.3377548E1,1.6627752E1,2.3100414E1,4.8180065E0,1.7715103E3,5.6328125E1,8.375154E2,8.0004767E2,2.1034316E3,1.686081E3,8.618153E2,5.118203E2,2.9871094E1,3.165039E1,3.3438126E1,1.5622864E1,3.129007E1,1.600747E1,2.4717497E1,1.7185175E1,0E0,0E0,0E0,0E0,0E0,0E0,0E0,0E0,0E0,0E0,0E0,0E0,0E0,0E0,0E0,0E0,0E0,0E0,0E0,0E0,0E0,0E0,0E0,0E0,0E0,0E0,0E0,0E0,0E0,0E0,0E0,0E0,0E0,0E0,0E0,0E0,0E0,0E0,0E0,0E0,0E0,0E0,0E0,0E0,0E0,0E0,0E0,0E0,0E0,0E0,0E0,0E0,0E0,0E0,0E0,0E0,0E0,0E0,0E0,0E0,0E0,0E0,0E0,0E0],"parents":[2147483647,0,0,1,1,2,2,3,3,4,4,5,5,6,6,7,7,8,8,9,9,10,10,11,11,12,12,13,13,14,14,15,15,16,16,17,17,18,18,19,19,20,20,21,21,22,22,23,23,24,24,25,25,26,26,27,27,28,28,29,29,30,30,31,31,32,32,33,33,34,34,35,35,36,36,37,37,38,38,39,39,40,40,41,41,42,42,43,43,44,44,45,45,46,46,47,47,48,48,49,49,50,50,51,51,52,52,53,53,54,54,55,55,56,56,57,57,58,58,59,59,60,60,61,61,62,62],"right_children":[2,4,6,8,10,12,14,16,18,20,22,24,26,28,30,32,34,36,38,40,42,44,46,48,50,52,54,56,58,60,62,64,66,68,70,72,74,76,78,80,82,84,86,88,90,92,94,96,98,100,102,104,106,108,110,112,114,116,118,120,122,124,126,-1,-1,-1,-1,-1,-1,-1,-1,-1,-1,-1,-1,-1,-1,-1,-1,-1,-1,-1,-1,-1,-1,-1,-1,-1,-1,-1,-1,-1,-1,-1,-1,-1,-1,-1,-1,-1,-1,-1,-1,-1,-1,-1,-1,-1,-1,-1,-1,-1,-1,-1,-1,-1,-1,-1,-1,-1,-1,-1,-1,-1,-1,-1,-1],"split_conditions":[4E0,4E0,4E0,3.3333334E-1,1E0,4E1,3.21E2,1E0,1E0,3E0,9.77E1,7E1,4.89E2,1E0,4.51E2,1E0,3E0,1E0,5.54E2,1E0,3.53E2,1.07E2,1E0,1E0,1E0,1E0,8E0,1E0,9.81E1,1E0,2.1E1,8.8E1,1E0,1E0,9.7E1,3E0,1.3E1,1E0,1E0,5E0,1.5E1,2E0,1.33E2,1.9E1,5.84E1,3.46E2,1.69E2,1.7E1,1.9E1,1E0,1E0,1E0,2E0,9.18E2,1.8E1,6E0,3E0,1E0,1E0,7.183488E1,9.92E1,4.36E1,9.6E1,-3.18422E-2,4.548767E-2,6.531751E-2,1.08991146E-1,-1.16952494E-1,-2.977109E-2,-5.5537045E-2,-7.7687256E-2,3.4858894E-2,-4.7964575E-3,7.8314625E-2,3.1687904E-2,-1.8387342E-2,-6.430202E-2,2.0355439E-2,8.1141494E-2,-5.1954985E-2,-9.2788324E-2,-1.1737912E-1,-9.643339E-2,-1.1275258E-1,-8.132279E-2,-6.7144565E-2,3.3641506E-2,3.6403824E-2,1.2427397E-1,-4.5395847E-2,9.5724836E-2,-7.0474865E-3,1.761415E-1,-7.786145E-2,8.505521E-2,3.793044E-2,1.2572289E-3,-4.6476346E-2,-5.3695787E-2,-5.8823418E-2,-1.7871141E-2,-3.8234235E-3,4.6552684E-2,-5.6535017E-2,-9.3749605E-2,-5.8515813E-2,-2.5323868E-2,-6.02594E-2,9.251378E-2,4.5013763E-2,-1.7585516E-3,-1.1234627E-1,-1.3815612E-1,-1.1553129E-1,-1.0567146E-1,-8.024918E-2,-3.7775267E-2,-8.005444E-2,-1.3190651E-1,-4.4892818E-2,-1.3240871E-1,2.0879209E-2,-8.1486106E-2,2.3541823E-1,2.5269294E-2,5.3806776E-1,-8.7765574E-2],"split_indices":[9,0,0,10,39,8,8,42,14,8,4,9,8,39,8,0,0,39,8,42,8,2,26,42,20,39,5,20,4,39,5,2,39,0,4,0,5,42,22,0,5,15,3,5,10,8,3,5,5,39,39,42,0,8,5,9,17,17,22,11,4,10,4,0,0,0,0,0,0,0,0,0,0,0,0,0,0,0,0,0,0,0,0,0,0,0,0,0,0,0,0,0,0,0,0,0,0,0,0,0,0,0,0,0,0,0,0,0,0,0,0,0,0,0,0,0,0,0,0,0,0,0,0,0,0,0,0],"split_type":[0,0,0,0,0,0,0,0,0,0,0,0,0,0,0,0,0,0,0,0,0,0,0,0,0,0,0,0,0,0,0,0,0,0,0,0,0,0,0,0,0,0,0,0,0,0,0,0,0,0,0,0,0,0,0,0,0,0,0,0,0,0,0,0,0,0,0,0,0,0,0,0,0,0,0,0,0,0,0,0,0,0,0,0,0,0,0,0,0,0,0,0,0,0,0,0,0,0,0,0,0,0,0,0,0,0,0,0,0,0,0,0,0,0,0,0,0,0,0,0,0,0,0,0,0,0,0],"sum_hessian":[2.253335E6,7.85134E5,1.468201E6,7.46586E5,3.8548E4,1.4217E6,4.6501E4,4.1901E5,3.27576E5,3.4268E4,4.28E3,3.97265E5,1.024435E6,4.2728E4,3.773E3,4.03416E5,1.5594E4,1.51298E5,1.76278E5,2.8512E4,5.756E3,1.248E3,3.032E3,2.40707E5,1.56558E5,8.30168E5,1.94267E5,3.7758E4,4.97E3,1.306E3,2.467E3,4.675E3,3.98741E5,9.015E3,6.579E3,6.9576E4,8.1722E4,1.49098E5,2.718E4,2.7388E4,1.124E3,5.442E3,3.14E2,1.154E3,9.4E1,2.895E3,1.37E2,2.30773E5,9.934E3,7.7381E4,7.9177E4,4.58065E5,3.72103E5,2.5343E4,1.68924E5,2.5507E4,1.2251E4,2.362E3,2.608E3,8.85E2,4.21E2,2.197E3,2.7E2,4.615E3,6E1,2.39888E5,1.58853E5,5.96E2,8.419E3,9.12E2,5.667E3,3.1437E4,3.8139E4,3.339E4,4.8332E4,1.4243E5,6.668E3,5.889E3,2.1291E4,2.6456E4,9.32E2,5.07E2,6.17E2,4.301E3,1.141E3,1.45E2,1.69E2,7.91E2,3.63E2,8.4E1,1E1,2.74E3,1.55E2,1.27E2,1E1,1.65357E5,6.5416E4,7.348E3,2.586E3,5.037E4,2.7011E4,4.8973E4,3.0204E4,4.41949E5,1.6116E4,4.7577E4,3.24526E5,1.8614E4,6.729E3,1.0854E5,6.0384E4,1.22E3,2.4287E4,1.1892E4,3.59E2,8.23E2,1.539E3,1.916E3,6.92E2,4.02E2,4.83E2,3.04E2,1.17E2,2.17E2,1.98E3,2.7E1,2.43E2],"tree_param":{"num_deleted":"0","num_feature":"44","num_nodes":"127","size_leaf_vector":"1"}},{"base_weights":[-6.019076E-3,1.8938908E-1,-1.10515445E-1,2.2131379E-1,-4.2890868E-1,-9.250609E-2,-6.6111135E-1,3.5868272E-1,4.560149E-2,-4.8586187E-1,2.7096473E-2,7.808988E-2,-1.3431771E-1,-7.144562E-1,-5.6968734E-2,3.8567042E-1,-3.3946776E-1,1.5990852E-1,-5.2507672E-2,-4.51691E-1,-6.547E-1,1.01960786E-1,-1.1509817E-1,2.0356287E-1,-2.1737875E-2,-1.6923179E-1,4.4646163E-2,-7.642152E-1,-3.3635083E-1,-2.2516556E-1,7.5212866E-2,3.321786E-1,4.645987E-1,-2.2482254E-1,-4.9650455E-1,6.346925E-2,2.4201265E-1,-9.6714266E-2,1.8998565E-1,-4.3772826E-1,-7.911111E-1,-6.9020545E-1,-3.809524E-2,1.2203264E-1,-3.909091E-1,-4.6601942E-1,-8.872727E-2,9.606764E-2,3.0655655E-1,-1.0847078E-1,1.7971732E-1,-7.3535785E-2,-2.1500497E-1,7.4457645E-2,-9.6592486E-2,-7.995531E-1,-6.9058114E-1,-2.2344477E-1,-4.3848217E-1,4.3548387E-1,-2.50625E-1,1.7352282E-1,-9.383033E-2,2.4648326E-2,1.2682064E-2,5.4219323E-3,2.5327181E-2,-2.8308207E-2,-1.0029691E-2,-1.978211E-2,-2.814628E-2,8.561295E-3,-1.267698E-3,1.756162E-2,8.327643E-3,-4.035638E-3,-2.1922328E-2,2.5721563E-3,1.1415086E-2,-2.1360783E-2,-3.6763128E-2,-4.4783466E-2,-3.5194173E-2,-3.8552962E-2,-3.1325694E-2,-5.0000004E-3,3.269231E-2,6.677953E-3,-3.3333335E-2,2.5E-2,-2.3762377E-2,-3.0555556E-2,2.5E-2,1.9197207E-3,-8.966376E-3,-1.2099485E-2,6.1452664E-3,1.6557949E-2,-1.1539849E-2,-9.921313E-3,-1.1238174E-3,1.4365325E-2,3.2403122E-3,8.702601E-4,-1.2414354E-2,-1.3331376E-2,-7.5878548E-3,5.7860613E-3,-3.6204528E-4,-8.2308175E-3,1.2160915E-2,-3.2022934E-2,-4.0375907E-2,-3.496174E-2,-2.013889E-2,-1.9114077E-2,-6.915584E-3,-1.9666146E-2,-2.8138528E-2,2.909091E-2,-3.125E-2,-1.7188985E-2,-3.5583943E-3,1.4330809E-2,4.578755E-4,-7.735584E-3,2.7205883E-2],"categories":[],"categories_nodes":[],"categories_segments":[],"categories_sizes":[],"default_left":[0,0,0,0,0,0,0,0,0,0,0,0,0,0,0,0,0,0,0,0,0,0,0,0,0,0,0,0,0,0,0,0,0,0,0,0,0,0,0,0,0,0,0,0,0,0,0,0,0,0,0,0,0,0,0,0,0,0,0,0,0,0,0,0,0,0,0,0,0,0,0,0,0,0,0,0,0,0,0,0,0,0,0,0,0,0,0,0,0,0,0,0,0,0,0,0,0,0,0,0,0,0,0,0,0,0,0,0,0,0,0,0,0,0,0,0,0,0,0,0,0,0,0,0,0,0,0],"id":5,"left_children":[1,3,5,7,9,11,13,15,17,19,21,23,25,27,29,31,33,35,37,39,41,43,45,47,49,51,53,55,57,59,61,63,65,67,69,71,73,75,77,79,81,83,85,87,89,91,93,95,97,99,101,103,105,107,109,111,113,115,117,119,121,123,125,-1,-1,-1,-1,-1,-1,-1,-1,-1,-1,-1,-1,-1,-1,-1,-1,-1,-1,-1,-1,-1,-1,-1,-1,-1,-1,-1,-1,-1,-1,-1,-1,-1,-1,-1,-1,-1,-1,-1,-1,-1,-1,-1,-1,-1,-1,-1,-1,-1,-1,-1,-1,-1,-1,-1,-1,-1,-1,-1,-1,-1,-1,-1,-1],"loss_changes":[4.6011887E4,1.549785E4,1.4558449E4,1.802066E4,1.001167E3,1.0140853E4,1.498623E3,7.894918E3,3.6736428E3,1.9741504E2,4.558428E1,3.5054062E3,7.134664E3,8.0365234E2,8.392249E1,1.7030781E3,2.806532E2,1.1979797E3,1.8896946E3,1.3474023E2,1.2620752E2,2.7797049E1,1.3626972E1,1.3728267E3,2.7232764E3,4.1851367E3,7.848465E2,9.769922E1,5.7223816E1,2.8046768E1,3.514806E1,3.0363398E3,2.4344258E3,7.445117E1,4.3859253E1,6.6594604E2,6.7347754E2,8.15272E2,1.4427594E2,8.532666E1,9.630005E0,2.7593018E1,1.3558242E1,2.4598064E1,8.50279E0,1.4742178E1,1.5843114E1,5.5052344E2,8.372583E2,8.4280457E2,5.799016E2,4.9129062E3,2.110162E3,5.188684E2,7.50985E2,3.1805664E1,3.023291E1,3.190023E1,1.4422363E1,9.985117E0,2.6723167E1,2.4850357E1,3.030102E1,0E0,0E0,0E0,0E0,0E0,0E0,0E0,0E0,0E0,0E0,0E0,0E0,0E0,0E0,0E0,0E0,0E0,0E0,0E0,0E0,0E0,0E0,0E0,0E0,0E0,0E0,0E0,0E0,0E0,0E0,0E0,0E0,0E0,0E0,0E0,0E0,0E0,0E0,0E0,0E0,0E0,0E0,0E0,0E0,0E0,0E0,0E0,0E0,0E0,0E0,0E0,0E0,0E0,0E0,0E0,0E0,0E0,0E0,0E0,0E0,0E0,0E0,0E0,0E0],"parents":[2147483647,0,0,1,1,2,2,3,3,4,4,5,5,6,6,7,7,8,8,9,9,10,10,11,11,12,12,13,13,14,14,15,15,16,16,17,17,18,18,19,19,20,20,21,21,22,22,23,23,24,24,25,25,26,26,27,27,28,28,29,29,30,30,31,31,32,32,33,33,34,34,35,35,36,36,37,37,38,38,39,39,40,40,41,41,42,42,43,43,44,44,45,45,46,46,47,47,48,48,49,49,50,50,51,51,52,52,53,53,54,54,55,55,56,56,57,57,58,58,59,59,60,60,61,61,62,62],"right_children":[2,4,6,8,10,12,14,16,18,20,22,24,26,28,30,32,34,36,38,40,42,44,46,48,50,52,54,56,58,60,62,64,66,68,70,72,74,76,78,80,82,84,86,88,90,92,94,96,98,100,102,104,106,108,110,112,114,116,118,120,122,124,126,-1,-1,-1,-1,-1,-1,-1,-1,-1,-1,-1,-1,-1,-1,-1,-1,-1,-1,-1,-1,-1,-1,-1,-1,-1,-1,-1,-1,-1,-1,-1,-1,-1,-1,-1,-1,-1,-1,-1,-1,-1,-1,-1,-1,-1,-1,-1,-1,-1,-1,-1,-1,-1,-1,-1,-1,-1,-1,-1,-1,-1,-1,-1,-1],"split_conditions":[4E0,4E0,4E0,3.3333334E-1,1E0,9E0,3.21E2,1E0,1E0,2E0,9.92E1,3E0,5.04E2,1E0,5.19E2,1E0,3E0,1E0,5.54E2,1E0,3.53E2,1E0,6.2E1,1E0,1E0,9.6E1,1E0,1E0,9.81E1,2.9692308E1,1.7E1,3E0,2E0,1E0,9.81E1,3E0,1.3E1,1E0,1E0,5E0,1.5E1,1E0,9E0,1.15E2,2E0,1.65E2,7.8E1,1E0,1E0,1E0,7.8E1,6.4E1,1E0,1.017E3,1.135E3,6E0,3E0,1E0,1E0,2.2E1,1E0,1.072E3,1.08E2,9.955163E-2,4.538498E-2,1.7708255E-2,1.110416E-1,-1.1110487E-1,-2.8282536E-2,-6.38029E-2,-7.63029E-2,3.311596E-2,-4.556632E-3,7.439889E-2,3.0103518E-2,-1.7467976E-2,-6.108692E-2,1.9337678E-2,7.708442E-2,-4.9357235E-2,-8.8148914E-2,-1.1151016E-1,-9.161173E-2,-1.1878162E-1,-8.651849E-2,-2.8978681E-2,2.4779275E-1,2.8407503E-2,-7.335693E-2,9.094372E-2,-6.4429E-2,-7.9195105E-2,1.7715105E-1,2.5060892E-3,-3.202514E-2,-3.3171173E-2,2.1677613E-2,7.2259545E-2,-2.9938286E-2,-3.4549832E-2,-4.46558E-3,5.6027364E-2,1.4785135E-2,3.2489419E-3,-5.537493E-2,-6.370826E-2,-3.822435E-2,4.7210168E-2,-2.4468245E-3,-4.2246427E-2,1.2016268E-1,-1.0672896E-1,-1.3124831E-1,-1.09754734E-1,-1.00387886E-1,-7.6236725E-2,-3.5886504E-2,-7.605171E-2,-1.2531118E-1,2.6695466E-1,-1.3513158E-1,-1.026417E-1,-3.0109012E-2,1.4609852E-1,3.2568455E-3,-4.472853E-2,4.5599267E-1],"split_indices":[9,0,0,10,39,8,8,42,14,8,4,0,8,39,8,39,0,39,8,42,8,26,2,20,39,8,7,20,4,10,5,0,0,0,4,0,5,42,22,0,5,21,14,2,5,3,2,0,42,20,9,9,39,8,8,9,17,17,22,5,39,8,2,0,0,0,0,0,0,0,0,0,0,0,0,0,0,0,0,0,0,0,0,0,0,0,0,0,0,0,0,0,0,0,0,0,0,0,0,0,0,0,0,0,0,0,0,0,0,0,0,0,0,0,0,0,0,0,0,0,0,0,0,0,0,0,0],"split_type":[0,0,0,0,0,0,0,0,0,0,0,0,0,0,0,0,0,0,0,0,0,0,0,0,0,0,0,0,0,0,0,0,0,0,0,0,0,0,0,0,0,0,0,0,0,0,0,0,0,0,0,0,0,0,0,0,0,0,0,0,0,0,0,0,0,0,0,0,0,0,0,0,0,0,0,0,0,0,0,0,0,0,0,0,0,0,0,0,0,0,0,0,0,0,0,0,0,0,0,0,0,0,0,0,0,0,0,0,0,0,0,0,0,0,0,0,0,0,0,0,0,0,0,0,0,0,0],"sum_hessian":[2.253335E6,7.85134E5,1.468201E6,7.46586E5,3.8548E4,1.4217E6,4.6501E4,4.1901E5,3.27576E5,3.4268E4,4.28E3,2.79856E5,1.141844E6,4.2728E4,3.773E3,4.03416E5,1.5594E4,1.51298E5,1.76278E5,2.8503E4,5.765E3,2.804E3,1.476E3,1.24E5,1.55856E5,9.55446E5,1.86398E5,3.7758E4,4.97E3,1.66E3,2.113E3,2.40457E5,1.62959E5,9.015E3,6.579E3,6.9576E4,8.1722E4,1.49098E5,2.718E4,2.7379E4,1.124E3,5.451E3,3.14E2,2.695E3,1.09E2,1.02E2,1.374E3,6.0675E4,6.3325E4,1.0895E5,4.6906E4,3.09141E5,6.46305E5,1.53912E5,3.2486E4,2.5507E4,1.2251E4,2.362E3,2.608E3,6.1E1,1.599E3,1.336E3,7.77E2,7.8907E4,1.6155E5,1.717E4,1.45789E5,5.96E2,8.419E3,2.615E3,3.964E3,3.1437E4,3.8139E4,3.339E4,4.8332E4,1.4243E5,6.668E3,5.889E3,2.1291E4,2.6447E4,9.32E2,5.07E2,6.17E2,2.397E3,3.054E3,2.89E2,2.5E1,2.657E3,3.8E1,9E0,1E2,8.9E1,1.3E1,5.72E2,8.02E2,4.462E3,5.6213E4,6.0553E4,2.772E3,5.3248E4,5.5702E4,2.4224E4,2.2682E4,2.03329E5,1.05812E5,3.55855E5,2.9045E5,1.02262E5,5.165E4,2.7068E4,5.418E3,1.22E3,2.4287E4,1.1892E4,3.59E2,8.23E2,1.539E3,1.916E3,6.92E2,5.4E1,7E0,1.052E3,5.47E2,7.91E2,5.45E2,7.1E2,6.7E1],"tree_param":{"num_deleted":"0","num_feature":"44","num_nodes":"127","size_leaf_vector":"1"}},{"base_weights":[-7.3646363E-3,1.7825215E-1,-1.06624976E-1,2.0897765E-1,-4.1682014E-1,-8.886819E-2,-6.4949894E-1,3.3876914E-1,4.295784E-2,-4.71855E-1,2.3826208E-2,3.0969994E-2,-1.4308468E-1,-7.0181847E-1,-5.6968734E-2,3.645657E-1,-3.2856685E-1,1.5169962E-1,-5.037469E-2,-4.3765786E-1,-6.408255E-1,9.5543675E-2,-1.1238998E-1,1.0870696E-1,-8.531863E-2,-1.8792307E-1,3.80042E-2,-7.512381E-1,-3.2629248E-1,-2.509564E-1,4.578606E-2,-2.1834901E-1,3.7140056E-1,-2.1949866E-1,-4.7796354E-1,5.9962343E-2,2.2980067E-1,-9.543924E-2,1.65457E-1,-4.2377648E-1,-7.7511114E-1,-6.755319E-1,-3.809524E-2,1.1535608E-1,-3.909091E-1,-4.6601942E-1,-8.581818E-2,1.2955865E-1,-3.607051E-1,-2.1148443E-1,5.1094975E-2,-2.3905912E-1,-1.2500213E-1,-1.2109375E-1,6.187361E-2,-7.8622395E-1,-6.783382E-1,-2.1498096E-1,-4.269835E-1,-3.3972913E-1,-6.398104E-2,1.0311871E-1,-1.9126819E-1,-1.1384316E-2,2.4590164E-2,1.5760206E-2,2.2813087E-2,-2.6800672E-2,-9.851544E-3,-1.39101865E-2,-2.5502821E-2,8.087347E-3,-1.1969062E-3,1.6579319E-2,7.973849E-3,-2.5038708E-2,-4.123529E-3,1.0541517E-3,1.039745E-2,-2.066508E-2,-3.6012862E-2,-4.3305084E-2,-3.3675373E-2,-3.817765E-2,-3.0310964E-2,-2.0714287E-2,3.4552848E-3,6.3393526E-3,-3.3333335E-2,2.5E-2,-2.3762377E-2,-2.9444445E-2,1.7857144E-2,1.7452007E-3,-8.592777E-3,8.828595E-3,-1.1908156E-3,-1.5542029E-2,-2.3423929E-2,-1.4199522E-2,-3.8676765E-3,-1.1517252E-3,8.415586E-3,-1.1342715E-2,-2.957275E-2,-1.4964501E-2,-5.0196275E-3,-1.1206017E-2,8.1946505E-3,2.3598783E-3,1.2501023E-2,-3.1040132E-2,-3.972538E-2,-3.4347937E-2,-1.9583335E-2,-1.8385923E-2,-6.6558444E-3,-1.9040167E-2,-2.7705628E-2,-9.840426E-3,-2.9411767E-2,2.9508197E-3,-1.9067798E-2,8.6206896E-4,1.048478E-2,-1.5948277E-2,7.0895525E-3],"categories":[],"categories_nodes":[],"categories_segments":[],"categories_sizes":[],"default_left":[0,0,0,0,0,0,0,0,0,0,0,0,0,0,0,0,0,0,0,0,0,0,0,0,0,0,0,0,0,0,0,0,0,0,0,0,0,0,0,0,0,0,0,0,0,0,0,0,0,0,0,0,0,0,0,0,0,0,0,0,0,0,0,0,0,0,0,0,0,0,0,0,0,0,0,0,0,0,0,0,0,0,0,0,0,0,0,0,0,0,0,0,0,0,0,0,0,0,0,0,0,0,0,0,0,0,0,0,0,0,0,0,0,0,0,0,0,0,0,0,0,0,0,0,0,0,0],"id":6,"left_children":[1,3,5,7,9,11,13,15,17,19,21,23,25,27,29,31,33,35,37,39,41,43,45,47,49,51,53,55,57,59,61,63,65,67,69,71,73,75,77,79,81,83,85,87,89,91,93,95,97,99,101,103,105,107,109,111,113,115,117,119,121,123,125,-1,-1,-1,-1,-1,-1,-1,-1,-1,-1,-1,-1,-1,-1,-1,-1,-1,-1,-1,-1,-1,-1,-1,-1,-1,-1,-1,-1,-1,-1,-1,-1,-1,-1,-1,-1,-1,-1,-1,-1,-1,-1,-1,-1,-1,-1,-1,-1,-1,-1,-1,-1,-1,-1,-1,-1,-1,-1,-1,-1,-1,-1,-1,-1],"loss_changes":[4.1516348E4,1.4355416E4,1.4152959E4,1.6087414E4,9.348594E2,9.237088E3,1.4415625E3,7.213379E3,3.324634E3,1.977373E2,4.1832165E1,4.0033218E3,7.948043E3,7.927363E2,7.523925E1,1.6073477E3,2.5400671E2,1.0840098E3,1.7145685E3,1.3319336E2,1.2059082E2,2.7079126E1,1.3838743E1,2.597988E3,3.0536936E3,2.5244004E3,7.3775476E2,9.576953E1,5.5623596E1,2.1672256E1,3.3562183E1,3.1118073E1,1.901418E3,6.401065E1,4.2041626E1,5.941757E2,5.849165E2,7.665414E2,1.8679224E2,8.47334E1,9.817261E0,3.279956E1,1.273194E1,2.418483E1,8.50279E0,1.0627893E1,1.4287599E1,1.8324624E3,6.0522217E1,8.9642676E2,7.407857E2,1.861418E3,1.5087305E3,7.4416736E2,4.6643274E2,3.4458984E1,3.000879E1,2.9497314E1,1.5106049E1,3.135199E1,1.6495825E1,1.8191635E1,2.0502531E1,0E0,0E0,0E0,0E0,0E0,0E0,0E0,0E0,0E0,0E0,0E0,0E0,0E0,0E0,0E0,0E0,0E0,0E0,0E0,0E0,0E0,0E0,0E0,0E0,0E0,0E0,0E0,0E0,0E0,0E0,0E0,0E0,0E0,0E0,0E0,0E0,0E0,0E0,0E0,0E0,0E0,0E0,0E0,0E0,0E0,0E0,0E0,0E0,0E0,0E0,0E0,0E0,0E0,0E0,0E0,0E0,0E0,0E0,0E0,0E0,0E0,0E0,0E0,0E0],"parents":[2147483647,0,0,1,1,2,2,3,3,4,4,5,5,6,6,7,7,8,8,9,9,10,10,11,11,12,12,13,13,14,14,15,15,16,16,17,17,18,18,19,19,20,20,21,21,22,22,23,23,24,24,25,25,26,26,27,27,28,28,29,29,30,30,31,31,32,32,33,33,34,34,35,35,36,36,37,37,38,38,39,39,40,40,41,41,42,42,43,43,44,44,45,45,46,46,47,47,48,48,49,49,50,50,51,51,52,52,53,53,54,54,55,55,56,56,57,57,58,58,59,59,60,60,61,61,62,62],"right_children":[2,4,6,8,10,12,14,16,18,20,22,24,26,28,30,32,34,36,38,40,42,44,46,48,50,52,54,56,58,60,62,64,66,68,70,72,74,76,78,80,82,84,86,88,90,92,94,96,98,100,102,104,106,108,110,112,114,116,118,120,122,124,126,-1,-1,-1,-1,-1,-1,-1,-1,-1,-1,-1,-1,-1,-1,-1,-1,-1,-1,-1,-1,-1,-1,-1,-1,-1,-1,-1,-1,-1,-1,-1,-1,-1,-1,-1,-1,-1,-1,-1,-1,-1,-1,-1,-1,-1,-1,-1,-1,-1,-1,-1,-1,-1,-1,-1,-1,-1,-1,-1,-1,-1,-1,-1,-1],"split_conditions":[4E0,4E0,4E0,3.3333334E-1,1E0,5.2E1,3.21E2,1E0,1E0,2E0,9.92E1,6.7E1,4.89E2,1E0,4.51E2,1E0,3E0,1E0,5.04E2,1E0,3.53E2,1E0,6.2E1,1E0,1E0,1E0,8E0,1E0,9.81E1,1E0,2E1,8.8E1,1E0,1E0,9.7E1,3E0,1.3E1,1E0,1E0,5E0,1.6E1,1E0,2E0,1.15E2,2E0,1.65E2,7.8E1,1.8E1,1E0,1E0,1E0,1E0,2E0,9.18E2,1.611E3,6E0,3E0,1E0,1E0,5.9142857E1,9.92E1,1E0,9.83E1,-3.1968832E-2,4.014888E-2,5.8949064E-2,9.882283E-2,-1.05549626E-1,-2.6868403E-2,-4.957005E-2,-6.998774E-2,3.1460166E-2,-4.3287994E-3,7.067894E-2,2.8598333E-2,-6.876959E-2,-1.7354125E-2,5.95963E-3,7.1526624E-2,-4.6889376E-2,-8.374147E-2,-1.0760134E-1,-8.262271E-2,-1.1284254E-1,-8.219256E-2,-8.405234E-2,3.0075049E-2,2.6987124E-2,-6.968908E-2,8.639653E-2,-6.120755E-2,-7.523536E-2,1.682935E-1,2.3807825E-3,-3.0423874E-2,3.309374E-2,-3.8672627E-3,-4.220555E-2,-5.9198793E-2,-5.582143E-2,-1.6527152E-2,-5.0756335E-3,3.9882112E-2,-5.302285E-2,-8.922457E-2,-5.7845473E-2,-2.4788499E-2,-5.5335503E-2,8.447137E-2,1.7117733E-2,1.2705207E-1,-1.0139251E-1,-1.246859E-1,-1.0426699E-1,-9.53685E-2,-7.242489E-2,-3.4092177E-2,-7.224913E-2,-1.1904563E-1,-6.0634818E-2,-1.2982285E-1,2.1340692E-2,-7.590635E-2,8.094025E-3,8.967631E-2,-8.3626136E-2,7.129293E-2],"split_indices":[9,0,0,10,39,8,8,42,14,8,4,9,8,39,8,0,0,39,8,42,8,26,2,42,20,39,5,20,4,39,5,2,39,0,4,0,5,0,22,0,5,21,14,2,5,3,2,5,7,39,39,42,0,8,8,9,17,17,22,10,4,39,2,0,0,0,0,0,0,0,0,0,0,0,0,0,0,0,0,0,0,0,0,0,0,0,0,0,0,0,0,0,0,0,0,0,0,0,0,0,0,0,0,0,0,0,0,0,0,0,0,0,0,0,0,0,0,0,0,0,0,0,0,0,0,0,0],"split_type":[0,0,0,0,0,0,0,0,0,0,0,0,0,0,0,0,0,0,0,0,0,0,0,0,0,0,0,0,0,0,0,0,0,0,0,0,0,0,0,0,0,0,0,0,0,0,0,0,0,0,0,0,0,0,0,0,0,0,0,0,0,0,0,0,0,0,0,0,0,0,0,0,0,0,0,0,0,0,0,0,0,0,0,0,0,0,0,0,0,0,0,0,0,0,0,0,0,0,0,0,0,0,0,0,0,0,0,0,0,0,0,0,0,0,0,0,0,0,0,0,0,0,0,0,0,0,0],"sum_hessian":[2.253335E6,7.85134E5,1.468201E6,7.46586E5,3.8548E4,1.4217E6,4.6501E4,4.1901E5,3.27576E5,3.4268E4,4.28E3,4.42847E5,9.78853E5,4.2728E4,3.773E3,4.03416E5,1.5594E4,1.51298E5,1.76278E5,2.8503E4,5.765E3,2.804E3,1.476E3,2.65419E5,1.77428E5,7.84586E5,1.94267E5,3.7758E4,4.97E3,1.306E3,2.467E3,4.675E3,3.98741E5,9.015E3,6.579E3,6.9576E4,8.1722E4,1.4583E5,3.0448E4,2.7379E4,1.124E3,5.451E3,3.14E2,2.695E3,1.09E2,1.02E2,1.374E3,2.54131E5,1.1288E4,9.2176E4,8.5252E4,4.32825E5,3.51761E5,2.5343E4,1.68924E5,2.5507E4,1.2251E4,2.362E3,2.608E3,8.85E2,4.21E2,1.987E3,4.8E2,4.615E3,6E1,2.39888E5,1.58853E5,5.96E2,8.419E3,9.12E2,5.667E3,3.1437E4,3.8139E4,3.339E4,4.8332E4,4.52E3,1.4131E5,6.924E3,2.3524E4,2.6447E4,9.32E2,5.89E2,5.35E2,2.397E3,3.054E3,6.9E1,2.45E2,2.657E3,3.8E1,9E0,1E2,8.9E1,1.3E1,5.72E2,8.02E2,1.94509E5,5.9622E4,7.72E3,3.568E3,5.9832E4,3.2344E4,5.2225E4,3.3027E4,4.18338E5,1.4487E4,4.3522E4,3.08239E5,1.8614E4,6.729E3,1.56702E5,1.2222E4,1.22E3,2.4287E4,1.1892E4,3.59E2,8.23E2,1.539E3,1.916E3,6.92E2,5.63E2,3.22E2,3.04E2,1.17E2,1.101E3,8.86E2,3.47E2,1.33E2],"tree_param":{"num_deleted":"0","num_feature":"44","num_nodes":"127","size_leaf_vector":"1"}},{"base_weights":[-8.402209E-3,1.6840416E-1,-1.02951095E-1,1.9781485E-1,-4.0120366E-1,-8.5532755E-2,-6.35478E-1,3.2113716E-1,4.0069968E-2,-4.5417142E-1,2.2891847E-2,7.154368E-2,-1.2403084E-1,-6.866531E-1,-5.590885E-2,3.4558782E-1,-3.1138185E-1,1.4297517E-1,-4.8253052E-2,-4.198358E-1,-6.2382936E-1,1.6973579E-1,-3.7586547E-2,1.8932106E-1,-2.216134E-2,-1.5611123E-1,4.040794E-2,-7.3555976E-1,-3.1502715E-1,-1.9087572E-1,8.190578E-2,1.111837E-1,3.6174807E-1,-2.046362E-1,-4.5759878E-1,2.27545E-1,6.594004E-2,-8.918372E-2,1.6695066E-1,-4.0639153E-1,-7.4666667E-1,-6.5719E-1,-4.4444446E-2,1.8299595E-1,-4.6666667E-2,-7.4301034E-2,1.891253E-1,8.762938E-2,2.8675425E-1,-1.0219273E-1,1.6372822E-1,-6.993999E-2,-2.0108154E-1,6.776556E-2,-8.9204915E-2,-7.7360046E-1,-6.56301E-1,-2.0651715E-1,-4.1318512E-1,-2.6757532E-1,1.7509727E-2,2.1912833E-1,-2.6845638E-2,-1.0596664E-2,9.098149E-3,2.3367103E-2,1.4785721E-2,-2.3785595E-2,-9.269596E-3,-1.3581599E-2,-2.4373678E-2,1.3558854E-2,-1.4445081E-3,-1.3055959E-3,7.111676E-3,-3.403843E-3,-1.6525352E-2,2.2101684E-3,1.0070471E-2,-1.9810572E-2,-3.472669E-2,-4.161017E-2,-3.255597E-2,-3.4864303E-2,-2.5262697E-2,-2.0714287E-2,3.0487806E-3,3.188406E-2,7.7977725E-3,-1.6817594E-3,-1.9795222E-2,-2.6845639E-3,1.6E-2,-1.1808201E-2,5.666738E-3,1.5454801E-2,-1.0061306E-2,-9.233977E-3,-1.1669031E-3,1.3192983E-2,2.8391306E-3,8.4560254E-4,-1.1405888E-2,-1.2389291E-2,-7.1982197E-3,5.412515E-3,-6.195427E-4,-7.602793E-3,1.1238236E-2,-3.0630631E-2,-3.908309E-2,-3.323804E-2,-1.875E-2,-1.8021844E-2,-6.2012984E-3,-1.841419E-2,-2.6839826E-2,-1.7868675E-2,-4.3991418E-3,5.6532663E-3,-1.5384616E-2,1.8491736E-2,2.915452E-4,-4.0356396E-3,2.7222222E-2],"categories":[],"categories_nodes":[],"categories_segments":[],"categories_sizes":[],"default_left":[0,0,0,0,0,0,0,0,0,0,0,0,0,0,0,0,0,0,0,0,0,0,0,0,0,0,0,0,0,0,0,0,0,0,0,0,0,0,0,0,0,0,0,0,0,0,0,0,0,0,0,0,0,0,0,0,0,0,0,0,0,0,0,0,0,0,0,0,0,0,0,0,0,0,0,0,0,0,0,0,0,0,0,0,0,0,0,0,0,0,0,0,0,0,0,0,0,0,0,0,0,0,0,0,0,0,0,0,0,0,0,0,0,0,0,0,0,0,0,0,0,0,0,0,0],"id":7,"left_children":[1,3,5,7,9,11,13,15,17,19,21,23,25,27,29,31,33,35,37,39,41,43,45,47,49,51,53,55,57,59,61,63,65,67,69,71,73,75,77,79,81,83,85,87,-1,89,91,93,95,97,99,101,103,105,107,109,111,113,115,117,119,121,123,-1,-1,-1,-1,-1,-1,-1,-1,-1,-1,-1,-1,-1,-1,-1,-1,-1,-1,-1,-1,-1,-1,-1,-1,-1,-1,-1,-1,-1,-1,-1,-1,-1,-1,-1,-1,-1,-1,-1,-1,-1,-1,-1,-1,-1,-1,-1,-1,-1,-1,-1,-1,-1,-1,-1,-1,-1,-1,-1,-1,-1,-1],"loss_changes":[3.7668688E4,1.3153102E4,1.3618598E4,1.45236875E4,8.659512E2,8.597239E3,1.3791855E3,6.480324E3,2.9773208E3,1.9936572E2,3.802545E1,3.0885986E3,6.023533E3,7.763672E2,7.021358E1,1.5281172E3,2.4331348E2,9.8567505E2,1.5527561E3,1.2494336E2,1.11420166E2,1.8439766E1,2.525956E1,1.2285947E3,2.3187014E3,3.7024844E3,6.609579E2,1.1333789E2,5.286145E1,3.048442E1,2.788232E1,5.951157E2,2.6313672E3,4.694516E1,3.6424194E1,8.0696655E2,5.560679E2,7.543872E2,1.19142334E2,8.003906E1,8.652527E0,3.286133E1,1.2306698E1,1.5084778E1,0E0,3.413406E1,1.3459507E1,5.050472E2,6.9046387E2,7.0866406E2,5.0229407E2,4.501115E3,1.6747188E3,4.9946613E2,6.411095E2,3.2625E1,2.8907227E1,2.9958359E1,1.4283081E1,2.2449715E1,1.6007277E1,2.6549854E1,3.2140984E1,0E0,0E0,0E0,0E0,0E0,0E0,0E0,0E0,0E0,0E0,0E0,0E0,0E0,0E0,0E0,0E0,0E0,0E0,0E0,0E0,0E0,0E0,0E0,0E0,0E0,0E0,0E0,0E0,0E0,0E0,0E0,0E0,0E0,0E0,0E0,0E0,0E0,0E0,0E0,0E0,0E0,0E0,0E0,0E0,0E0,0E0,0E0,0E0,0E0,0E0,0E0,0E0,0E0,0E0,0E0,0E0,0E0,0E0,0E0,0E0,0E0,0E0],"parents":[2147483647,0,0,1,1,2,2,3,3,4,4,5,5,6,6,7,7,8,8,9,9,10,10,11,11,12,12,13,13,14,14,15,15,16,16,17,17,18,18,19,19,20,20,21,21,22,22,23,23,24,24,25,25,26,26,27,27,28,28,29,29,30,30,31,31,32,32,33,33,34,34,35,35,36,36,37,37,38,38,39,39,40,40,41,41,42,42,43,43,45,45,46,46,47,47,48,48,49,49,50,50,51,51,52,52,53,53,54,54,55,55,56,56,57,57,58,58,59,59,60,60,61,61,62,62],"right_children":[2,4,6,8,10,12,14,16,18,20,22,24,26,28,30,32,34,36,38,40,42,44,46,48,50,52,54,56,58,60,62,64,66,68,70,72,74,76,78,80,82,84,86,88,-1,90,92,94,96,98,100,102,104,106,108,110,112,114,116,118,120,122,124,-1,-1,-1,-1,-1,-1,-1,-1,-1,-1,-1,-1,-1,-1,-1,-1,-1,-1,-1,-1,-1,-1,-1,-1,-1,-1,-1,-1,-1,-1,-1,-1,-1,-1,-1,-1,-1,-1,-1,-1,-1,-1,-1,-1,-1,-1,-1,-1,-1,-1,-1,-1,-1,-1,-1,-1,-1,-1,-1,-1,-1,-1],"split_conditions":[4E0,4E0,4E0,3.3333334E-1,1E0,9E0,3.21E2,1E0,1E0,2E0,9.77E1,3E0,5.04E2,1E0,5.73E2,2E0,3E0,1.4E1,5.36E2,1E0,3.53E2,1.15E2,1.58E2,1E0,1E0,1.02E2,1E0,1E0,9.81E1,1.31E2,1.4E1,1E0,3E0,1E0,9.7E1,1.45E2,1E0,6E0,1E0,5E0,1.6E1,2E0,2E0,1E0,-7.472375E-2,1E0,1.1E1,1E0,1E0,1E0,7.8E1,6.2E1,1E0,1.017E3,1.135E3,6E0,3E0,1E0,1E0,1E0,2E1,1.135E3,1.09E2,-2.8969502E-2,3.1881716E-2,9.995995E-2,5.6381702E-2,-1.0027214E-1,-2.5524987E-2,-4.7091544E-2,-6.648835E-2,5.4443754E-2,-6.6123605E-3,-4.5836805E-3,2.5328148E-2,-1.42876385E-2,-6.09543E-2,1.5572834E-2,6.882055E-2,-4.4544913E-2,-7.95544E-2,-1.0222125E-1,-7.849157E-2,-9.6416265E-2,-6.882109E-2,-7.984971E-2,2.8571296E-2,1.5984064E-1,4.1660603E-2,-6.952149E-3,-6.0588587E-2,-1.5189916E-2,4.2260695E-2,-3.24112E-2,2.0226598E-2,6.77002E-2,-2.6554143E-2,-3.214402E-2,-4.821849E-3,5.1750984E-2,1.3158346E-2,3.1321289E-3,-5.0441362E-2,-5.8656085E-2,-3.507371E-2,4.3993782E-2,-4.300523E-3,-3.9033998E-2,1.09716974E-1,-9.632288E-2,-1.18451595E-1,-9.905364E-2,-9.060008E-2,-6.8803646E-2,-3.2387566E-2,-6.863667E-2,-1.1309334E-1,-9.985302E-2,-3.672359E-2,4.994459E-2,-8.921582E-2,2.0311181E-1,1.9053102E-3,-2.1792877E-2,5.071494E-1],"split_indices":[9,0,0,10,39,8,8,42,14,8,4,0,8,39,8,0,0,5,8,42,8,2,3,20,39,8,7,20,4,9,5,0,0,0,4,8,39,17,22,0,5,15,14,5,0,28,5,0,42,20,9,9,39,8,8,9,17,17,22,39,5,8,2,0,0,0,0,0,0,0,0,0,0,0,0,0,0,0,0,0,0,0,0,0,0,0,0,0,0,0,0,0,0,0,0,0,0,0,0,0,0,0,0,0,0,0,0,0,0,0,0,0,0,0,0,0,0,0,0,0,0,0,0,0,0],"split_type":[0,0,0,0,0,0,0,0,0,0,0,0,0,0,0,0,0,0,0,0,0,0,0,0,0,0,0,0,0,0,0,0,0,0,0,0,0,0,0,0,0,0,0,0,0,0,0,0,0,0,0,0,0,0,0,0,0,0,0,0,0,0,0,0,0,0,0,0,0,0,0,0,0,0,0,0,0,0,0,0,0,0,0,0,0,0,0,0,0,0,0,0,0,0,0,0,0,0,0,0,0,0,0,0,0,0,0,0,0,0,0,0,0,0,0,0,0,0,0,0,0,0,0,0,0],"sum_hessian":[2.253335E6,7.85134E5,1.468201E6,7.46586E5,3.8548E4,1.4217E6,4.6501E4,4.1901E5,3.27576E5,3.4268E4,4.28E3,2.79856E5,1.141844E6,4.2728E4,3.773E3,4.03416E5,1.5594E4,1.51298E5,1.76278E5,2.8503E4,5.765E3,1.248E3,3.032E3,1.24E5,1.55856E5,9.55446E5,1.86398E5,3.7758E4,4.97E3,1.906E3,1.867E3,2.6019E4,3.77397E5,9.015E3,6.579E3,7.2121E4,7.9177E4,1.48109E5,2.8169E4,2.7379E4,1.124E3,5.451E3,3.14E2,1.234E3,1.4E1,2.61E3,4.22E2,6.0675E4,6.3325E4,1.0895E5,4.6906E4,3.27637E5,6.27809E5,1.53912E5,3.2486E4,2.5507E4,1.2251E4,2.362E3,2.608E3,1.393E3,5.13E2,8.25E2,1.042E3,4.675E3,2.1344E4,1.45201E5,2.32196E5,5.96E2,8.419E3,9.12E2,5.667E3,6.1634E4,1.0487E4,3.5883E4,4.3294E4,1.36198E5,1.1911E4,6.175E3,2.1994E4,2.6447E4,9.32E2,5.89E2,5.35E2,4.31E3,1.141E3,6.9E1,2.45E2,6.8E1,1.166E3,2.318E3,2.92E2,1.48E2,2.74E2,4.462E3,5.6213E4,6.0553E4,2.772E3,5.3248E4,5.5702E4,2.4224E4,2.2682E4,2.11505E5,1.16132E5,3.45386E5,2.82423E5,1.02262E5,5.165E4,2.7068E4,5.418E3,1.22E3,2.4287E4,1.1892E4,3.59E2,8.23E2,1.539E3,1.916E3,6.92E2,9.28E2,4.65E2,3.97E2,1.16E2,4.83E2,3.42E2,9.53E2,8.9E1],"tree_param":{"num_deleted":"0","num_feature":"44","num_nodes":"125","size_leaf_vector":"1"}},{"base_weights":[-9.022622E-3,1.5171275E-1,-1.0217768E-1,2.2231303E-1,-5.884081E-2,-8.4950164E-2,-6.248462E-1,2.5831747E-1,-3.694036E-1,-9.818618E-2,1.6006956E-1,5.9608042E-2,-1.2071373E-1,-6.7695385E-1,-8.57214E-2,2.7744603E-1,-3.1622887E-1,-4.1616175E-1,3.741125E-2,-8.7126024E-2,-6.25969E-1,-3.1535793E-2,1.814125E-1,1.7381503E-1,-2.9721588E-2,-1.5157962E-1,3.6528375E-2,-7.2479236E-1,-3.095736E-1,-2.637157E-1,3.2780085E-2,3.121271E-1,6.964971E-2,-2.3949653E-1,-4.3749142E-1,-4.0427265E-1,-7.3408896E-1,1.3238636E-1,-5.0446663E-2,-7.131962E-2,-4.1985416E-1,-6.84522E-1,-1.5671642E-1,-1.773399E-1,3.1522897E-1,6.648597E-2,2.1388976E-1,6.463264E-2,2.7420643E-1,-1.04781464E-1,1.4562622E-1,-2.0429957E-1,-8.7919034E-2,-1.2509656E-1,5.7326227E-2,-7.658669E-1,-6.4064056E-1,-1.4760147E-1,-3.7346938E-1,2.1929824E-1,-3.004695E-1,6.89334E-2,-2.6136363E-1,1.3641383E-2,2.039455E-2,5.202029E-3,-3.744848E-3,-9.82416E-3,-2.0295983E-2,-1.2887068E-2,-2.3465266E-2,-1.9230071E-2,-2.8742516E-2,-4.2330097E-2,-3.206951E-2,8.292831E-3,-1.7391305E-2,-1.6758243E-3,-2.0833334E-2,1.5363385E-3,-6.107075E-3,-1.771526E-2,-3.0824373E-2,-3.6404133E-2,-1.908867E-2,-1.7125985E-2,8.053691E-3,-8.3447965E-3,-3.018868E-2,-1.6216217E-2,1.7054265E-2,-1.9457014E-2,4.155651E-3,1.2635598E-2,7.3673273E-3,6.7702653E-3,-1.8373812E-3,1.47355525E-2,-9.453861E-3,-9.581771E-3,-1.178533E-3,2.337992E-3,1.1383406E-2,-5.9783175E-3,-1.3471072E-2,1.2792458E-4,-7.0224553E-3,-1.0824579E-2,8.077077E-3,5.7764845E-3,2.3336077E-5,-3.8899217E-2,-3.317418E-2,-3.345529E-2,-2.722826E-2,-3.380589E-3,-1.571754E-2,-2.1821072E-2,-1.3018714E-2,-9.210526E-3,2.077922E-2,-1.9096602E-2,-2.8074866E-3,1.9248826E-2,1.7054264E-3,2.2222223E-2,-1.7016808E-2],"categories":[],"categories_nodes":[],"categories_segments":[],"categories_sizes":[],"default_left":[0,0,0,0,0,0,0,0,0,0,0,0,0,0,0,0,0,0,0,0,0,0,0,0,0,0,0,0,0,0,0,0,0,0,0,0,0,0,0,0,0,0,0,0,0,0,0,0,0,0,0,0,0,0,0,0,0,0,0,0,0,0,0,0,0,0,0,0,0,0,0,0,0,0,0,0,0,0,0,0,0,0,0,0,0,0,0,0,0,0,0,0,0,0,0,0,0,0,0,0,0,0,0,0,0,0,0,0,0,0,0,0,0,0,0,0,0,0,0,0,0,0,0,0,0,0,0],"id":8,"left_children":[1,3,5,7,9,11,13,15,17,19,21,23,25,27,29,31,33,35,37,39,41,43,45,47,49,51,53,55,57,59,61,63,65,67,69,71,73,75,77,79,81,83,85,87,89,91,93,95,97,99,101,103,105,107,109,111,113,115,117,119,121,123,125,-1,-1,-1,-1,-1,-1,-1,-1,-1,-1,-1,-1,-1,-1,-1,-1,-1,-1,-1,-1,-1,-1,-1,-1,-1,-1,-1,-1,-1,-1,-1,-1,-1,-1,-1,-1,-1,-1,-1,-1,-1,-1,-1,-1,-1,-1,-1,-1,-1,-1,-1,-1,-1,-1,-1,-1,-1,-1,-1,-1,-1,-1,-1,-1],"loss_changes":[3.373992E4,1.2290109E4,1.2845128E4,1.3191018E4,1.7881919E3,7.1398945E3,1.2787148E3,6.414535E3,6.755596E2,1.0272155E3,1.2935419E2,2.7944128E3,5.373419E3,7.292754E2,8.465321E1,4.0705938E3,1.7488062E2,1.20103516E2,3.0563562E1,9.065099E2,9.9136475E1,1.603808E2,1.0621271E2,1.3176448E3,2.0228585E3,3.106041E3,6.10672E2,1.2644922E2,4.9456085E1,2.854103E1,2.5646606E1,1.8216133E3,4.0162173E2,8.238519E1,4.155017E1,1.0281543E2,1.1419922E1,2.8345879E1,1.1784958E1,8.5341724E2,1.00535645E2,4.2068604E1,2.3791851E1,9.844269E0,1.5638374E1,4.7547264E1,5.728479E1,4.131889E2,5.949873E2,7.5911914E2,3.736717E2,2.793377E3,1.9925505E3,5.4263324E2,5.326709E2,3.0094727E1,3.2595215E1,1.8052042E1,2.4306488E1,9.105719E0,2.9653793E1,2.3617094E1,1.4866468E1,0E0,0E0,0E0,0E0,0E0,0E0,0E0,0E0,0E0,0E0,0E0,0E0,0E0,0E0,0E0,0E0,0E0,0E0,0E0,0E0,0E0,0E0,0E0,0E0,0E0,0E0,0E0,0E0,0E0,0E0,0E0,0E0,0E0,0E0,0E0,0E0,0E0,0E0,0E0,0E0,0E0,0E0,0E0,0E0,0E0,0E0,0E0,0E0,0E0,0E0,0E0,0E0,0E0,0E0,0E0,0E0,0E0,0E0,0E0,0E0,0E0,0E0,0E0,0E0],"parents":[2147483647,0,0,1,1,2,2,3,3,4,4,5,5,6,6,7,7,8,8,9,9,10,10,11,11,12,12,13,13,14,14,15,15,16,16,17,17,18,18,19,19,20,20,21,21,22,22,23,23,24,24,25,25,26,26,27,27,28,28,29,29,30,30,31,31,32,32,33,33,34,34,35,35,36,36,37,37,38,38,39,39,40,40,41,41,42,42,43,43,44,44,45,45,46,46,47,47,48,48,49,49,50,50,51,51,52,52,53,53,54,54,55,55,56,56,57,57,58,58,59,59,60,60,61,61,62,62],"right_children":[2,4,6,8,10,12,14,16,18,20,22,24,26,28,30,32,34,36,38,40,42,44,46,48,50,52,54,56,58,60,62,64,66,68,70,72,74,76,78,80,82,84,86,88,90,92,94,96,98,100,102,104,106,108,110,112,114,116,118,120,122,124,126,-1,-1,-1,-1,-1,-1,-1,-1,-1,-1,-1,-1,-1,-1,-1,-1,-1,-1,-1,-1,-1,-1,-1,-1,-1,-1,-1,-1,-1,-1,-1,-1,-1,-1,-1,-1,-1,-1,-1,-1,-1,-1,-1,-1,-1,-1,-1,-1,-1,-1,-1,-1,-1,-1,-1,-1,-1,-1,-1,-1,-1,-1,-1,-1],"split_conditions":[5E0,1E0,4E0,4E0,5.54E2,9E0,2.99E2,1E0,1E0,4E0,7E0,3E0,5.04E2,1E0,4.51E2,1.3E1,3E0,1E0,9.81E1,1E0,2.84E2,1.017E3,1E0,1E0,1E0,1E0,7E0,1E0,9.77E1,3.25E1,2.1E1,1E0,1E0,1E0,9.7E1,3E0,1.5E1,1.06E2,1E0,1E2,5E0,1E0,1E0,1.9E2,3.675E1,3.4E1,1.8E1,1.6E1,1E0,1E0,1E0,3E0,1.09E2,9.66E2,1.6E1,1.01E2,1.48E2,1E0,1E0,1.1E1,1.31E2,4.36E1,9.6E1,5.2349187E-2,8.721705E-2,2.1261657E-2,-1.748668E-2,-2.674873E-2,-5.1534623E-2,-4.140364E-2,-6.255283E-2,-4.31734E-2,-7.538003E-2,-9.58602E-2,-7.897543E-2,3.8590934E-2,-4.7145486E-2,-5.72505E-3,-6.0732603E-2,5.251396E-3,-2.7892698E-2,-5.0451227E-2,-7.4348465E-2,-1.0071293E-1,-7.0800655E-2,-7.731812E-2,6.433632E-2,-4.294554E-2,-1.0906573E-1,-1.06834196E-1,1.7669098E-1,-6.652708E-2,2.9683067E-2,9.287951E-2,4.196284E-2,2.394414E-2,-6.1138393E-3,6.45211E-2,-2.524277E-2,-3.3036828E-2,-4.58076E-3,8.9837555E-3,5.343764E-2,-2.6556624E-2,-6.077224E-2,5.8029295E-4,-3.4986686E-2,-5.124898E-2,8.7964796E-2,5.0463915E-2,1.2743473E-4,-1.1338582E-1,-1.0171916E-1,-9.826764E-2,-8.076763E-2,-1.3694239E-2,-8.322468E-2,-8.68715E-2,-4.9943812E-2,-9.284702E-2,1.8385062E-1,-9.16306E-2,-2.3008501E-2,2.209127E-1,1.2804962E-2,4.8367175E-1,-8.2536586E-2],"split_indices":[9,14,0,0,8,8,8,42,39,0,5,0,8,39,8,10,0,42,4,42,8,8,22,20,39,39,5,20,4,10,5,19,20,8,4,8,5,2,26,8,17,39,39,3,10,11,5,5,42,20,20,0,8,8,5,2,3,14,20,5,9,10,4,0,0,0,0,0,0,0,0,0,0,0,0,0,0,0,0,0,0,0,0,0,0,0,0,0,0,0,0,0,0,0,0,0,0,0,0,0,0,0,0,0,0,0,0,0,0,0,0,0,0,0,0,0,0,0,0,0,0,0,0,0,0,0,0],"split_type":[0,0,0,0,0,0,0,0,0,0,0,0,0,0,0,0,0,0,0,0,0,0,0,0,0,0,0,0,0,0,0,0,0,0,0,0,0,0,0,0,0,0,0,0,0,0,0,0,0,0,0,0,0,0,0,0,0,0,0,0,0,0,0,0,0,0,0,0,0,0,0,0,0,0,0,0,0,0,0,0,0,0,0,0,0,0,0,0,0,0,0,0,0,0,0,0,0,0,0,0,0,0,0,0,0,0,0,0,0,0,0,0,0,0,0,0,0,0,0,0,0,0,0,0,0,0,0],"sum_hessian":[2.253335E6,8.26772E5,1.426563E6,6.19162E5,2.0761E5,1.381044E6,4.5519E4,5.83649E5,3.5513E4,1.75981E5,3.1629E4,2.73905E5,1.107139E6,4.1507E4,4.012E3,5.64844E5,1.8805E4,3.1852E4,3.661E3,1.7237E5,3.611E3,3.17E3,2.8459E4,1.20213E5,1.53692E5,9.25473E5,1.81666E5,3.6724E4,4.783E3,1.603E3,2.409E3,4.84055E5,8.0789E4,1.1519E4,7.286E3,3.0706E4,1.146E3,1.759E3,1.902E3,1.64554E5,7.816E3,3.21E3,4.01E2,2.232E3,9.38E2,6.271E3,2.2188E4,5.7586E4,6.2627E4,1.07623E5,4.6069E4,5.06236E5,4.19237E5,2.0711E4,1.60955E5,2.4673E4,1.2051E4,1.354E3,3.429E3,1.13E2,1.49E3,2.146E3,2.63E2,3.43212E5,1.40843E5,6.5262E4,1.5527E4,9.155E3,2.364E3,1.097E3,6.189E3,2.7534E4,3.172E3,5.14E2,6.32E2,1.645E3,1.14E2,1.819E3,8.3E1,5.4707E4,1.09847E5,5.864E3,1.952E3,2.805E3,4.05E2,2.53E2,1.48E2,2.18E3,5.2E1,3.6E1,9.02E2,2.2E2,6.051E3,1.4011E4,8.177E3,3.3912E4,2.3674E4,5.9973E4,2.654E3,5.2004E4,5.5619E4,2.0893E4,2.5176E4,2.19994E5,2.86242E5,1.53996E5,2.65241E5,1.5704E4,5.007E3,7.9537E4,8.1418E4,2.2056E4,2.617E3,9.292E3,2.759E3,9.16E2,4.38E2,2.201E3,1.228E3,3.7E1,7.6E1,1.117E3,3.73E2,2.12E2,1.934E3,2.6E1,2.37E2],"tree_param":{"num_deleted":"0","num_feature":"44","num_nodes":"127","size_leaf_vector":"1"}},{"base_weights":[-9.982976E-3,1.4318562E-1,-9.875267E-2,1.6927937E-1,-3.7646404E-1,-8.1890166E-2,-6.103471E-1,2.895645E-1,2.8858464E-2,-4.254507E-1,1.2666818E-2,1.569805E-2,-1.3136002E-1,-6.6143876E-1,-8.173437E-2,3.1185955E-1,-2.8569624E-1,1.2535277E-1,-4.6947896E-2,-3.8662526E-1,-5.980453E-1,7.822776E-2,-1.10893674E-1,8.3431534E-2,-9.703671E-2,-1.7476681E-1,2.7743982E-2,-7.085636E-1,-2.9954013E-1,-2.5E-1,3.0290456E-2,2.6246235E-1,3.8427383E-1,-1.8338233E-1,-4.2717278E-1,2.0553961E-1,5.2107904E-2,-8.243609E-2,1.4876378E-1,-3.7297985E-1,-7.181979E-1,-6.317778E-1,-2.770083E-2,9.815951E-2,-3.8655463E-1,-4.722222E-1,-8.345021E-2,1.0148959E-1,-3.4972018E-1,-2.0614949E-1,2.651177E-2,-1.6771793E-1,-5.694609E-1,-1.1190734E-1,4.8873547E-2,-7.4941236E-1,-6.2487555E-1,-1.3579336E-1,-3.6413994E-1,-3.3724076E-1,-5.4435484E-2,6.5207265E-2,-2.5378788E-1,2.0563168E-2,9.470593E-3,2.8438854E-3,2.1156654E-2,-2.210265E-2,-8.257576E-3,-1.6345063E-2,-2.4668502E-2,1.2201097E-2,-2.850405E-3,-1.513522E-3,6.0642776E-3,-3.3452343E-3,-2.0528143E-2,-1.6970861E-3,8.453135E-3,-1.813003E-2,-3.3280253E-2,-4.116162E-2,-3.005566E-2,-3.5981145E-2,-2.767608E-2,-1.8666668E-2,3.1358886E-3,3.7861492E-3,2.5347222E-2,1.6666668E-3,-2.6111111E-2,-3.2738097E-2,8E-3,1.5075378E-3,-8.253012E-3,8.14768E-3,-1.0150465E-3,-1.51458355E-2,-2.3968821E-2,-1.3575724E-2,-4.2358497E-3,3.0512253E-3,-8.069982E-3,-1.5215394E-2,-7.548044E-3,-2.5167465E-2,-3.3013728E-2,-9.611617E-3,7.921881E-3,1.7582827E-3,1.1569763E-2,-3.808768E-2,-3.225745E-2,-3.262671E-2,-2.6576087E-2,-2.8353326E-3,-1.5034169E-2,-2.12307E-2,-1.2774614E-2,-1.0016421E-2,-2.5149701E-2,3.478261E-2,-4.535865E-3,4.814815E-2,2.6874116E-3,2.2222223E-2,-1.659664E-2],"categories":[],"categories_nodes":[],"categories_segments":[],"categories_sizes":[],"default_left":[0,0,0,0,0,0,0,0,0,0,0,0,0,0,0,0,0,0,0,0,0,0,0,0,0,0,0,0,0,0,0,0,0,0,0,0,0,0,0,0,0,0,0,0,0,0,0,0,0,0,0,0,0,0,0,0,0,0,0,0,0,0,0,0,0,0,0,0,0,0,0,0,0,0,0,0,0,0,0,0,0,0,0,0,0,0,0,0,0,0,0,0,0,0,0,0,0,0,0,0,0,0,0,0,0,0,0,0,0,0,0,0,0,0,0,0,0,0,0,0,0,0,0,0,0,0,0],"id":9,"left_children":[1,3,5,7,9,11,13,15,17,19,21,23,25,27,29,31,33,35,37,39,41,43,45,47,49,51,53,55,57,59,61,63,65,67,69,71,73,75,77,79,81,83,85,87,89,91,93,95,97,99,101,103,105,107,109,111,113,115,117,119,121,123,125,-1,-1,-1,-1,-1,-1,-1,-1,-1,-1,-1,-1,-1,-1,-1,-1,-1,-1,-1,-1,-1,-1,-1,-1,-1,-1,-1,-1,-1,-1,-1,-1,-1,-1,-1,-1,-1,-1,-1,-1,-1,-1,-1,-1,-1,-1,-1,-1,-1,-1,-1,-1,-1,-1,-1,-1,-1,-1,-1,-1,-1,-1,-1,-1],"loss_changes":[3.0638012E4,1.1210783E4,1.230658E4,1.3296955E4,7.535547E2,6.6672393E3,1.2293359E3,5.4383867E3,2.6569246E3,2.350498E2,3.5822056E1,3.547503E3,6.329297E3,7.076836E2,7.5652336E1,1.4600664E3,2.2893091E2,9.385681E2,1.4128356E3,1.2943018E2,1.2399829E2,2.6801426E1,1.51619835E1,2.2700537E3,2.350598E3,2.0031309E3,5.796521E2,1.2507617E2,5.0555756E1,2.7347801E1,2.3921602E1,2.637752E3,2.1059453E3,4.3231995E1,4.3906494E1,7.7077563E2,4.759567E2,8.7751953E2,1.1580701E2,8.3388916E1,1.3426392E1,4.1439453E1,1.1305244E1,2.537643E1,6.7962646E0,1.2568571E1,1.322539E1,2.0855283E3,7.033887E1,7.349282E2,5.3034827E2,1.6190742E3,7.551367E1,5.606366E2,4.2689114E2,3.1256836E1,3.0771973E1,1.7652973E1,2.2427856E1,2.506652E1,1.3561521E1,2.2035318E1,1.4552235E1,0E0,0E0,0E0,0E0,0E0,0E0,0E0,0E0,0E0,0E0,0E0,0E0,0E0,0E0,0E0,0E0,0E0,0E0,0E0,0E0,0E0,0E0,0E0,0E0,0E0,0E0,0E0,0E0,0E0,0E0,0E0,0E0,0E0,0E0,0E0,0E0,0E0,0E0,0E0,0E0,0E0,0E0,0E0,0E0,0E0,0E0,0E0,0E0,0E0,0E0,0E0,0E0,0E0,0E0,0E0,0E0,0E0,0E0,0E0,0E0,0E0,0E0,0E0,0E0],"parents":[2147483647,0,0,1,1,2,2,3,3,4,4,5,5,6,6,7,7,8,8,9,9,10,10,11,11,12,12,13,13,14,14,15,15,16,16,17,17,18,18,19,19,20,20,21,21,22,22,23,23,24,24,25,25,26,26,27,27,28,28,29,29,30,30,31,31,32,32,33,33,34,34,35,35,36,36,37,37,38,38,39,39,40,40,41,41,42,42,43,43,44,44,45,45,46,46,47,47,48,48,49,49,50,50,51,51,52,52,53,53,54,54,55,55,56,56,57,57,58,58,59,59,60,60,61,61,62,62],"right_children":[2,4,6,8,10,12,14,16,18,20,22,24,26,28,30,32,34,36,38,40,42,44,46,48,50,52,54,56,58,60,62,64,66,68,70,72,74,76,78,80,82,84,86,88,90,92,94,96,98,100,102,104,106,108,110,112,114,116,118,120,122,124,126,-1,-1,-1,-1,-1,-1,-1,-1,-1,-1,-1,-1,-1,-1,-1,-1,-1,-1,-1,-1,-1,-1,-1,-1,-1,-1,-1,-1,-1,-1,-1,-1,-1,-1,-1,-1,-1,-1,-1,-1,-1,-1,-1,-1,-1,-1,-1,-1,-1,-1,-1,-1,-1,-1,-1,-1,-1,-1,-1,-1,-1,-1,-1,-1],"split_conditions":[5E0,4E0,4E0,3.3333334E-1,1E0,6.2E1,2.99E2,1E0,1E0,3E0,9.92E1,7.4E1,4.76E2,1E0,4.51E2,1E0,3E0,1.4E1,5.54E2,1E0,3.53E2,1E0,6.2E1,1E0,1E0,1E0,8E0,1E0,9.77E1,1E0,2.1E1,3E0,2E0,1E0,9.81E1,1.58E2,1E0,1E0,7E0,5E0,1.6E1,1E0,2E0,6.3142857E1,9.7E1,1.57E2,7.8E1,1.6E1,1.9E1,1E0,9E0,1E0,5E0,9.66E2,1.611E3,1.01E2,1.48E2,1E0,1E0,8.264473E1,2.9692308E1,2.8142857E1,9.6E1,8.401115E-2,3.4731746E-2,1.0127283E-2,9.420178E-2,-9.286555E-2,-2.2911299E-2,-5.1494636E-2,-6.25363E-2,4.9179148E-2,-1.4018166E-2,-5.7322863E-3,2.1474695E-2,-1.4045954E-2,-5.5500995E-2,-1.2560225E-2,5.9927084E-2,-4.0159E-2,-7.3418014E-2,-9.231719E-2,-7.103489E-2,-9.817728E-2,-7.032645E-2,-8.541005E-2,2.6248766E-2,1.6635036E-2,1.96141E-1,3.1767606E-3,-5.928705E-2,-7.228618E-2,2.9126639E-2,3.6943913E-3,-2.7938783E-2,3.1214118E-2,-3.280878E-3,-4.4276394E-2,-5.1290672E-2,-5.3590775E-2,-1.8389417E-2,1.3981605E-2,-3.5880726E-2,-6.1895456E-2,-3.606212E-2,-7.799303E-2,-8.965485E-2,-4.7853198E-2,8.023322E-2,1.2621069E-2,1.1758029E-1,-1.0771654E-1,-9.66332E-2,-9.3354255E-2,-7.672925E-2,-1.3009525E-2,-7.906344E-2,-8.252793E-2,-4.7446616E-2,-5.6716323E-2,-1.0973445E-1,5.1166826E-1,-2.9256916E-2,5.2152234E-1,2.2695912E-2,4.5948815E-1,-7.8409754E-2],"split_indices":[9,0,0,10,39,8,8,42,14,8,4,9,8,39,8,39,0,5,8,42,8,26,2,42,20,42,5,20,4,39,5,0,0,0,4,8,39,42,5,0,5,21,14,10,4,3,2,5,5,39,8,17,17,8,8,2,3,14,20,11,10,10,4,0,0,0,0,0,0,0,0,0,0,0,0,0,0,0,0,0,0,0,0,0,0,0,0,0,0,0,0,0,0,0,0,0,0,0,0,0,0,0,0,0,0,0,0,0,0,0,0,0,0,0,0,0,0,0,0,0,0,0,0,0,0,0,0],"split_type":[0,0,0,0,0,0,0,0,0,0,0,0,0,0,0,0,0,0,0,0,0,0,0,0,0,0,0,0,0,0,0,0,0,0,0,0,0,0,0,0,0,0,0,0,0,0,0,0,0,0,0,0,0,0,0,0,0,0,0,0,0,0,0,0,0,0,0,0,0,0,0,0,0,0,0,0,0,0,0,0,0,0,0,0,0,0,0,0,0,0,0,0,0,0,0,0,0,0,0,0,0,0,0,0,0,0,0,0,0,0,0,0,0,0,0,0,0,0,0,0,0,0,0,0,0,0,0],"sum_hessian":[2.253335E6,8.26772E5,1.426563E6,7.87242E5,3.953E4,1.381044E6,4.5519E4,4.24022E5,3.6322E5,3.511E4,4.42E3,4.64579E5,9.16465E5,4.1507E4,4.012E3,4.08202E5,1.582E4,1.59804E5,2.03416E5,2.8665E4,6.445E3,2.888E3,1.532E3,2.90213E5,1.74366E5,7.20027E5,1.96438E5,3.6724E4,4.783E3,1.603E3,2.409E3,2.4267E5,1.65532E5,9.182E3,6.638E3,7.6286E4,8.3518E4,1.72193E5,3.1223E4,2.7534E4,1.131E3,6.085E3,3.6E2,2.77E3,1.18E2,1.07E2,1.425E3,2.78599E5,1.1614E4,9.2592E4,8.1774E4,7.07395E5,1.2632E4,2.5815E4,1.70623E5,2.4673E4,1.2051E4,1.354E3,3.429E3,1.108E3,4.95E2,2.146E3,2.63E2,7.9904E4,1.62766E5,1.7563E4,1.47969E5,6.03E2,8.579E3,2.642E3,3.996E3,6.6534E4,9.752E3,3.8122E4,4.5396E4,1.64412E5,7.781E3,3.122E3,2.8101E4,2.6593E4,9.41E2,5.93E2,5.38E2,2.863E3,3.222E3,7.4E1,2.86E2,2.627E3,1.43E2,2.9E1,8.9E1,8.3E1,2.4E1,5.96E2,8.29E2,1.85156E5,9.3443E4,8.536E3,3.078E3,6.0191E4,3.2401E4,6.9086E4,1.2688E4,7.7299E4,6.30096E5,7.314E3,5.318E3,1.9902E4,5.913E3,1.58705E5,1.1918E4,2.2056E4,2.617E3,9.292E3,2.759E3,9.16E2,4.38E2,2.201E3,1.228E3,6.08E2,5E2,2.2E1,4.73E2,2.6E1,2.12E3,2.6E1,2.37E2],"tree_param":{"num_deleted":"0","num_feature":"44","num_nodes":"127","size_leaf_vector":"1"}},{"base_weights":[-1.061049E-2,1.4724691E-1,-8.886673E-2,1.8881127E-1,-4.2620808E-1,-7.7493705E-2,-5.729944E-1,2.7196485E-1,5.2343927E-2,-3.3109248E-1,-5.993183E-1,-5.937638E-3,-1.321051E-1,-6.5924543E-1,-8.1023455E-2,2.9394385E-1,-2.7395952E-1,1.6677621E-1,-3.293772E-2,-3.7135217E-1,6.019737E-2,-6.426183E-1,-1.9942857E-1,1.1288352E-1,-6.9418155E-2,-1.722089E-1,1.6288497E-2,-7.12776E-1,-3.1560373E-1,-2.4730738E-1,6.5185726E-2,6.387948E-2,3.1153053E-1,-1.8323722E-1,-4.103139E-1,5.7054274E-2,2.640052E-1,-1.0339775E-1,1.3159521E-1,-3.578877E-1,-7.025152E-1,1.2176166E-1,-4.680468E-2,-5.6130147E-1,-6.954123E-1,2.118644E-3,-2.736513E-1,1.6604292E-1,2.140167E-3,-5.384976E-2,-4.450024E-1,-2.2720043E-1,-1.0230776E-1,-4.1680645E-2,8.824643E-2,-5.790982E-1,-7.364696E-1,-1.6114983E-1,-3.783688E-1,-3.5003018E-1,-2.2427442E-2,1.1505618E-1,-1.4750957E-1,-1.1668715E-2,6.746498E-3,2.0297138E-2,1.2570472E-2,-2.0121029E-2,-8.390083E-3,-1.5972223E-2,-2.3516266E-2,6.1691017E-3,-1.9205939E-3,1.4072957E-2,-8.416056E-3,-9.281597E-3,-1.3914338E-3,1.764041E-3,1.05078565E-2,-2.1462418E-2,-1.5714368E-2,-4.0197697E-2,-2.943327E-2,7.1706506E-3,-8.712121E-3,3.9194915E-3,-6.953125E-3,-2.5904689E-2,-3.152932E-2,-3.785187E-2,-3.231573E-2,-4.6407185E-3,1.1510792E-2,-1.8018616E-2,-7.481061E-3,1.1995818E-2,2.8438016E-3,-3.3936144E-3,4.5107948E-3,-3.987696E-3,6.780509E-3,-1.8389989E-2,-3.0511213E-2,-6.834749E-3,-1.4517655E-2,-1.2781055E-3,-7.4512856E-3,-6.473791E-3,8.275129E-5,7.0807026E-3,-1.7419059E-3,-3.542464E-2,-2.5602529E-2,-3.800634E-2,-2.9484192E-2,-2.0062696E-2,-3.4337349E-3,-2.1153847E-2,-5.459057E-3,-7.320644E-3,-2.4615385E-2,3.1858408E-3,-1.3659793E-2,1.0860484E-3,1.11759E-2,-1.37434555E-2,9.929079E-3],"categories":[],"categories_nodes":[],"categories_segments":[],"categories_sizes":[],"default_left":[0,0,0,0,0,0,0,0,0,0,0,0,0,0,0,0,0,0,0,0,0,0,0,0,0,0,0,0,0,0,0,0,0,0,0,0,0,0,0,0,0,0,0,0,0,0,0,0,0,0,0,0,0,0,0,0,0,0,0,0,0,0,0,0,0,0,0,0,0,0,0,0,0,0,0,0,0,0,0,0,0,0,0,0,0,0,0,0,0,0,0,0,0,0,0,0,0,0,0,0,0,0,0,0,0,0,0,0,0,0,0,0,0,0,0,0,0,0,0,0,0,0,0,0,0,0,0],"id":10,"left_children":[1,3,5,7,9,11,13,15,17,19,21,23,25,27,29,31,33,35,37,39,41,43,45,47,49,51,53,55,57,59,61,63,65,67,69,71,73,75,77,79,81,83,85,87,89,91,93,95,97,99,101,103,105,107,109,111,113,115,117,119,121,123,125,-1,-1,-1,-1,-1,-1,-1,-1,-1,-1,-1,-1,-1,-1,-1,-1,-1,-1,-1,-1,-1,-1,-1,-1,-1,-1,-1,-1,-1,-1,-1,-1,-1,-1,-1,-1,-1,-1,-1,-1,-1,-1,-1,-1,-1,-1,-1,-1,-1,-1,-1,-1,-1,-1,-1,-1,-1,-1,-1,-1,-1,-1,-1,-1],"loss_changes":[2.783621E4,1.7801092E4,8.294758E3,7.902121E3,8.308633E2,5.751958E3,1.4671943E3,5.1920312E3,2.5730566E3,5.1321436E2,3.097622E2,4.80571E3,4.96805E3,5.409658E2,1.2544294E2,1.6829688E3,2.0709155E2,1.2010913E3,1.751402E3,1.3145654E2,2.0031715E1,6.893408E1,2.6179504E1,1.3060833E3,2.4281377E3,2.5262188E3,7.4087524E2,8.019531E1,3.8396362E1,5.575627E1,2.9144375E1,6.239169E2,2.1932695E3,3.3960907E1,3.6331665E1,3.3495148E2,4.504702E2,6.573252E2,3.427464E2,8.818384E1,1.2842468E1,1.2394144E1,1.28431425E1,1.8718872E1,2.9122559E1,1.0242033E1,1.3703026E1,1.2088677E3,4.4372162E2,1.956942E3,2.1059961E2,2.1023242E3,1.0375107E3,3.7425348E2,5.205374E2,3.2925537E1,7.462109E1,2.5462242E1,3.389212E1,4.7931473E1,1.6391922E1,2.2519499E1,2.3063301E1,0E0,0E0,0E0,0E0,0E0,0E0,0E0,0E0,0E0,0E0,0E0,0E0,0E0,0E0,0E0,0E0,0E0,0E0,0E0,0E0,0E0,0E0,0E0,0E0,0E0,0E0,0E0,0E0,0E0,0E0,0E0,0E0,0E0,0E0,0E0,0E0,0E0,0E0,0E0,0E0,0E0,0E0,0E0,0E0,0E0,0E0,0E0,0E0,0E0,0E0,0E0,0E0,0E0,0E0,0E0,0E0,0E0,0E0,0E0,0E0,0E0,0E0,0E0,0E0],"parents":[2147483647,0,0,1,1,2,2,3,3,4,4,5,5,6,6,7,7,8,8,9,9,10,10,11,11,12,12,13,13,14,14,15,15,16,16,17,17,18,18,19,19,20,20,21,21,22,22,23,23,24,24,25,25,26,26,27,27,28,28,29,29,30,30,31,31,32,32,33,33,34,34,35,35,36,36,37,37,38,38,39,39,40,40,41,41,42,42,43,43,44,44,45,45,46,46,47,47,48,48,49,49,50,50,51,51,52,52,53,53,54,54,55,55,56,56,57,57,58,58,59,59,60,60,61,61,62,62],"right_children":[2,4,6,8,10,12,14,16,18,20,22,24,26,28,30,32,34,36,38,40,42,44,46,48,50,52,54,56,58,60,62,64,66,68,70,72,74,76,78,80,82,84,86,88,90,92,94,96,98,100,102,104,106,108,110,112,114,116,118,120,122,124,126,-1,-1,-1,-1,-1,-1,-1,-1,-1,-1,-1,-1,-1,-1,-1,-1,-1,-1,-1,-1,-1,-1,-1,-1,-1,-1,-1,-1,-1,-1,-1,-1,-1,-1,-1,-1,-1,-1,-1,-1,-1,-1,-1,-1,-1,-1,-1,-1,-1,-1,-1,-1,-1,-1,-1,-1,-1,-1,-1,-1,-1,-1,-1,-1],"split_conditions":[6E0,4E0,4E0,7E0,1.3E1,2E1,2.84E2,1E0,3E0,1E0,1E0,1E0,4.4E2,1E0,4.76E2,2E0,3E0,1E0,1E0,1E0,9.92E1,5.9E1,9.77E1,2.3E1,1E0,1E0,1.13E2,2E0,9.77E1,1E0,2E1,1E0,3E0,1E0,9.81E1,1.6E1,1E0,1E0,1E0,1.2E1,1.6E1,1.06E2,3E0,1.4E1,1E0,1.9E1,3.3333334E-1,1.5E1,1E0,6.4E2,5E0,3E0,1E0,5.73E2,1.8E1,1E0,2E0,6E1,1.59E2,6.9282036E1,9.92E1,1E0,9.83E1,-3.287908E-2,2.3830486E-2,8.8067226E-2,4.875176E-2,-7.052783E-2,-2.2599066E-2,-4.9258735E-2,-5.9409488E-2,2.199092E-2,-6.2541724E-3,6.298673E-2,-2.139976E-2,-3.1279027E-2,-5.483401E-3,6.2169074E-3,4.9962785E-2,-5.2168798E-2,-3.2317724E-2,-8.914455E-2,-6.873315E-2,2.8954817E-2,-2.7996063E-2,8.45815E-3,-1.8208517E-2,-5.846821E-2,-6.368654E-2,-9.3997374E-2,-9.285321E-2,-1.6669929E-2,7.173551E-2,-5.1734865E-2,-2.200197E-2,4.708302E-2,9.553266E-3,-1.4867795E-2,2.0352935E-2,-1.7072773E-2,4.607253E-2,-5.125287E-2,-7.552266E-2,-3.046142E-2,-6.504758E-2,-5.8032754E-3,-3.476758E-2,-4.700763E-2,5.903721E-4,5.7437718E-2,-1.1343312E-2,-8.660176E-2,-6.347679E-2,-1.1160176E-1,-1.06373005E-1,-6.480615E-2,-2.4496485E-2,-8.204498E-2,-1.9316364E-2,-4.1409034E-2,-1.0280221E-1,1.601175E-2,-5.8594357E-2,1.1010599E-2,9.663063E-2,-7.115593E-2,1.00155614E-1],"split_indices":[8,0,0,9,9,9,8,42,0,39,39,14,8,39,8,0,0,20,39,42,4,9,4,10,42,39,9,9,4,39,5,0,0,0,4,5,42,20,20,5,5,2,6,5,17,5,10,5,39,8,17,0,14,8,5,21,17,8,3,11,4,39,2,0,0,0,0,0,0,0,0,0,0,0,0,0,0,0,0,0,0,0,0,0,0,0,0,0,0,0,0,0,0,0,0,0,0,0,0,0,0,0,0,0,0,0,0,0,0,0,0,0,0,0,0,0,0,0,0,0,0,0,0,0,0,0,0],"split_type":[0,0,0,0,0,0,0,0,0,0,0,0,0,0,0,0,0,0,0,0,0,0,0,0,0,0,0,0,0,0,0,0,0,0,0,0,0,0,0,0,0,0,0,0,0,0,0,0,0,0,0,0,0,0,0,0,0,0,0,0,0,0,0,0,0,0,0,0,0,0,0,0,0,0,0,0,0,0,0,0,0,0,0,0,0,0,0,0,0,0,0,0,0,0,0,0,0,0,0,0,0,0,0,0,0,0,0,0,0,0,0,0,0,0,0,0,0,0,0,0,0,0,0,0,0,0,0],"sum_hessian":[2.253335E6,7.46833E5,1.506502E6,6.96361E5,5.0472E4,1.471925E6,3.4577E4,4.32702E5,2.63659E5,3.2576E4,1.7896E4,6.37121E5,8.34804E5,2.9419E4,5.158E3,4.15956E5,1.6746E4,1.12587E5,1.51072E5,2.9537E4,3.039E3,1.6147E4,1.749E3,2.21856E5,4.15265E5,6.57195E5,1.77609E5,2.5453E4,3.966E3,2.413E3,2.745E3,2.9539E4,3.86417E5,1.0057E4,6.689E3,5.2896E4,5.9691E4,1.05775E5,4.5297E4,2.8385E4,1.152E3,1.929E3,1.11E3,6.361E3,9.786E3,4.71E2,1.278E3,1.499E5,7.1956E4,3.98738E5,1.6527E4,3.67824E5,2.89371E5,9.8366E4,7.9243E4,3.836E3,2.1617E4,1.147E3,2.819E3,1.656E3,7.57E2,2.224E3,5.21E2,5.698E3,2.3841E4,1.50333E5,2.36084E5,6.6E2,9.397E3,2.663E3,4.026E3,3.1211E4,2.1685E4,5.7375E4,2.316E3,5.0653E4,5.5122E4,2.035E4,2.4947E4,1.0762E4,1.7623E4,6.06E2,5.46E2,1.798E3,1.31E2,4.71E2,6.39E2,3.923E3,2.438E3,4.333E3,5.453E3,3.33E2,1.38E2,7.51E2,5.27E2,8.9401E4,6.0499E4,4.0089E4,3.1867E4,3.50778E5,4.796E4,1.1266E4,5.261E3,1.51175E5,2.16649E5,1.09497E5,1.79874E5,3.2507E4,6.5859E4,5.5276E4,2.3967E4,1.306E3,2.53E3,1.8613E4,3.004E3,3.18E2,8.29E2,2.417E3,4.02E2,6.82E2,9.74E2,5.64E2,1.93E2,1.196E3,1.028E3,3.81E2,1.4E2],"tree_param":{"num_deleted":"0","num_feature":"44","num_nodes":"127","size_leaf_vector":"1"}},{"base_weights":[-1.1040076E-2,1.2803756E-1,-9.1643274E-2,1.5183114E-1,-3.4580457E-1,-7.5495005E-2,-5.8156854E-1,2.6002362E-1,2.5527159E-2,-3.9161515E-1,1.8095454E-2,1.1673478E-2,-1.2310622E-1,-6.302159E-1,-7.82457E-2,2.8017431E-1,-2.5990772E-1,1.1141078E-1,-4.1943397E-2,-3.5285705E-1,-5.639156E-1,7.6843195E-2,-9.262883E-2,7.063828E-2,-1.0591275E-1,-1.657005E-1,2.0755531E-2,-6.7577946E-1,-2.8030938E-1,-2.4895978E-1,1.7496113E-2,2.3338594E-1,3.487643E-1,-1.6574104E-1,-3.90119E-1,3.28403E-2,1.7910813E-1,-7.398051E-2,1.347361E-1,-3.397131E-1,-6.722615E-1,-5.9562933E-1,-2.770083E-2,9.382894E-2,-3.1932774E-1,-1.0571808E-1,5.6666666E-1,1.24782756E-1,-6.0851306E-2,-2.0616524E-1,9.602938E-3,-1.5906994E-1,-5.4430485E-1,-1.0911914E-1,4.0606815E-2,-7.1658427E-1,-5.921839E-1,-1.8013245E-1,-3.702381E-1,-3.3695653E-1,-4.1763343E-2,-3.3736154E-2,1.9080068E-1,1.847569E-2,8.327856E-3,2.5478252E-3,1.9205583E-2,-2.0281456E-2,-7.441725E-3,-1.2996845E-2,-2.1543026E-2,2.5675183E-3,-2.0092685E-2,-3.0744975E-3,1.0125652E-2,-2.6363134E-3,-1.4924121E-2,1.2898654E-3,8.326438E-3,-2.0472711E-2,-1.4913753E-2,-3.9141413E-2,-2.7458256E-2,-3.447975E-2,-2.5597269E-2,-4.918033E-3,1.754386E-2,5.986609E-3,-9.44206E-3,2.727273E-2,-2.0183487E-2,5.3240745E-3,-7.0597366E-3,3.9583337E-2,-1.4285715E-2,6.988272E-3,-1.4713657E-2,-2.1505912E-3,-2.038835E-2,-4.342794E-3,-1.3404674E-2,2.188539E-3,-8.127942E-3,-1.4516601E-2,-7.1755447E-3,-2.4493178E-2,-3.252053E-2,-9.302553E-3,6.549886E-3,-1.0822473E-2,2.4563228E-3,-3.4003597E-2,-3.8665082E-2,-3.1087918E-2,-2.4619566E-2,-1.31198345E-2,-1.6584768E-3,-1.2130638E-2,-2.06869E-2,-7.194245E-3,-2.3573825E-2,3.478261E-2,-4.156479E-3,1.6621439E-3,-1.1306043E-2,-7.539683E-3,1.4177489E-2],"categories":[],"categories_nodes":[],"categories_segments":[],"categories_sizes":[],"default_left":[0,0,0,0,0,0,0,0,0,0,0,0,0,0,0,0,0,0,0,0,0,0,0,0,0,0,0,0,0,0,0,0,0,0,0,0,0,0,0,0,0,0,0,0,0,0,0,0,0,0,0,0,0,0,0,0,0,0,0,0,0,0,0,0,0,0,0,0,0,0,0,0,0,0,0,0,0,0,0,0,0,0,0,0,0,0,0,0,0,0,0,0,0,0,0,0,0,0,0,0,0,0,0,0,0,0,0,0,0,0,0,0,0,0,0,0,0,0,0,0,0,0,0,0,0,0,0],"id":11,"left_children":[1,3,5,7,9,11,13,15,17,19,21,23,25,27,29,31,33,35,37,39,41,43,45,47,49,51,53,55,57,59,61,63,65,67,69,71,73,75,77,79,81,83,85,87,89,91,93,95,97,99,101,103,105,107,109,111,113,115,117,119,121,123,125,-1,-1,-1,-1,-1,-1,-1,-1,-1,-1,-1,-1,-1,-1,-1,-1,-1,-1,-1,-1,-1,-1,-1,-1,-1,-1,-1,-1,-1,-1,-1,-1,-1,-1,-1,-1,-1,-1,-1,-1,-1,-1,-1,-1,-1,-1,-1,-1,-1,-1,-1,-1,-1,-1,-1,-1,-1,-1,-1,-1,-1,-1,-1,-1],"loss_changes":[2.526014E4,9.32142E3,1.1286139E4,1.0757779E4,6.590078E2,5.731611E3,1.1145234E3,4.4425547E3,2.1047307E3,2.3427393E2,2.876485E1,3.3825457E3,5.4731797E3,6.615703E2,6.5594734E1,1.3099297E3,1.9392554E2,8.499989E2,1.1514114E3,1.20118164E2,1.096001E2,1.9470789E1,1.3289214E1,2.313276E3,1.8869208E3,1.7299199E3,5.2606116E2,1.2484766E2,4.303131E1,2.6277351E1,2.2842674E1,2.207582E3,1.7425E3,3.7182922E1,3.5100098E1,5.9515063E2,4.8340405E2,8.216282E2,1.0813867E2,7.945239E1,1.497699E1,4.7503662E1,9.691356E0,2.031207E1,8.899741E0,1.13373375E1,5.979762E0,1.4450706E3,5.8650696E2,6.4449316E2,4.4533978E2,1.3831895E3,6.819678E1,4.9976495E2,3.8762344E2,5.057129E1,3.5263184E1,2.7374672E1,1.3889893E1,2.6215805E1,1.32051E1,2.5598597E1,1.8640425E1,0E0,0E0,0E0,0E0,0E0,0E0,0E0,0E0,0E0,0E0,0E0,0E0,0E0,0E0,0E0,0E0,0E0,0E0,0E0,0E0,0E0,0E0,0E0,0E0,0E0,0E0,0E0,0E0,0E0,0E0,0E0,0E0,0E0,0E0,0E0,0E0,0E0,0E0,0E0,0E0,0E0,0E0,0E0,0E0,0E0,0E0,0E0,0E0,0E0,0E0,0E0,0E0,0E0,0E0,0E0,0E0,0E0,0E0,0E0,0E0,0E0,0E0,0E0,0E0],"parents":[2147483647,0,0,1,1,2,2,3,3,4,4,5,5,6,6,7,7,8,8,9,9,10,10,11,11,12,12,13,13,14,14,15,15,16,16,17,17,18,18,19,19,20,20,21,21,22,22,23,23,24,24,25,25,26,26,27,27,28,28,29,29,30,30,31,31,32,32,33,33,34,34,35,35,36,36,37,37,38,38,39,39,40,40,41,41,42,42,43,43,44,44,45,45,46,46,47,47,48,48,49,49,50,50,51,51,52,52,53,53,54,54,55,55,56,56,57,57,58,58,59,59,60,60,61,61,62,62],"right_children":[2,4,6,8,10,12,14,16,18,20,22,24,26,28,30,32,34,36,38,40,42,44,46,48,50,52,54,56,58,60,62,64,66,68,70,72,74,76,78,80,82,84,86,88,90,92,94,96,98,100,102,104,106,108,110,112,114,116,118,120,122,124,126,-1,-1,-1,-1,-1,-1,-1,-1,-1,-1,-1,-1,-1,-1,-1,-1,-1,-1,-1,-1,-1,-1,-1,-1,-1,-1,-1,-1,-1,-1,-1,-1,-1,-1,-1,-1,-1,-1,-1,-1,-1,-1,-1,-1,-1,-1,-1,-1,-1,-1,-1,-1,-1,-1,-1,-1,-1,-1,-1,-1,-1,-1,-1,-1],"split_conditions":[5E0,4E0,4E0,3.3333334E-1,1E0,6.9E1,2.99E2,1E0,1E0,3E0,9.92E1,8.3E1,4.63E2,1E0,4.29E2,1E0,3E0,1E0,5.54E2,1E0,3.53E2,1E0,5E0,1.7E1,1E0,1E0,8E0,1E0,9.81E1,1E0,9.83E1,3E0,2E0,1E0,9.77E1,1E0,2E0,6E0,1E0,1.2E1,1.6E1,1E0,1.55E2,1E0,2E0,1E0,1.06E2,1E0,1E0,3E0,9E0,1E0,6E0,9.18E2,3.4326374E1,1E0,1.48E2,1E0,3.1E1,6.9282036E1,2.9692308E1,1.9E1,1.18E2,7.6163866E-2,3.0557562E-2,9.2150215E-3,8.5616946E-2,-8.469588E-2,-2.0635784E-2,-3.995971E-2,-5.5605687E-2,9.824204E-3,-5.0446656E-2,-9.306336E-3,4.2082023E-2,-1.1066354E-2,-5.4246522E-2,1.0220242E-2,5.7935573E-2,-4.970927E-2,-3.070184E-2,-8.324411E-2,-6.404649E-2,-8.8482134E-2,-6.32542E-2,-3.149378E-2,2.3246025E-1,2.4722863E-2,-2.9686237E-2,7.218912E-2,-5.3424098E-2,8.696163E-3,-2.3798084E-2,1.05098784E-1,-1.4261883E-1,2.6755357E-2,-4.231419E-2,-7.3915245E-3,-4.7431897E-2,-1.9662036E-2,-5.2906442E-2,1.0223365E-2,-3.519657E-2,-5.8639523E-2,-3.386253E-2,-7.3649034E-2,-8.426555E-2,-4.5832407E-2,6.7560606E-2,-6.528928E-2,1.8243825E-2,-8.346416E-2,-1.1175062E-1,-8.404388E-2,-6.908345E-2,-5.6090046E-2,-6.796408E-3,-4.4090625E-2,-7.4148126E-2,-3.3392794E-2,-9.76823E-2,4.8528424E-1,-2.6319712E-2,1.660118E-2,-6.4284116E-2,-5.805279E-2,1.3526848E-1],"split_indices":[9,0,0,10,39,8,8,42,14,8,4,9,8,39,8,39,0,39,8,42,8,26,0,5,20,42,5,20,4,39,2,0,0,0,4,42,0,17,22,5,5,21,3,33,5,6,8,42,42,0,8,17,17,8,11,14,3,20,9,11,10,5,3,0,0,0,0,0,0,0,0,0,0,0,0,0,0,0,0,0,0,0,0,0,0,0,0,0,0,0,0,0,0,0,0,0,0,0,0,0,0,0,0,0,0,0,0,0,0,0,0,0,0,0,0,0,0,0,0,0,0,0,0,0,0,0,0],"split_type":[0,0,0,0,0,0,0,0,0,0,0,0,0,0,0,0,0,0,0,0,0,0,0,0,0,0,0,0,0,0,0,0,0,0,0,0,0,0,0,0,0,0,0,0,0,0,0,0,0,0,0,0,0,0,0,0,0,0,0,0,0,0,0,0,0,0,0,0,0,0,0,0,0,0,0,0,0,0,0,0,0,0,0,0,0,0,0,0,0,0,0,0,0,0,0,0,0,0,0,0,0,0,0,0,0,0,0,0,0,0,0,0,0,0,0,0,0,0,0,0,0,0,0,0,0,0,0],"sum_hessian":[2.253335E6,8.26772E5,1.426563E6,7.87242E5,3.953E4,1.381044E6,4.5519E4,4.24022E5,3.6322E5,3.511E4,4.42E3,4.87857E5,8.93187E5,4.1507E4,4.012E3,4.08202E5,1.582E4,1.59804E5,2.03416E5,2.8665E4,6.445E3,2.888E3,1.532E3,3.24922E5,1.62935E5,6.89146E5,2.04041E5,3.6724E4,4.783E3,1.441E3,2.571E3,2.4267E5,1.65532E5,9.182E3,6.638E3,7.3963E4,8.5841E4,1.72193E5,3.1223E4,2.7534E4,1.131E3,6.085E3,3.6E2,2.77E3,1.18E2,1.503E3,2.9E1,2.30151E5,9.4771E4,8.723E4,7.5705E4,6.77286E5,1.186E4,2.7052E4,1.76989E5,2.4673E4,1.2051E4,2.264E3,2.519E3,1.011E3,4.3E2,1.985E3,5.86E2,7.9904E4,1.62766E5,1.7563E4,1.47969E5,6.03E2,8.579E3,1.584E3,5.054E3,7.0943E4,3.02E3,7.61E3,7.8231E4,1.57302E5,1.4891E4,7.054E3,2.4169E4,1.0259E4,1.7275E4,5.93E2,5.38E2,2.863E3,3.222E3,3.04E2,5.6E1,2.538E3,2.32E2,1E1,1.08E2,2.15E2,1.288E3,2.3E1,6E0,2.22207E5,7.944E3,9.0137E4,4.634E3,2.9807E4,5.7423E4,6.3169E4,1.2536E4,7.1772E4,6.05514E5,7.842E3,4.018E3,2.0488E4,6.564E3,5.677E3,1.71312E5,1.5018E4,9.655E3,9.292E3,2.759E3,1.451E3,8.13E2,6.42E2,1.877E3,4.16E2,5.95E2,2.2E1,4.08E2,1.473E3,5.12E2,1.25E2,4.61E2],"tree_param":{"num_deleted":"0","num_feature":"44","num_nodes":"127","size_leaf_vector":"1"}},{"base_weights":[-1.1375578E-2,1.3178965E-1,-8.2348324E-2,1.7014283E-1,-3.9736095E-1,-7.139286E-2,-5.4870147E-1,2.4414437E-1,4.869529E-2,-3.109281E-1,-5.700285E-1,-4.955095E-3,-1.2209798E-1,-6.285253E-1,-5.6935817E-2,2.6407057E-1,-2.507912E-1,1.5604682E-1,-3.1309366E-2,-3.4821254E-1,5.0174657E-2,-6.1193734E-1,-1.8159659E-1,1.03408955E-1,-6.284887E-2,-1.5904388E-1,1.4610664E-2,-6.829591E-1,-2.8324696E-1,-2.1294963E-1,6.1544064E-2,-1.9190388E-2,2.7624658E-1,-1.6713065E-1,-3.7653214E-1,5.1760968E-2,2.4845876E-1,-9.859514E-2,1.258113E-1,-3.3602646E-1,-6.568712E-1,1.0726817E-1,-4.8484847E-2,-5.242919E-1,-6.6634655E-1,-9.205426E-2,-3.327869E-1,1.4207402E-1,-2.7567387E-2,-4.8191924E-2,-4.164448E-1,-2.115245E-1,-9.2334434E-2,-1.9645654E-2,1.2431678E-1,-5.554847E-1,-7.11489E-1,-1.8172537E-1,-3.7804297E-1,3.1333333E-1,-2.536157E-1,1.0786517E-1,-1.3601533E-1,-1.206742E-2,4.395747E-3,1.1210807E-2,1.7839346E-2,-1.8154312E-2,-7.6665245E-3,-1.2382739E-2,-2.0846426E-2,-1.16154505E-2,3.608843E-3,1.6882155E-2,8.74159E-3,-8.697241E-3,-1.4676269E-3,9.532771E-3,1.2197193E-3,-1.6271595E-2,-3.1371597E-2,-4.154728E-2,-2.9048208E-2,6.5088756E-3,-1.0218978E-2,2.5720166E-3,-6.044776E-3,-2.3847263E-2,-2.9690152E-2,-3.6371317E-2,-3.0892754E-2,-9.810671E-3,2.10177E-3,-1.8994413E-2,6.756757E-4,1.0764374E-2,2.1284947E-3,1.8018627E-3,-5.840422E-3,-2.3306075E-2,-1.904198E-3,-1.7156297E-2,-2.8667808E-2,-6.231479E-3,-1.3607892E-2,-9.886025E-4,-6.8252953E-3,-7.011396E-3,1.9516934E-4,1.1234207E-2,1.0054976E-3,-3.047814E-2,-1.8277513E-2,-3.605075E-2,-1.2382075E-2,1.2931034E-2,-1.1226204E-2,-2.3217922E-2,-8.667736E-3,-3.2608695E-3,2.3809524E-2,-1.7386364E-2,-2.593193E-3,1.3725491E-2,2.5825826E-3,3.9130434E-2,-8.900001E-3],"categories":[],"categories_nodes":[],"categories_segments":[],"categories_sizes":[],"default_left":[0,0,0,0,0,0,0,0,0,0,0,0,0,0,0,0,0,0,0,0,0,0,0,0,0,0,0,0,0,0,0,0,0,0,0,0,0,0,0,0,0,0,0,0,0,0,0,0,0,0,0,0,0,0,0,0,0,0,0,0,0,0,0,0,0,0,0,0,0,0,0,0,0,0,0,0,0,0,0,0,0,0,0,0,0,0,0,0,0,0,0,0,0,0,0,0,0,0,0,0,0,0,0,0,0,0,0,0,0,0,0,0,0,0,0,0,0,0,0,0,0,0,0,0,0,0,0],"id":12,"left_children":[1,3,5,7,9,11,13,15,17,19,21,23,25,27,29,31,33,35,37,39,41,43,45,47,49,51,53,55,57,59,61,63,65,67,69,71,73,75,77,79,81,83,85,87,89,91,93,95,97,99,101,103,105,107,109,111,113,115,117,119,121,123,125,-1,-1,-1,-1,-1,-1,-1,-1,-1,-1,-1,-1,-1,-1,-1,-1,-1,-1,-1,-1,-1,-1,-1,-1,-1,-1,-1,-1,-1,-1,-1,-1,-1,-1,-1,-1,-1,-1,-1,-1,-1,-1,-1,-1,-1,-1,-1,-1,-1,-1,-1,-1,-1,-1,-1,-1,-1,-1,-1,-1,-1,-1,-1,-1],"loss_changes":[2.2895777E4,1.5156767E4,7.6968613E3,6.2584043E3,7.5308887E2,4.958529E3,1.3573105E3,4.267463E3,2.2644812E3,4.5290283E2,2.7395752E2,3.9970579E3,4.216453E3,5.589336E2,8.9293236E1,1.4346367E3,1.7610803E2,1.0850266E3,1.597154E3,1.144624E2,1.7742943E1,7.211621E1,2.2185112E1,1.1235339E3,2.1521528E3,2.300795E3,6.6748346E2,9.306055E1,3.8936707E1,4.470233E1,2.514378E1,4.079508E2,1.671168E3,2.714331E1,3.4726074E1,3.0679504E2,3.9190063E2,5.5187134E2,2.9788818E2,9.0359375E1,1.4805206E1,1.4270197E1,8.363394E0,1.8887573E1,2.730957E1,1.4421846E1,9.954979E0,1.247853E3,2.8702985E2,1.684422E3,1.8995068E2,1.9379375E3,9.274888E2,3.8433426E2,4.4202264E2,4.8093506E1,9.258594E1,3.697786E1,3.693347E1,9.27851E0,3.6741142E1,2.0828913E1,2.027187E1,0E0,0E0,0E0,0E0,0E0,0E0,0E0,0E0,0E0,0E0,0E0,0E0,0E0,0E0,0E0,0E0,0E0,0E0,0E0,0E0,0E0,0E0,0E0,0E0,0E0,0E0,0E0,0E0,0E0,0E0,0E0,0E0,0E0,0E0,0E0,0E0,0E0,0E0,0E0,0E0,0E0,0E0,0E0,0E0,0E0,0E0,0E0,0E0,0E0,0E0,0E0,0E0,0E0,0E0,0E0,0E0,0E0,0E0,0E0,0E0,0E0,0E0,0E0,0E0],"parents":[2147483647,0,0,1,1,2,2,3,3,4,4,5,5,6,6,7,7,8,8,9,9,10,10,11,11,12,12,13,13,14,14,15,15,16,16,17,17,18,18,19,19,20,20,21,21,22,22,23,23,24,24,25,25,26,26,27,27,28,28,29,29,30,30,31,31,32,32,33,33,34,34,35,35,36,36,37,37,38,38,39,39,40,40,41,41,42,42,43,43,44,44,45,45,46,46,47,47,48,48,49,49,50,50,51,51,52,52,53,53,54,54,55,55,56,56,57,57,58,58,59,59,60,60,61,61,62,62],"right_children":[2,4,6,8,10,12,14,16,18,20,22,24,26,28,30,32,34,36,38,40,42,44,46,48,50,52,54,56,58,60,62,64,66,68,70,72,74,76,78,80,82,84,86,88,90,92,94,96,98,100,102,104,106,108,110,112,114,116,118,120,122,124,126,-1,-1,-1,-1,-1,-1,-1,-1,-1,-1,-1,-1,-1,-1,-1,-1,-1,-1,-1,-1,-1,-1,-1,-1,-1,-1,-1,-1,-1,-1,-1,-1,-1,-1,-1,-1,-1,-1,-1,-1,-1,-1,-1,-1,-1,-1,-1,-1,-1,-1,-1,-1,-1,-1,-1,-1,-1,-1,-1,-1,-1,-1,-1,-1],"split_conditions":[6E0,4E0,4E0,7E0,1.9E1,2E1,2.99E2,1E0,3E0,1E0,1E0,1E0,4.4E2,1E0,4.76E2,4.3E1,3E0,1E0,1E0,1E0,9.92E1,6.3E1,9.92E1,1.53E2,1E0,1E0,1.72E2,3E0,1E0,3.25E1,2E1,1E0,1E0,1E0,9.77E1,1E0,1.4E1,1E0,1.05E2,5E0,1.3E1,1.06E2,3E0,1.4E1,1E0,1E0,1.59E2,1.5E1,1E0,1E0,5E0,3E0,1E0,9E0,7.95E2,2E0,3E0,1.08E2,1.82E2,1.1E1,1E0,1.1E1,2.7833334E1,-3.3362545E-2,1.7516209E-2,4.311962E-2,7.8224994E-2,-6.276665E-2,-2.0437324E-2,-3.8853366E-2,-5.2825402E-2,-3.0631006E-2,1.2580491E-2,7.625105E-2,3.5864856E-2,-2.9386176E-2,-5.802393E-3,3.702096E-2,5.286789E-3,-3.4723807E-2,-6.909614E-2,-8.866523E-2,-6.316927E-2,2.5075508E-2,-3.3694327E-2,9.225142E-3,-1.610819E-2,-5.4015208E-2,-5.8306497E-2,-8.679096E-2,-8.4795944E-2,-3.2856893E-2,6.1388733E-3,-5.2025493E-2,1.2259483E-3,4.2468883E-2,7.0952177E-3,7.5356844E-3,-2.7649665E-2,-6.610336E-2,-8.402705E-3,-4.7003474E-2,-6.861996E-2,-2.760507E-2,-6.014576E-2,-4.450953E-3,-3.1580914E-2,-3.9541114E-2,1.4819623E-3,8.18063E-2,7.8062536E-3,-7.284756E-2,-4.9339734E-2,-1.017853E-1,-5.6968134E-2,5.0782133E-2,-4.6047963E-2,-9.353228E-2,-4.5185596E-2,-6.204879E-2,2.5029144E-1,-8.185688E-2,-1.576652E-2,9.38638E-2,2.6693618E-2,3.6534163E-1,-4.9383927E-2],"split_indices":[8,0,0,9,9,9,8,42,0,39,39,14,8,39,8,2,0,20,39,42,4,9,4,8,42,39,9,9,14,10,5,0,39,0,4,0,5,20,9,0,5,2,6,5,20,8,3,5,20,0,17,0,14,5,8,15,17,3,8,5,39,9,10,0,0,0,0,0,0,0,0,0,0,0,0,0,0,0,0,0,0,0,0,0,0,0,0,0,0,0,0,0,0,0,0,0,0,0,0,0,0,0,0,0,0,0,0,0,0,0,0,0,0,0,0,0,0,0,0,0,0,0,0,0,0,0,0],"split_type":[0,0,0,0,0,0,0,0,0,0,0,0,0,0,0,0,0,0,0,0,0,0,0,0,0,0,0,0,0,0,0,0,0,0,0,0,0,0,0,0,0,0,0,0,0,0,0,0,0,0,0,0,0,0,0,0,0,0,0,0,0,0,0,0,0,0,0,0,0,0,0,0,0,0,0,0,0,0,0,0,0,0,0,0,0,0,0,0,0,0,0,0,0,0,0,0,0,0,0,0,0,0,0,0,0,0,0,0,0,0,0,0,0,0,0,0,0,0,0,0,0,0,0,0,0,0,0],"sum_hessian":[2.253335E6,7.46833E5,1.506502E6,6.96361E5,5.0472E4,1.471925E6,3.4577E4,4.32702E5,2.63659E5,3.3637E4,1.6835E4,6.37121E5,8.34804E5,2.9748E4,4.829E3,4.15956E5,1.6746E4,1.12587E5,1.51072E5,3.0489E4,3.148E3,1.5195E4,1.64E3,2.21856E5,4.15265E5,6.57195E5,1.77609E5,2.5696E4,4.052E3,2.084E3,2.745E3,1.7143E4,3.98813E5,1.0057E4,6.689E3,5.2896E4,5.9691E4,1.05775E5,4.5297E4,2.9333E4,1.156E3,1.994E3,1.154E3,5.824E3,9.371E3,1.031E3,6.09E2,1.7129E5,5.0566E4,3.98738E5,1.6527E4,3.67824E5,2.89371E5,1.35347E5,4.2262E4,4.703E3,2.0993E4,1.958E3,2.094E3,1.49E2,1.935E3,2.224E3,5.21E2,5.576E3,1.1567E4,2.42292E5,1.56521E5,6.6E2,9.397E3,1.598E3,5.091E3,3.546E3,4.935E4,2.6992E4,3.2699E4,5.0653E4,5.5122E4,2.763E4,1.7667E4,2.8306E4,1.027E3,3.48E2,8.08E2,1.858E3,1.36E2,4.85E2,6.69E2,3.469E3,2.355E3,4.141E3,5.23E3,5.8E2,4.51E2,5.36E2,7.3E1,9.8681E4,7.2609E4,2.9524E4,2.1042E4,9.415E3,3.89323E5,1.1266E4,5.261E3,1.51175E5,2.16649E5,1.09497E5,1.79874E5,2.2113E4,1.13234E5,2.1527E4,2.0735E4,3.659E3,1.044E3,2.057E4,4.23E2,1.73E2,1.785E3,1.472E3,6.22E2,4.5E1,1.04E2,1.319E3,6.16E2,5.6E2,1.664E3,2.2E1,4.99E2],"tree_param":{"num_deleted":"0","num_feature":"44","num_nodes":"127","size_leaf_vector":"1"}},{"base_weights":[-1.1466111E-2,1.2481087E-1,-7.902407E-2,1.6156396E-1,-3.8226378E-1,-6.8316616E-2,-5.3481984E-1,2.3182645E-1,4.625275E-2,-2.9743147E-1,-5.517344E-1,9.6548436E-4,-1.12189025E-1,-6.1239034E-1,-5.6935817E-2,2.5089133E-1,-2.4171494E-1,1.485327E-1,-2.9972265E-2,-3.3292884E-1,4.6363924E-2,-5.9259015E-1,-1.730652E-1,1.00581735E-1,-5.4689612E-2,-1.4329982E-1,1.7105753E-2,-6.665369E-1,-2.689366E-1,-2.0815347E-1,5.7902403E-2,4.0182803E-2,2.6699844E-1,-1.6076756E-1,-3.6337817E-1,4.953022E-2,2.3626281E-1,-9.367909E-2,1.1879112E-1,-3.210268E-1,-6.343993E-1,1.0225564E-1,-5.021645E-2,-5.0506437E-1,-6.46927E-1,-2.6939204E-1,-3.9244186E-2,2.725356E-2,1.6701451E-1,-4.043827E-2,-3.9622256E-1,-1.9148709E-1,-8.313627E-2,5.433966E-3,2.473029E-1,-5.215249E-1,-6.9210696E-1,-1.7151608E-1,-3.5990453E-1,3.0215827E-1,-2.4447869E-1,-2.7192386E-2,1.5595612E-1,-1.1300228E-2,5.1904204E-3,1.7559236E-2,1.0669462E-2,-1.6944025E-2,-7.4111517E-3,-2.2747386E-2,-1.54577885E-2,5.4994873E-3,-1.8744812E-3,1.2615903E-2,-8.070781E-3,-8.282663E-3,-1.3769207E-3,9.582001E-3,1.4532736E-3,-1.5533261E-2,-3.0301556E-2,-3.680328E-2,-2.600365E-2,6.1861216E-3,-9.489051E-3,1.1111111E-2,-3.7842952E-3,-2.3910778E-2,-3.148688E-2,-3.406568E-2,-2.8472463E-2,1.0273972E-3,-1.6069222E-2,-4.264214E-3,1.3186814E-2,6.486931E-3,-3.0570615E-3,1.2527158E-2,5.427707E-3,-3.2312737E-3,6.6101737E-3,-1.6352419E-2,-2.7529204E-2,-5.55315E-3,-1.2462144E-2,-5.398538E-4,-6.250764E-3,-6.245469E-3,1.2686257E-3,1.6493056E-2,4.740216E-3,-2.1709956E-2,-3.2579187E-2,-3.5067063E-2,-1.2274775E-2,1.2356321E-2,-1.0610303E-2,-2.2063816E-2,-8.346709E-3,5.4878048E-3,2.8448274E-2,-1.6754717E-2,-2.5682184E-3,-1.35E-2,1.7491467E-3,9.680207E-3,-1.0416667E-2],"categories":[],"categories_nodes":[],"categories_segments":[],"categories_sizes":[],"default_left":[0,0,0,0,0,0,0,0,0,0,0,0,0,0,0,0,0,0,0,0,0,0,0,0,0,0,0,0,0,0,0,0,0,